tree
version=v4
num_class=1
num_tree_per_iteration=1
label_index=0
max_feature_idx=679
objective=regression
feature_names=year month day hour O3VAL_1 O3VAL_2 O3VAL_3 O3VAL_4 O3VAL_5 O3VAL_6 O3VAL_7 O3VAL_8 O3VAL_9 O3VAL_10 O3VAL_11 O3VAL_12 O3VAL_13 O3VAL_14 O3VAL_15 O3VAL_16 O3VAL_17 O3VAL_18 O3VAL_19 O3VAL_20 O3VAL_21 O3VAL_22 O3VAL_23 O3VAL_24 O3VAL_25 O3VAL_26 O3VAL_27 O3VAL_28 O3VAL_29 O3VAL_30 O3VAL_31 O3VAL_32 O3VAL_33 O3VAL_34 O3VAL_35 O3VAL_36 O3VAL_37 O3VAL_38 O3VAL_39 O3VAL_40 O3VAL_41 O3VAL_42 O3VAL_43 O3VAL_44 O3VAL_45 O3VAL_46 O3VAL_47 O3VAL_48 O3VAL_49 O3VAL_50 O3VAL_51 O3VAL_52 O3VAL_53 O3VAL_54 O3VAL_55 O3VAL_56 O3VAL_57 O3VAL_58 O3VAL_59 O3VAL_60 O3VAL_61 O3VAL_62 O3VAL_63 O3VAL_64 O3VAL_65 O3VAL_66 O3VAL_67 O3VAL_68 O3VAL_69 O3VAL_70 O3VAL_71 O3VAL_72 O3VAL_73 O3VAL_74 O3VAL_75 O3VAL_76 O3VAL_77 O3VAL_78 O3VAL_79 O3VAL_80 O3VAL_81 O3VAL_82 O3VAL_83 O3VAL_84 O3VAL_85 O3VAL_86 O3VAL_87 O3VAL_88 O3VAL_89 O3VAL_90 O3VAL_91 O3VAL_92 O3VAL_93 O3VAL_94 O3VAL_95 O3VAL_96 O3VAL_97 O3VAL_98 O3VAL_99 O3VAL_100 O3VAL_101 O3VAL_102 O3VAL_103 O3VAL_104 O3VAL_105 O3VAL_106 O3VAL_107 O3VAL_108 O3VAL_109 O3VAL_110 O3VAL_111 O3VAL_112 O3VAL_113 O3VAL_114 O3VAL_115 O3VAL_116 O3VAL_117 O3VAL_118 O3VAL_119 O3VAL_120 O3VAL_121 O3VAL_122 O3VAL_123 O3VAL_124 O3VAL_125 O3VAL_126 O3VAL_127 O3VAL_128 O3VAL_129 O3VAL_130 O3VAL_131 O3VAL_132 O3VAL_133 O3VAL_134 O3VAL_135 O3VAL_136 O3VAL_137 O3VAL_138 O3VAL_139 O3VAL_140 O3VAL_141 O3VAL_142 O3VAL_143 O3VAL_144 O3VAL_145 O3VAL_146 O3VAL_147 O3VAL_148 O3VAL_149 O3VAL_150 O3VAL_151 O3VAL_152 O3VAL_153 O3VAL_154 O3VAL_155 O3VAL_156 O3VAL_157 O3VAL_158 O3VAL_159 O3VAL_160 O3VAL_161 O3VAL_162 O3VAL_163 O3VAL_164 O3VAL_165 O3VAL_166 O3VAL_167 O3VAL_168 O3VAL_169 O3VAL_170 O3VAL_171 O3VAL_172 O3VAL_173 O3VAL_174 O3VAL_175 O3VAL_176 O3VAL_177 O3VAL_178 O3VAL_179 O3VAL_180 O3VAL_181 O3VAL_182 O3VAL_183 O3VAL_184 O3VAL_185 O3VAL_186 O3VAL_187 O3VAL_188 O3VAL_189 O3VAL_190 O3VAL_191 O3VAL_192 O3VAL_193 O3VAL_194 O3VAL_195 O3VAL_196 O3VAL_197 O3VAL_198 O3VAL_199 O3VAL_200 O3VAL_201 O3VAL_202 O3VAL_203 O3VAL_204 O3VAL_205 O3VAL_206 O3VAL_207 O3VAL_208 O3VAL_209 O3VAL_210 O3VAL_211 O3VAL_212 O3VAL_213 O3VAL_214 O3VAL_215 O3VAL_216 O3VAL_217 O3VAL_218 O3VAL_219 O3VAL_220 O3VAL_221 O3VAL_222 O3VAL_223 O3VAL_224 O3VAL_225 O3VAL_226 O3VAL_227 O3VAL_228 O3VAL_229 O3VAL_230 O3VAL_231 O3VAL_232 O3VAL_233 O3VAL_234 O3VAL_235 O3VAL_236 O3VAL_237 O3VAL_238 O3VAL_239 O3VAL_240 O3VAL_241 O3VAL_242 O3VAL_243 O3VAL_244 O3VAL_245 O3VAL_246 O3VAL_247 O3VAL_248 O3VAL_249 O3VAL_250 O3VAL_251 O3VAL_252 O3VAL_253 O3VAL_254 O3VAL_255 O3VAL_256 O3VAL_257 O3VAL_258 O3VAL_259 O3VAL_260 O3VAL_261 O3VAL_262 O3VAL_263 O3VAL_264 O3VAL_265 O3VAL_266 O3VAL_267 O3VAL_268 O3VAL_269 O3VAL_270 O3VAL_271 O3VAL_272 O3VAL_273 O3VAL_274 O3VAL_275 O3VAL_276 O3VAL_277 O3VAL_278 O3VAL_279 O3VAL_280 O3VAL_281 O3VAL_282 O3VAL_283 O3VAL_284 O3VAL_285 O3VAL_286 O3VAL_287 O3VAL_288 O3VAL_289 O3VAL_290 O3VAL_291 O3VAL_292 O3VAL_293 O3VAL_294 O3VAL_295 O3VAL_296 O3VAL_297 O3VAL_298 O3VAL_299 O3VAL_300 O3VAL_301 O3VAL_302 O3VAL_303 O3VAL_304 O3VAL_305 O3VAL_306 O3VAL_307 O3VAL_308 O3VAL_309 O3VAL_310 O3VAL_311 O3VAL_312 O3VAL_313 O3VAL_314 O3VAL_315 O3VAL_316 O3VAL_317 O3VAL_318 O3VAL_319 O3VAL_320 O3VAL_321 O3VAL_322 O3VAL_323 O3VAL_324 O3VAL_325 O3VAL_326 O3VAL_327 O3VAL_328 O3VAL_329 O3VAL_330 O3VAL_331 O3VAL_332 O3VAL_333 O3VAL_334 O3VAL_335 O3VAL_336 O3VAL_337 O3VAL_338 O3VAL_339 O3VAL_340 O3VAL_341 O3VAL_342 O3VAL_343 O3VAL_344 O3VAL_345 O3VAL_346 O3VAL_347 O3VAL_348 O3VAL_349 O3VAL_350 O3VAL_351 O3VAL_352 O3VAL_353 O3VAL_354 O3VAL_355 O3VAL_356 O3VAL_357 O3VAL_358 O3VAL_359 O3VAL_360 O3VAL_361 O3VAL_362 O3VAL_363 O3VAL_364 O3VAL_365 O3VAL_366 O3VAL_367 O3VAL_368 O3VAL_369 O3VAL_370 O3VAL_371 O3VAL_372 O3VAL_373 O3VAL_374 O3VAL_375 O3VAL_376 O3VAL_377 O3VAL_378 O3VAL_379 O3VAL_380 O3VAL_381 O3VAL_382 O3VAL_383 O3VAL_384 O3VAL_385 O3VAL_386 O3VAL_387 O3VAL_388 O3VAL_389 O3VAL_390 O3VAL_391 O3VAL_392 O3VAL_393 O3VAL_394 O3VAL_395 O3VAL_396 O3VAL_397 O3VAL_398 O3VAL_399 O3VAL_400 O3VAL_401 O3VAL_402 O3VAL_403 O3VAL_404 O3VAL_405 O3VAL_406 O3VAL_407 O3VAL_408 O3VAL_409 O3VAL_410 O3VAL_411 O3VAL_412 O3VAL_413 O3VAL_414 O3VAL_415 O3VAL_416 O3VAL_417 O3VAL_418 O3VAL_419 O3VAL_420 O3VAL_421 O3VAL_422 O3VAL_423 O3VAL_424 O3VAL_425 O3VAL_426 O3VAL_427 O3VAL_428 O3VAL_429 O3VAL_430 O3VAL_431 O3VAL_432 O3VAL_433 O3VAL_434 O3VAL_435 O3VAL_436 O3VAL_437 O3VAL_438 O3VAL_439 O3VAL_440 O3VAL_441 O3VAL_442 O3VAL_443 O3VAL_444 O3VAL_445 O3VAL_446 O3VAL_447 O3VAL_448 O3VAL_449 O3VAL_450 O3VAL_451 O3VAL_452 O3VAL_453 O3VAL_454 O3VAL_455 O3VAL_456 O3VAL_457 O3VAL_458 O3VAL_459 O3VAL_460 O3VAL_461 O3VAL_462 O3VAL_463 O3VAL_464 O3VAL_465 O3VAL_466 O3VAL_467 O3VAL_468 O3VAL_469 O3VAL_470 O3VAL_471 O3VAL_472 O3VAL_473 O3VAL_474 O3VAL_475 O3VAL_476 O3VAL_477 O3VAL_478 O3VAL_479 O3VAL_480 O3VAL_481 O3VAL_482 O3VAL_483 O3VAL_484 O3VAL_485 O3VAL_486 O3VAL_487 O3VAL_488 O3VAL_489 O3VAL_490 O3VAL_491 O3VAL_492 O3VAL_493 O3VAL_494 O3VAL_495 O3VAL_496 O3VAL_497 O3VAL_498 O3VAL_499 O3VAL_500 O3VAL_501 O3VAL_502 O3VAL_503 O3VAL_504 O3VAL_505 O3VAL_506 O3VAL_507 O3VAL_508 O3VAL_509 O3VAL_510 O3VAL_511 O3VAL_512 O3VAL_513 O3VAL_514 O3VAL_515 O3VAL_516 O3VAL_517 O3VAL_518 O3VAL_519 O3VAL_520 O3VAL_521 O3VAL_522 O3VAL_523 O3VAL_524 O3VAL_525 O3VAL_526 O3VAL_527 O3VAL_528 O3VAL_529 O3VAL_530 O3VAL_531 O3VAL_532 O3VAL_533 O3VAL_534 O3VAL_535 O3VAL_536 O3VAL_537 O3VAL_538 O3VAL_539 O3VAL_540 O3VAL_541 O3VAL_542 O3VAL_543 O3VAL_544 O3VAL_545 O3VAL_546 O3VAL_547 O3VAL_548 O3VAL_549 O3VAL_550 O3VAL_551 O3VAL_552 O3VAL_553 O3VAL_554 O3VAL_555 O3VAL_556 O3VAL_557 O3VAL_558 O3VAL_559 O3VAL_560 O3VAL_561 O3VAL_562 O3VAL_563 O3VAL_564 O3VAL_565 O3VAL_566 O3VAL_567 O3VAL_568 O3VAL_569 O3VAL_570 O3VAL_571 O3VAL_572 O3VAL_573 O3VAL_574 O3VAL_575 O3VAL_576 O3VAL_577 O3VAL_578 O3VAL_579 O3VAL_580 O3VAL_581 O3VAL_582 O3VAL_583 O3VAL_584 O3VAL_585 O3VAL_586 O3VAL_587 O3VAL_588 O3VAL_589 O3VAL_590 O3VAL_591 O3VAL_592 O3VAL_593 O3VAL_594 O3VAL_595 O3VAL_596 O3VAL_597 O3VAL_598 O3VAL_599 O3VAL_600 O3VAL_601 O3VAL_602 O3VAL_603 O3VAL_604 O3VAL_605 O3VAL_606 O3VAL_607 O3VAL_608 O3VAL_609 O3VAL_610 O3VAL_611 O3VAL_612 O3VAL_613 O3VAL_614 O3VAL_615 O3VAL_616 O3VAL_617 O3VAL_618 O3VAL_619 O3VAL_620 O3VAL_621 O3VAL_622 O3VAL_623 O3VAL_624 O3VAL_625 O3VAL_626 O3VAL_627 O3VAL_628 O3VAL_629 O3VAL_630 O3VAL_631 O3VAL_632 O3VAL_633 O3VAL_634 O3VAL_635 O3VAL_636 O3VAL_637 O3VAL_638 O3VAL_639 O3VAL_640 O3VAL_641 O3VAL_642 O3VAL_643 O3VAL_644 O3VAL_645 O3VAL_646 O3VAL_647 O3VAL_648 O3VAL_649 O3VAL_650 O3VAL_651 O3VAL_652 O3VAL_653 O3VAL_654 O3VAL_655 O3VAL_656 O3VAL_657 O3VAL_658 O3VAL_659 O3VAL_660 O3VAL_661 O3VAL_662 O3VAL_663 O3VAL_664 O3VAL_665 O3VAL_666 O3VAL_667 O3VAL_668 O3VAL_669 O3VAL_670 O3VAL_671 O3VAL_672 QIWENVAL FSVAL SHIDUVAL YALIVAL
feature_infos=[2021:2022] [1:12] [1:31] [0:23] [0.308:395.12599999999998] [0.308:395.12599999999998] [0.308:395.12599999999998] [0.308:395.12599999999998] [0.308:395.12599999999998] [0.308:395.12599999999998] [0.308:395.12599999999998] [0.308:395.12599999999998] [0.308:395.12599999999998] [0.308:395.12599999999998] [0.308:395.12599999999998] [0.308:395.12599999999998] [0.308:395.12599999999998] [0.308:395.12599999999998] [0.308:395.12599999999998] [0.308:395.12599999999998] [0.308:395.12599999999998] [0.308:395.12599999999998] [0.308:395.12599999999998] [0.308:395.12599999999998] [0.308:395.12599999999998] [0.308:395.12599999999998] [0.308:395.12599999999998] [0.308:395.12599999999998] [0.308:395.12599999999998] [0.308:395.12599999999998] [0.308:395.12599999999998] [0.308:395.12599999999998] [0.308:395.12599999999998] [0.308:395.12599999999998] [0.308:395.12599999999998] [0.308:395.12599999999998] [0.308:395.12599999999998] [0.308:395.12599999999998] [0.308:395.12599999999998] [0.308:395.12599999999998] [0.308:395.12599999999998] [0.308:395.12599999999998] [0.308:395.12599999999998] [0.308:395.12599999999998] [0.308:395.12599999999998] [0.308:395.12599999999998] [0.308:395.12599999999998] [0.308:395.12599999999998] [0.308:395.12599999999998] [0.308:395.12599999999998] [0.308:395.12599999999998] [0.308:395.12599999999998] [0.308:395.12599999999998] [0.308:395.12599999999998] [0.308:395.12599999999998] [0.308:395.12599999999998] [0.308:395.12599999999998] [0.308:395.12599999999998] [0.308:395.12599999999998] [0.308:395.12599999999998] [0.308:395.12599999999998] [0.308:395.12599999999998] [0.308:395.12599999999998] [0.308:395.12599999999998] [0.308:395.12599999999998] [0.308:395.12599999999998] [0.308:395.12599999999998] [0.308:395.12599999999998] [0.308:395.12599999999998] [0.308:395.12599999999998] [0.308:395.12599999999998] [0.308:395.12599999999998] [0.308:395.12599999999998] [0.308:395.12599999999998] [0.308:395.12599999999998] [0.308:395.12599999999998] [0.308:395.12599999999998] [0.308:395.12599999999998] [0.308:395.12599999999998] [0.308:395.12599999999998] [0.308:395.12599999999998] [0.308:395.12599999999998] [0.308:395.12599999999998] [0.308:395.12599999999998] [0.308:395.12599999999998] [0.308:395.12599999999998] [0.308:395.12599999999998] [0.308:395.12599999999998] [0.308:395.12599999999998] [0.308:395.12599999999998] [0.308:395.12599999999998] [0.308:395.12599999999998] [0.308:395.12599999999998] [0.308:395.12599999999998] [0.308:395.12599999999998] [0.308:395.12599999999998] [0.308:395.12599999999998] [0.308:395.12599999999998] [0.308:395.12599999999998] [0.308:395.12599999999998] [0.308:395.12599999999998] [0.308:395.12599999999998] [0.308:395.12599999999998] [0.308:395.12599999999998] [0.308:395.12599999999998] [0.308:395.12599999999998] [0.308:395.12599999999998] [0.308:395.12599999999998] [0.308:395.12599999999998] [0.308:395.12599999999998] [0.308:395.12599999999998] [0.308:395.12599999999998] [0.308:395.12599999999998] [0.308:395.12599999999998] [0.308:395.12599999999998] [0.308:395.12599999999998] [0.308:395.12599999999998] [0.308:395.12599999999998] [0.308:395.12599999999998] [0.308:395.12599999999998] [0.308:395.12599999999998] [0.308:395.12599999999998] [0.308:395.12599999999998] [0.308:395.12599999999998] [0.308:395.12599999999998] [0.308:395.12599999999998] [0.308:395.12599999999998] [0.308:395.12599999999998] [0.308:395.12599999999998] [0.308:395.12599999999998] [0.308:395.12599999999998] [0.308:395.12599999999998] [0.308:395.12599999999998] [0.308:395.12599999999998] [0.308:395.12599999999998] [0.308:395.12599999999998] [0.308:395.12599999999998] [0.308:395.12599999999998] [0.308:395.12599999999998] [0.308:395.12599999999998] [0.308:395.12599999999998] [0.308:395.12599999999998] [0.308:395.12599999999998] [0.308:395.12599999999998] [0.308:395.12599999999998] [0.308:395.12599999999998] [0.308:395.12599999999998] [0.308:395.12599999999998] [0.308:395.12599999999998] [0.308:395.12599999999998] [0.308:395.12599999999998] [0.308:395.12599999999998] [0.308:395.12599999999998] [0.308:395.12599999999998] [0.308:395.12599999999998] [0.308:395.12599999999998] [0.308:395.12599999999998] [0.308:395.12599999999998] [0.308:395.12599999999998] [0.308:395.12599999999998] [0.308:395.12599999999998] [0.308:395.12599999999998] [0.308:395.12599999999998] [0.308:395.12599999999998] [0.308:395.12599999999998] [0.308:395.12599999999998] [0.308:395.12599999999998] [0.308:395.12599999999998] [0.308:395.12599999999998] [0.308:395.12599999999998] [0.308:395.12599999999998] [0.308:395.12599999999998] [0.308:395.12599999999998] [0.308:395.12599999999998] [0.308:395.12599999999998] [0.308:395.12599999999998] [0.308:395.12599999999998] [0.308:395.12599999999998] [0.308:395.12599999999998] [0.308:395.12599999999998] [0.308:395.12599999999998] [0.308:395.12599999999998] [0.308:395.12599999999998] [0.308:395.12599999999998] [0.308:395.12599999999998] [0.308:395.12599999999998] [0.308:395.12599999999998] [0.308:395.12599999999998] [0.308:395.12599999999998] [0.308:395.12599999999998] [0.308:395.12599999999998] [0.308:395.12599999999998] [0.308:395.12599999999998] [0.308:395.12599999999998] [0.308:395.12599999999998] [0.308:395.12599999999998] [0.308:395.12599999999998] [0.308:395.12599999999998] [0.308:395.12599999999998] [0.308:395.12599999999998] [0.308:395.12599999999998] [0.308:395.12599999999998] [0.308:395.12599999999998] [0.308:395.12599999999998] [0.308:395.12599999999998] [0.308:395.12599999999998] [0.308:395.12599999999998] [0.308:395.12599999999998] [0.308:395.12599999999998] [0.308:395.12599999999998] [0.308:395.12599999999998] [0.308:395.12599999999998] [0.308:395.12599999999998] [0.308:395.12599999999998] [0.308:395.12599999999998] [0.308:395.12599999999998] [0.308:395.12599999999998] [0.308:395.12599999999998] [0.308:395.12599999999998] [0.308:395.12599999999998] [0.308:395.12599999999998] [0.308:395.12599999999998] [0.308:395.12599999999998] [0.308:395.12599999999998] [0.308:395.12599999999998] [0.308:395.12599999999998] [0.308:395.12599999999998] [0.308:395.12599999999998] [0.308:395.12599999999998] [0.308:395.12599999999998] [0.308:395.12599999999998] [0.308:395.12599999999998] [0.308:395.12599999999998] [0.308:395.12599999999998] [0.308:395.12599999999998] [0.308:395.12599999999998] [0.308:395.12599999999998] [0.308:395.12599999999998] [0.308:395.12599999999998] [0.308:395.12599999999998] [0.308:395.12599999999998] [0.308:395.12599999999998] [0.308:395.12599999999998] [0.308:395.12599999999998] [0.308:395.12599999999998] [0.308:395.12599999999998] [0.308:395.12599999999998] [0.308:395.12599999999998] [0.308:395.12599999999998] [0.308:395.12599999999998] [0.308:395.12599999999998] [0.308:395.12599999999998] [0.308:395.12599999999998] [0.308:395.12599999999998] [0.308:395.12599999999998] [0.308:395.12599999999998] [0.308:395.12599999999998] [0.308:395.12599999999998] [0.308:395.12599999999998] [0.308:395.12599999999998] [0.308:395.12599999999998] [0.308:395.12599999999998] [0.308:395.12599999999998] [0.308:395.12599999999998] [0.308:395.12599999999998] [0.308:395.12599999999998] [0.308:395.12599999999998] [0.308:395.12599999999998] [0.308:395.12599999999998] [0.308:395.12599999999998] [0.308:395.12599999999998] [0.308:395.12599999999998] [0.308:395.12599999999998] [0.308:395.12599999999998] [0.308:395.12599999999998] [0.308:395.12599999999998] [0.308:395.12599999999998] [0.308:395.12599999999998] [0.308:395.12599999999998] [0.308:395.12599999999998] [0.308:395.12599999999998] [0.308:395.12599999999998] [0.308:395.12599999999998] [0.308:395.12599999999998] [0.308:395.12599999999998] [0.308:395.12599999999998] [0.308:395.12599999999998] [0.308:395.12599999999998] [0.308:395.12599999999998] [0.308:395.12599999999998] [0.308:395.12599999999998] [0.308:395.12599999999998] [0.308:395.12599999999998] [0.308:395.12599999999998] [0.308:395.12599999999998] [0.308:395.12599999999998] [0.308:395.12599999999998] [0.308:395.12599999999998] [0.308:395.12599999999998] [0.308:395.12599999999998] [0.308:395.12599999999998] [0.308:395.12599999999998] [0.308:395.12599999999998] [0.308:395.12599999999998] [0.308:395.12599999999998] [0.308:395.12599999999998] [0.308:395.12599999999998] [0.308:395.12599999999998] [0.308:395.12599999999998] [0.308:395.12599999999998] [0.308:395.12599999999998] [0.308:395.12599999999998] [0.308:395.12599999999998] [0.308:395.12599999999998] [0.308:395.12599999999998] [0.308:395.12599999999998] [0.308:395.12599999999998] [0.308:395.12599999999998] [0.308:395.12599999999998] [0.308:395.12599999999998] [0.308:395.12599999999998] [0.308:395.12599999999998] [0.308:395.12599999999998] [0.308:395.12599999999998] [0.308:395.12599999999998] [0.308:395.12599999999998] [0.308:395.12599999999998] [0.308:395.12599999999998] [0.308:395.12599999999998] [0.308:395.12599999999998] [0.308:395.12599999999998] [0.308:395.12599999999998] [0.308:395.12599999999998] [0.308:395.12599999999998] [0.308:395.12599999999998] [0.308:395.12599999999998] [0.308:395.12599999999998] [0.308:395.12599999999998] [0.308:395.12599999999998] [0.308:395.12599999999998] [0.308:395.12599999999998] [0.308:395.12599999999998] [0.308:395.12599999999998] [0.308:395.12599999999998] [0.308:395.12599999999998] [0.308:395.12599999999998] [0.308:395.12599999999998] [0.308:395.12599999999998] [0.308:395.12599999999998] [0.308:395.12599999999998] [0.308:395.12599999999998] [0.308:395.12599999999998] [0.308:395.12599999999998] [0.308:395.12599999999998] [0.308:395.12599999999998] [0.308:395.12599999999998] [0.308:395.12599999999998] [0.308:395.12599999999998] [0.308:395.12599999999998] [0.308:395.12599999999998] [0.308:395.12599999999998] [0.308:395.12599999999998] [0.308:395.12599999999998] [0.308:395.12599999999998] [0.308:395.12599999999998] [0.308:395.12599999999998] [0.308:395.12599999999998] [0.308:395.12599999999998] [0.308:395.12599999999998] [0.308:395.12599999999998] [0.308:395.12599999999998] [0.308:395.12599999999998] [0.308:395.12599999999998] [0.308:395.12599999999998] [0.308:395.12599999999998] [0.308:395.12599999999998] [0.308:395.12599999999998] [0.308:395.12599999999998] [0.308:395.12599999999998] [0.308:395.12599999999998] [0.308:395.12599999999998] [0.308:395.12599999999998] [0.308:395.12599999999998] [0.308:395.12599999999998] [0.308:395.12599999999998] [0.308:395.12599999999998] [0.308:395.12599999999998] [0.308:395.12599999999998] [0.308:395.12599999999998] [0.308:395.12599999999998] [0.308:395.12599999999998] [0.308:395.12599999999998] [0.308:395.12599999999998] [0.308:395.12599999999998] [0.308:395.12599999999998] [0.308:395.12599999999998] [0.308:395.12599999999998] [0.308:395.12599999999998] [0.308:395.12599999999998] [0.308:395.12599999999998] [0.308:395.12599999999998] [0.308:395.12599999999998] [0.308:395.12599999999998] [0.308:395.12599999999998] [0.308:395.12599999999998] [0.308:395.12599999999998] [0.308:395.12599999999998] [0.308:395.12599999999998] [0.308:395.12599999999998] [0.308:395.12599999999998] [0.308:395.12599999999998] [0.308:395.12599999999998] [0.308:395.12599999999998] [0.308:395.12599999999998] [0.308:395.12599999999998] [0.308:395.12599999999998] [0.308:395.12599999999998] [0.308:395.12599999999998] [0.308:395.12599999999998] [0.308:395.12599999999998] [0.308:395.12599999999998] [0.308:395.12599999999998] [0.308:395.12599999999998] [0.308:395.12599999999998] [0.308:395.12599999999998] [0.308:395.12599999999998] [0.308:395.12599999999998] [0.308:395.12599999999998] [0.308:395.12599999999998] [0.308:395.12599999999998] [0.308:395.12599999999998] [0.308:395.12599999999998] [0.308:395.12599999999998] [0.308:395.12599999999998] [0.308:395.12599999999998] [0.308:395.12599999999998] [0.308:395.12599999999998] [0.308:395.12599999999998] [0.308:395.12599999999998] [0.308:395.12599999999998] [0.308:395.12599999999998] [0.308:395.12599999999998] [0.308:395.12599999999998] [0.308:395.12599999999998] [0.308:395.12599999999998] [0.308:395.12599999999998] [0.308:395.12599999999998] [0.308:395.12599999999998] [0.308:395.12599999999998] [0.308:395.12599999999998] [0.308:395.12599999999998] [0.308:395.12599999999998] [0.308:395.12599999999998] [0.308:395.12599999999998] [0.308:395.12599999999998] [0.308:395.12599999999998] [0.308:395.12599999999998] [0.308:395.12599999999998] [0.308:395.12599999999998] [0.308:395.12599999999998] [0.308:395.12599999999998] [0.308:395.12599999999998] [0.308:395.12599999999998] [0.308:395.12599999999998] [0.308:395.12599999999998] [0.308:395.12599999999998] [0.308:395.12599999999998] [0.308:395.12599999999998] [0.308:395.12599999999998] [0.308:395.12599999999998] [0.308:395.12599999999998] [0.308:395.12599999999998] [0.308:395.12599999999998] [0.308:395.12599999999998] [0.308:395.12599999999998] [0.308:395.12599999999998] [0.308:395.12599999999998] [0.308:395.12599999999998] [0.308:395.12599999999998] [0.308:395.12599999999998] [0.308:395.12599999999998] [0.308:395.12599999999998] [0.308:395.12599999999998] [0.308:395.12599999999998] [0.308:395.12599999999998] [0.308:395.12599999999998] [0.308:395.12599999999998] [0.308:395.12599999999998] [0.308:395.12599999999998] [0.308:395.12599999999998] [0.308:395.12599999999998] [0.308:395.12599999999998] [0.308:395.12599999999998] [0.308:395.12599999999998] [0.308:395.12599999999998] [0.308:395.12599999999998] [0.308:395.12599999999998] [0.308:395.12599999999998] [0.308:395.12599999999998] [0.308:395.12599999999998] [0.308:395.12599999999998] [0.308:395.12599999999998] [0.308:395.12599999999998] [0.308:395.12599999999998] [0.308:395.12599999999998] [0.308:395.12599999999998] [0.308:395.12599999999998] [0.308:395.12599999999998] [0.308:395.12599999999998] [0.308:395.12599999999998] [0.308:395.12599999999998] [0.308:395.12599999999998] [0.308:395.12599999999998] [0.308:395.12599999999998] [0.308:395.12599999999998] [0.308:395.12599999999998] [0.308:395.12599999999998] [0.308:395.12599999999998] [0.308:395.12599999999998] [0.308:395.12599999999998] [0.308:395.12599999999998] [0.308:395.12599999999998] [0.308:395.12599999999998] [0.308:395.12599999999998] [0.308:395.12599999999998] [0.308:395.12599999999998] [0.308:395.12599999999998] [0.308:395.12599999999998] [0.308:395.12599999999998] [0.308:395.12599999999998] [0.308:395.12599999999998] [0.308:395.12599999999998] [0.308:395.12599999999998] [0.308:395.12599999999998] [0.308:395.12599999999998] [0.308:395.12599999999998] [0.308:395.12599999999998] [0.308:395.12599999999998] [0.308:395.12599999999998] [0.308:395.12599999999998] [0.308:395.12599999999998] [0.308:395.12599999999998] [0.308:395.12599999999998] [0.308:395.12599999999998] [0.308:395.12599999999998] [0.308:395.12599999999998] [0.308:395.12599999999998] [0.308:395.12599999999998] [0.308:395.12599999999998] [0.308:395.12599999999998] [0.308:395.12599999999998] [0.308:395.12599999999998] [0.308:395.12599999999998] [0.308:395.12599999999998] [0.308:395.12599999999998] [0.308:395.12599999999998] [0.308:395.12599999999998] [0.308:395.12599999999998] [0.308:395.12599999999998] [0.308:395.12599999999998] [0.308:395.12599999999998] [0.308:395.12599999999998] [0.308:395.12599999999998] [0.308:395.12599999999998] [0.308:395.12599999999998] [0.308:395.12599999999998] [0.308:395.12599999999998] [0.308:395.12599999999998] [0.308:395.12599999999998] [0.308:395.12599999999998] [0.308:395.12599999999998] [0.308:395.12599999999998] [0.308:395.12599999999998] [0.308:395.12599999999998] [0.308:395.12599999999998] [0.308:395.12599999999998] [0.308:395.12599999999998] [0.308:395.12599999999998] [0.308:395.12599999999998] [0.308:395.12599999999998] [0.308:395.12599999999998] [0.308:395.12599999999998] [0.308:395.12599999999998] [0.308:395.12599999999998] [0.308:395.12599999999998] [0.308:395.12599999999998] [0.308:395.12599999999998] [0.308:395.12599999999998] [0.308:395.12599999999998] [0.308:395.12599999999998] [0.308:395.12599999999998] [0.308:395.12599999999998] [0.308:395.12599999999998] [0.308:395.12599999999998] [0.308:395.12599999999998] [0.308:395.12599999999998] [0.308:395.12599999999998] [0.308:395.12599999999998] [0.308:395.12599999999998] [0.308:395.12599999999998] [0.308:395.12599999999998] [0.308:395.12599999999998] [0.308:395.12599999999998] [0.308:395.12599999999998] [0.308:395.12599999999998] [0.308:395.12599999999998] [0.308:395.12599999999998] [0.308:395.12599999999998] [0.308:395.12599999999998] [0.308:395.12599999999998] [0.308:395.12599999999998] [0.308:395.12599999999998] [0.308:395.12599999999998] [0.308:395.12599999999998] [0.308:395.12599999999998] [0.308:395.12599999999998] [0.308:395.12599999999998] [0.308:395.12599999999998] [0.308:395.12599999999998] [0.308:395.12599999999998] [0.308:395.12599999999998] [0.308:395.12599999999998] [0.308:395.12599999999998] [0.308:395.12599999999998] [0.308:395.12599999999998] [0.308:395.12599999999998] [0.308:395.12599999999998] [0.308:395.12599999999998] [0.308:395.12599999999998] [0.308:395.12599999999998] [0.308:395.12599999999998] [0.308:395.12599999999998] [0.308:395.12599999999998] [0.308:395.12599999999998] [0.308:395.12599999999998] [0.308:395.12599999999998] [0.308:395.12599999999998] [0.308:395.12599999999998] [0.308:395.12599999999998] [0.308:395.12599999999998] [0.308:395.12599999999998] [0.308:395.12599999999998] [0.308:395.12599999999998] [0.308:395.12599999999998] [0.308:395.12599999999998] [0.308:395.12599999999998] [0.308:395.12599999999998] [0.308:395.12599999999998] [0.308:395.12599999999998] [0.308:395.12599999999998] [0.308:395.12599999999998] [0.308:395.12599999999998] [0.308:395.12599999999998] [0.308:395.12599999999998] [0.308:395.12599999999998] [0.308:395.12599999999998] [0.308:395.12599999999998] [0.308:395.12599999999998] [0.308:395.12599999999998] [0.308:395.12599999999998] [0.308:395.12599999999998] [0.308:395.12599999999998] [0.308:395.12599999999998] [0.308:395.12599999999998] [0.308:395.12599999999998] [0.308:395.12599999999998] [0.308:395.12599999999998] [0.308:395.12599999999998] [0.308:395.12599999999998] [0.308:395.12599999999998] [0.308:395.12599999999998] [0.308:395.12599999999998] [0.308:395.12599999999998] [0.308:395.12599999999998] [0.308:395.12599999999998] [0.308:395.12599999999998] [-9.3719999999999999:39.029000000000003] [0.106:4.6109999999999998] [13.108000000000001:100] [990.95899999999995:1041.6410000000001]
tree_sizes=2714 2764 2752 2761 2754 2764 2755 2758 2776 2764 2776 2767 2759 2790 2763 2751 2793 2759 2749 2758 2769 2777 2786 2762 2790 2783 2772 2755 2791 2777 2789 2787 2772 2786 2778 2783 2765 2798 2785 2792 2778 2795 2794 2793 2793 2800 2790 2769 2777 2800 2786 2797 2791 2806 2807 2804 2818 2794 2792 2789 2797 2803 2754 2812 2794 2804 2807 2800 2812 2790 2803 2786 2800 2797 2814 2812 2822 2814 2823 2810 2807 2792 2809 2807 2831 2830 2800 2805 2797 2801 2810 2816 2812 2825 2829 2807 2833 2791 2807 2816

Tree=0
num_leaves=31
num_cat=0
split_feature=4 4 4 4 4 4 4 4 4 677 677 4 677 677 4 677 4 4 676 677 677 7 4 6 7 5 5 7 4 217
split_gain=2.1632e+07 5.14036e+06 3.42881e+06 901582 822386 496652 317296 162737 130131 118549 101346 90442.7 85625.3 81990.9 70143.3 54510.7 50398.9 43703 37760.2 31639.5 31294.6 28914.1 25963.2 25208 23888.1 23199.9 22755.7 21779 21296.6 19710.6
threshold=76.084000000000017 130.99600000000001 33.251000000000012 98.194000000000003 169.35950000000005 58.150500000000008 11.732000000000001 116.24450000000002 201.01050000000001 0.72150000000000014 0.52650000000000008 149.13450000000003 0.63750000000000007 0.52650000000000008 84.34350000000002 0.69950000000000012 48.770500000000006 65.870000000000019 16.742500000000003 0.62750000000000006 0.96250000000000002 64.075500000000019 48.246000000000002 82.720000000000013 73.603500000000011 47.081500000000013 29.374000000000006 119.14150000000002 106.11650000000002 151.52700000000002
decision_type=2 2 2 2 2 2 2 2 2 2 2 2 2 2 2 2 2 2 2 2 2 2 2 2 2 2 2 2 2 2
left_child=2 3 6 12 11 9 19 15 -6 22 -8 27 -2 -7 -14 -5 26 -15 -12 -1 -9 -16 -4 -17 -22 -18 -11 -3 -25 -10
right_child=1 4 5 7 8 13 10 20 29 16 18 -13 14 17 21 23 25 -19 -20 -21 24 -23 -24 28 -26 -27 -28 -29 -30 -31
leaf_value=69.051246107697239 72.383307413646236 75.942394455194915 70.415896417893975 73.226808649459656 77.739982975081304 71.402437836258358 69.600031963713306 74.18683409399388 79.090910211773945 71.52678108672994 70.189538308145274 76.491982554022186 72.813593040160271 71.922034476801372 73.821291522797495 74.5519489073356 71.985571391849149 72.38901749116792 70.856657213491417 69.549020181439786 75.600365912365916 73.251132965705665 70.955665947851628 73.800684577833124 74.811081486869654 71.431162268048524 70.967888099587256 75.352083045038412 74.192352239784782 80.415816590050625
leaf_weight=1613 436 254 551 206 390 392 716 178 161 230 805 461 1007 868 267 250 257 1185 288 398 111 1330 374 660 703 710 875 406 732 34
leaf_count=1613 436 254 551 206 390 392 716 178 161 230 805 461 1007 868 267 250 257 1185 288 398 111 1330 374 660 703 710 875 406 732 34
internal_value=72.3516 74.3313 70.7302 73.6302 76.7476 71.5362 69.582 74.2708 78.2673 71.1048 70.0624 75.9546 73.0318 72.0651 73.1404 73.9935 71.3149 72.1916 70.3653 69.1498 74.7874 73.3465 70.6341 74.0897 74.9187 71.5785 71.0842 75.5793 74.0066 79.3219
internal_weight=0 7586 9262 5880 1706 5442 3820 2840 585 2997 1809 1121 3040 2445 2604 1848 2072 2053 1093 2011 992 1597 925 1642 814 967 1105 660 1392 195
internal_count=16848 7586 9262 5880 1706 5442 3820 2840 585 2997 1809 1121 3040 2445 2604 1848 2072 2053 1093 2011 992 1597 925 1642 814 967 1105 660 1392 195
is_linear=0
shrinkage=1


Tree=1
num_leaves=31
num_cat=0
split_feature=4 4 4 4 4 4 4 4 4 677 677 677 4 677 4 4 677 24 677 676 677 6 8 4 6 5 7 4 678 112
split_gain=1.95229e+07 4.63917e+06 3.0945e+06 813678 742203 449126 286360 147138 117443 93108.5 91464.5 82747.6 81624.5 77471.4 60896.3 53528.3 42303.3 35184.4 34534.8 34078.6 28742.6 25533.7 25456.8 22754.3 21971 19863.8 19670 19313.9 19265.3 19165.2
threshold=76.084000000000017 130.99600000000001 33.251000000000012 98.194000000000003 169.35950000000005 55.970000000000006 11.732000000000001 113.71250000000002 201.01050000000001 0.72150000000000014 0.52650000000000008 0.64650000000000019 149.13450000000003 0.71050000000000002 84.34350000000002 65.870000000000019 0.69950000000000012 76.576000000000008 0.96250000000000002 16.742500000000003 0.58850000000000013 72.215000000000018 40.245000000000012 46.551000000000009 86.139500000000012 48.791500000000006 118.11150000000002 188.19450000000003 74.361000000000004 98.771500000000017
decision_type=2 2 2 2 2 2 2 2 2 2 2 2 2 2 2 2 2 2 2 2 2 2 2 2 2 2 2 2 2 2
left_child=2 3 6 13 12 9 20 16 27 -4 -8 -7 26 -2 -15 25 -5 23 -9 -12 -1 -16 -20 -11 -18 -13 -3 -6 -19 -10
right_child=1 4 5 7 8 11 10 18 29 17 19 15 -14 14 21 -17 24 28 22 -21 -22 -23 -24 -25 -26 -27 -28 -29 -30 -31
leaf_value=-3.1424058548264551 0.096868893816223697 3.4146783980240389 -1.6717915319479428 0.80942266156329201 4.8701200968485621 -0.86224127382908744 -2.6140287742268442 1.6860740704921331 6.2039346853892008 -1.4031200379085389 -2.0539977115781411 0.054162373707482697 3.9333242372938972 0.45235146703236878 1.3841865514125025 0.053281718996960437 2.0081168621778489 -0.47975209138510472 3.2424122773683992 -1.4202347899696584 -2.6866698514099596 0.86056194207523196 2.3003341141849321 -0.9700349888699713 1.514221301108976 -0.53318464214744687 2.8524080547260482 5.6165334817537902 -1.0475951134311883 7.2098206225736652
leaf_weight=1567 530 251 845 187 260 577 716 223 114 623 805 171 461 972 286 1117 278 344 78 288 444 1252 889 591 1185 910 409 130 264 81
leaf_count=1567 530 251 845 187 260 577 716 223 114 623 805 171 461 972 286 1117 278 344 78 288 444 1252 889 591 1185 910 409 130 264 81
internal_value=0 1.88068 -1.54036 1.21466 4.17621 -0.774648 -2.6312 1.82319 5.61987 -1.23798 -2.17476 -0.329346 3.42282 0.64616 0.762146 -0.189454 1.51756 -1.03679 2.24697 -1.887 -3.04179 0.957933 2.37632 -1.19229 1.60807 -0.440274 3.06624 5.11892 -0.726316 6.62176
internal_weight=0 7586 9262 5880 1706 5442 3820 2840 585 2667 1809 2775 1121 3040 2510 2198 1650 1822 1190 1093 2011 1538 967 1214 1463 1081 660 390 608 195
internal_count=16848 7586 9262 5880 1706 5442 3820 2840 585 2667 1809 2775 1121 3040 2510 2198 1650 1822 1190 1093 2011 1538 967 1214 1463 1081 660 390 608 195
is_linear=0
shrinkage=0.05


Tree=2
num_leaves=31
num_cat=0
split_feature=4 4 4 4 4 4 4 4 4 677 4 677 677 677 4 677 4 4 676 4 5 7 677 4 4 5 5 8 5 5
split_gain=1.76194e+07 4.18781e+06 2.79278e+06 708630 700393 407255 258439 119705 105993 96706.3 82782.4 82711.7 70540.5 67584.5 60542.4 44560 41940.9 35375.8 31144.1 26875.6 24617.4 23519.3 23418.1 23215.7 22343.5 20254.6 19922 19589 19301.6 18187
threshold=76.084000000000017 129.90700000000001 33.251000000000012 169.35950000000005 98.194000000000003 58.150500000000008 11.732000000000001 116.24450000000002 201.01050000000001 0.72150000000000014 149.13450000000003 0.54750000000000021 0.63750000000000007 0.52650000000000008 89.287500000000009 0.69950000000000012 48.770500000000006 65.870000000000019 16.742500000000003 5.8135000000000012 84.34350000000002 44.796500000000002 1.0475000000000001 44.171000000000006 106.77050000000001 47.081500000000013 29.374000000000006 100.39150000000002 99.221000000000018 60.095000000000006
decision_type=2 2 2 2 2 2 2 2 2 2 2 2 2 2 2 2 2 2 2 2 2 2 2 2 2 2 2 2 2 2
left_child=2 4 6 10 12 9 19 15 -5 23 27 -8 -2 -7 21 -6 26 -15 -13 -1 -16 -14 -9 -4 -17 -18 -11 -3 -26 -19
right_child=1 3 5 8 7 13 11 22 -10 16 -12 18 14 17 20 24 25 29 -20 -21 -22 -23 -24 -25 28 -27 -28 -29 -30 -31
leaf_value=-3.0190423429457112 0.025239460746151045 3.2699919593708402 -1.8336529264263079 4.862978471486997 0.78689512371004211 -0.85863113925241097 -2.4747105954131303 1.7094114727698841 6.2906760467627114 -0.73317133617303942 3.7366579051648721 -1.9466098145007487 1.0377187768444418 -0.38467418235793183 1.5425507359682247 1.3928682564710555 -0.31600413808580091 0.44343946877833429 -1.3340195406268078 -2.6313906100840931 0.90386958271655127 0.45937095516554199 2.3119114249363584 -1.329157979140775 2.2937032634871346 -0.8340275176100328 -1.2561084335029027 2.7069922022091943 1.6450257690170962 -0.058578768678914719
leaf_weight=1340 436 223 408 390 206 392 735 208 195 230 461 793 200 868 188 868 257 222 281 671 764 1452 718 517 140 710 875 503 634 963
leaf_count=1340 436 223 408 390 206 392 735 208 195 230 461 793 200 868 188 868 257 222 281 671 764 1452 718 517 140 710 875 503 634 963
internal_value=0 1.78664 -1.46334 3.9146 1.13808 -0.735915 -2.49964 1.71258 5.33888 -1.12659 3.21266 -2.06602 0.613852 -0.257034 0.712406 1.48007 -0.936823 -0.142165 -1.78633 -2.8897 1.03 0.529389 2.17658 -1.55168 1.56704 -0.696352 -1.14726 2.87992 1.76236 0.0354702
internal_weight=0 7586 9262 1772 5814 5442 3820 2774 585 2997 1187 1809 3040 2445 2604 1848 2072 2053 1074 2011 952 1652 926 925 1642 967 1105 726 774 1185
internal_count=16848 7586 9262 1772 5814 5442 3820 2774 585 2997 1187 1809 3040 2445 2604 1848 2072 2053 1074 2011 952 1652 926 925 1642 967 1105 726 774 1185
is_linear=0
shrinkage=0.05


Tree=3
num_leaves=31
num_cat=0
split_feature=4 4 4 4 4 4 4 4 4 677 677 4 677 4 4 677 677 23 677 677 676 677 4 7 5 4 112 5 4 7
split_gain=1.59015e+07 3.78089e+06 2.5231e+06 662283 603956 397660 204670 120875 97590.1 82138.8 72729.9 66212.8 64639.1 63871.7 48338.3 41176.1 39678.3 34460.4 25323.4 24240.5 23397.5 23323.8 22972.8 22400.5 22016.5 21697.9 21347.7 20190.8 19012.9 18731.4
threshold=76.084000000000017 130.99600000000001 31.969500000000004 98.194000000000003 169.35950000000005 55.044500000000006 11.732000000000001 116.24450000000002 194.23650000000001 0.72150000000000014 0.65650000000000019 149.13450000000003 0.57850000000000013 84.34350000000002 64.516000000000005 0.55850000000000011 0.62750000000000006 76.08550000000001 0.5375000000000002 0.51750000000000018 16.871500000000001 0.96250000000000002 223.10700000000003 63.441500000000012 81.208500000000001 104.72850000000001 98.771500000000017 104.72850000000001 43.628000000000007 44.796500000000002
decision_type=2 2 2 2 2 2 2 2 2 2 2 2 2 2 2 2 2 2 2 2 2 2 2 2 2 2 2 2 2 2
left_child=2 3 6 13 11 9 18 15 -6 -4 -7 -3 -8 19 -12 -5 -15 28 -1 -2 -14 -9 -10 -18 -17 -26 -24 -23 -11 -21
right_child=1 4 5 7 8 10 12 21 22 17 14 -13 20 16 -16 24 23 -19 -20 29 -22 27 26 -25 25 -27 -28 -29 -30 -31
leaf_value=-2.8491788480308906 -0.38633017481392268 2.7688785647984711 -1.5604486020641521 0.46792406493967231 4.4943167759821971 -0.79298698443782112 -2.3626137423485605 1.5718195194608711 5.5226048119862874 -1.3517858696049923 -0.43942711454544603 3.5498250932341806 -1.8757334066265388 0.18086701612472533 0.023258352002731256 2.2181766561839891 1.2809764351884174 -0.66282479872590772 -2.442412659415707 0.90433604268135737 -1.3116071330527284 2.8806854975592233 5.5663815140724182 0.7754701160942552 1.2075440186253392 1.5760655531868402 7.3962597305710247 2.1120617045850767 -0.94903098524120511 0.28957242192138505
leaf_weight=1497 117 660 865 110 325 624 702 178 195 519 1022 461 727 250 1261 92 262 612 514 143 246 97 28 1340 682 964 37 717 673 928
leaf_count=1497 117 660 865 110 325 624 702 178 195 519 1022 461 727 250 1261 92 262 612 514 143 246 97 28 1340 682 964 37 717 673 928
internal_value=0 1.69731 -1.39017 1.09605 3.76964 -0.719208 -2.40518 1.64506 5.07193 -1.15988 -0.314616 3.09003 -1.99694 0.58316 -0.183866 1.40607 0.766718 -0.967807 -2.74521 0.297006 -1.73311 2.09028 5.79395 0.858143 1.46545 1.42337 6.608 2.20365 -1.12439 0.371656
internal_weight=0 7586 9262 5880 1706 5576 3686 2840 585 2669 2907 1121 1675 3040 2283 1848 1852 1804 2011 1188 973 992 260 1602 1738 1646 65 814 1192 1071
internal_count=16848 7586 9262 5880 1706 5576 3686 2840 585 2669 2907 1121 1675 3040 2283 1848 1852 1804 2011 1188 973 992 260 1602 1738 1646 65 814 1192 1071
is_linear=0
shrinkage=0.05


Tree=4
num_leaves=31
num_cat=0
split_feature=4 4 4 4 4 4 4 4 4 4 4 677 677 677 4 677 677 24 677 676 8 678 4 6 6 5 112 5 5 7
split_gain=1.43591e+07 3.55701e+06 2.12031e+06 607886 604345 309520 184908 88410.1 88075 74720.5 72854.9 70703.7 68768 63370.1 45150.4 35809.7 32592.1 30325.2 27662.1 26153.1 22626.6 20918.4 20733 20640.5 19672.4 19490.5 19266.3 19192.2 18908.7 18573.4
threshold=74.132500000000007 128.62200000000004 31.969500000000004 169.35950000000005 98.194000000000003 52.374500000000005 8.3500000000000014 113.71250000000002 194.23650000000001 149.13450000000003 84.34350000000002 0.57850000000000013 0.65650000000000019 0.54750000000000021 62.400000000000013 0.62750000000000006 0.82750000000000001 79.83850000000001 0.51750000000000018 16.871500000000001 40.245000000000012 74.361000000000004 223.10700000000003 70.43950000000001 108.123 46.565500000000007 98.771500000000017 92.882000000000019 60.095000000000006 29.374000000000006
decision_type=2 2 2 2 2 2 2 2 2 2 2 2 2 2 2 2 2 2 2 2 2 2 2 2 2 2 2 2 2 2
left_child=2 4 6 9 10 13 -1 16 -5 24 18 -8 -7 -4 25 -12 -6 -15 -2 -13 -9 -19 -10 -17 -3 -14 -24 -18 -16 -20
right_child=1 3 5 8 7 12 11 20 22 -11 15 19 14 17 28 23 27 21 29 -21 -22 -23 26 -25 -26 -27 -28 -29 -30 -31
leaf_value=-2.6729533378472969 -0.38051071777404372 3.0728229899315318 -1.6240044486488452 4.2696009670404287 0.80869335974649492 -0.84087728944741724 -2.2944502279681438 2.7740065233031319 5.2464746739314156 3.3723337918196741 0.17182364770174027 -1.8339186420300431 -0.066976109015939866 -1.1490019211676759 0.2819431252927691 1.2220479056981333 1.8231267752924136 -0.38625556765380403 0.98851916324911704 -1.2698390327036602 1.8246090240870516 -1.0357033194392495 5.2880625379937038 0.73605814990403495 2.4477581774906851 -0.59959346701797533 7.0264466878530145 1.3170602538661145 -0.17128571811493057 0.27599671540516563
leaf_weight=1675 153 157 566 325 281 671 890 67 195 461 250 850 212 1207 304 261 224 269 99 271 991 230 28 1341 635 905 37 1145 947 1201
leaf_count=1675 153 157 566 325 281 671 890 67 195 461 250 850 212 1207 304 261 224 269 99 271 991 230 28 1341 635 905 37 1145 947 1201
internal_value=0 1.56259 -1.36356 3.48756 0.974187 -0.724101 -2.28492 1.52796 4.81834 2.86625 0.520448 -1.96172 -0.394063 -1.16556 -0.267453 0.728383 1.29919 -1.01346 0.255415 -1.69755 1.88473 -0.6856 5.50426 0.815236 2.57167 -0.498506 6.2776 1.39986 -0.0611486 0.330258
internal_weight=0 7851 8997 1838 6013 5311 3686 2708 585 1253 3305 2011 3039 2272 2368 1852 1650 1706 1453 1121 1058 499 260 1602 792 1117 65 1369 1251 1300
internal_count=16848 7851 8997 1838 6013 5311 3686 2708 585 1253 3305 2011 3039 2272 2368 1852 1650 1706 1453 1121 1058 499 260 1602 792 1117 65 1369 1251 1300
is_linear=0
shrinkage=0.05


Tree=5
num_leaves=31
num_cat=0
split_feature=4 4 4 4 4 4 4 4 4 677 677 4 4 677 677 677 4 677 192 24 23 677 677 5 7 7 111 480 24 678
split_gain=1.29626e+07 2.79537e+06 2.39594e+06 529007 378801 321262 292903 79852.4 69061.5 65653.7 60824 53923.1 53564.4 51427.6 50115.6 36107.2 35097 30637.7 29205.7 27030.4 23488.8 22843.1 22782.6 21573.2 20039.5 19720.2 18047.1 17406.9 17143.3 16908.4
threshold=80.305500000000009 137.24950000000004 40.08400000000001 104.72850000000001 177.73450000000003 18.259000000000004 60.589000000000006 120.0835 91.356500000000025 0.54750000000000021 0.74950000000000017 156.29650000000001 209.38700000000003 0.52650000000000008 0.58850000000000013 0.66850000000000021 70.793500000000009 0.49150000000000005 34.438500000000012 77.364000000000019 106.78950000000002 1.0475000000000001 1.0975000000000004 84.34350000000002 112.95550000000001 59.080000000000005 97.125000000000014 123.66150000000002 84.355000000000004 74.090000000000018
decision_type=2 2 2 2 2 2 2 2 2 2 2 2 2 2 2 2 2 2 2 2 2 2 2 2 2 2 2 2 2 2
left_child=2 3 5 8 11 14 10 21 17 -7 -4 24 -6 -8 -1 -10 28 -2 -11 -12 -16 -5 -9 -17 -3 -19 -14 -28 -15 -21
right_child=1 4 6 7 12 9 13 22 15 18 19 -13 26 16 20 23 -18 25 -20 29 -22 -23 -24 -25 -26 -27 27 -29 -30 -31
leaf_value=-2.5283270828588562 -0.2258342374564849 3.2120128875554999 -1.1905616428998875 1.1160708371201589 4.4584044342407818 -1.9409023277078292 -0.62442083402500526 1.6279145853860038 0.37101735113374085 -1.6811683760245246 -0.80429017401360459 3.5120810450488378 5.1305380541417342 -0.33611746253866825 -2.1198985487687625 1.5379267893586075 0.19530985706054374 0.95652405767312898 -1.1664282700662141 -0.15843610680985551 -1.0702197272715899 1.5858718454899312 2.1892107078845195 0.96802854526809223 2.5717088115723779 0.47139279390710592 5.6872583088121917 7.5096352767944339 0.062980727008755066 -0.68679459667377962
leaf_weight=1832 137 172 806 353 325 661 385 238 231 401 1240 393 72 752 657 192 1153 254 881 334 58 969 752 1229 422 1195 38 20 419 277
leaf_count=1832 137 172 806 353 325 661 385 238 231 401 1240 393 72 752 657 192 1153 254 881 334 58 969 752 1229 422 1195 38 20 419 277
internal_value=0 1.64661 -1.16813 1.13702 3.60795 -2.02037 -0.455023 1.71471 0.724529 -1.53613 -0.828029 3.05773 4.80151 -0.0891772 -2.38977 0.950783 -0.000507376 0.48886 -1.32744 -0.670167 -2.03475 1.46043 2.05427 1.04503 2.75712 0.556433 5.65929 6.31566 -0.193315 -0.39797
internal_weight=0 6992 9856 5550 1442 4490 5366 2312 3238 1943 2657 987 455 2709 2547 1652 2324 1586 1282 1851 715 1322 990 1421 594 1449 130 58 1171 611
internal_count=16848 6992 9856 5550 1442 4490 5366 2312 3238 1943 2657 987 455 2709 2547 1652 2324 1586 1282 1851 715 1322 990 1421 594 1449 130 58 1171 611
is_linear=0
shrinkage=0.05


Tree=6
num_leaves=31
num_cat=0
split_feature=4 4 4 4 4 4 4 4 4 4 677 677 4 677 24 677 677 676 677 24 677 678 5 677 6 314 476 6 6 4
split_gain=1.17024e+07 2.9319e+06 1.70411e+06 506072 496094 266358 135822 79964.1 72991.8 61105.6 55599.1 55341.5 55231.2 52688.9 33613.2 28553.6 28483.9 25053.3 24020.5 23822.6 22571.5 21680.6 18478.5 18231.2 17532.2 17281.9 20937.4 15899.2 15512.8 15265.8
threshold=73.58750000000002 128.62200000000004 30.623500000000003 97.099000000000018 169.35950000000005 52.374500000000005 7.7500000000000009 112.92450000000001 194.23650000000001 146.61250000000004 0.69950000000000012 0.57850000000000013 84.34350000000002 0.76850000000000007 68.00500000000001 0.55850000000000011 0.87350000000000005 17.551500000000004 0.71050000000000002 74.160500000000013 1.1535000000000002 70.705500000000015 91.885500000000022 0.99650000000000005 108.123 96.118000000000009 129.90700000000001 80.704000000000022 57.230500000000006 65.870000000000019
decision_type=2 2 2 2 2 2 2 2 2 2 2 2 2 2 2 2 2 2 2 2 2 2 2 2 2 2 2 2 2 2
left_child=2 3 6 12 9 13 -1 15 -6 24 29 -8 18 -4 -12 -5 -14 -13 -2 -15 -9 -16 -17 -11 -3 -10 -27 -22 -20 -7
right_child=1 4 5 7 8 10 11 20 25 23 14 17 16 19 21 22 -18 -19 28 -21 27 -23 -24 -25 -26 26 -28 -29 -30 -31
leaf_value=-2.4305746813911706 -0.18309268783539559 2.7681780128102553 -1.3854088833242237 0.3520775760671942 3.8521272624455971 -0.91266849450452681 -2.0973406310189091 1.3394651286573296 4.311011996907248 2.2587280670801801 -0.43749160657064667 -1.6877942399486252 0.2887220562339784 -1.0406133999950009 0.16075525574557764 1.5915853571819971 0.7561125913902933 -1.0853393747582349 0.72009002571659431 -0.62973237576659491 2.480988044965835 -0.2737175988109844 1.1230822105629041 3.1149994058923411 2.1642585615818923 5.0449116294905991 6.7557295989990243 1.7534371406829121 0.24159857650266511 -0.419801303225946
leaf_weight=1608 293 152 856 107 325 474 898 332 71 72 1115 828 437 1007 586 249 1283 218 203 543 84 563 1360 455 574 169 20 708 1023 235
leaf_count=1608 293 152 856 107 325 474 898 332 71 72 1115 828 437 1007 586 249 1283 218 203 543 84 563 1360 455 574 169 20 708 1023 235
internal_value=0 1.39959 -1.24069 0.870515 3.14947 -0.679441 -2.09062 1.35771 4.35167 2.58819 -0.36292 -1.80942 0.443332 -1.07055 -0.241919 1.14299 0.637363 -1.56223 0.223626 -0.896672 1.68553 -0.0521327 1.19559 2.99801 2.2907 4.9761 5.22595 1.8306 0.320827 -0.749306
internal_weight=0 7917 8931 6079 1838 5379 3552 2840 585 1253 2973 1944 3239 2406 2264 1716 1720 1046 1519 1550 1124 1149 1609 527 726 260 189 792 1226 709
internal_count=16848 7917 8931 6079 1838 5379 3552 2840 585 1253 2973 1944 3239 2406 2264 1716 1720 1046 1519 1550 1124 1149 1609 527 726 260 189 792 1226 709
is_linear=0
shrinkage=0.05


Tree=7
num_leaves=31
num_cat=0
split_feature=4 4 4 4 4 4 4 4 4 677 4 677 4 677 677 4 5 217 24 677 193 8 7 678 677 7 7 111 677 676
split_gain=1.05649e+07 2.28143e+06 1.95915e+06 433262 311069 262840 241567 64660.3 57016.7 57007.7 56538 54197.5 41672 39194 34338.4 33571.3 23720.8 23442.5 22569.4 20811.4 20613.2 20210.6 20079.8 19729.5 18157.4 17432.3 16316.6 15964.3 15354.3 15158.9
threshold=80.305500000000009 137.24950000000004 40.08400000000001 104.72850000000001 182.77550000000002 18.259000000000004 62.400000000000013 120.0835 89.839500000000015 0.92850000000000021 156.29650000000001 0.67850000000000021 6.1795000000000009 0.52650000000000008 0.62750000000000006 209.38700000000003 83.939500000000024 59.870000000000005 81.21050000000001 0.50050000000000006 32.915500000000009 73.58750000000002 87.021000000000015 74.090000000000018 0.58850000000000013 112.95550000000001 117.17150000000002 97.125000000000014 0.55850000000000011 17.551500000000004
decision_type=2 2 2 2 2 2 2 2 2 2 2 2 2 2 2 2 2 2 2 2 2 2 2 2 2 2 2 2 2 2
left_child=2 3 5 8 10 12 9 22 19 -4 25 -7 -1 -8 -10 -6 -16 -11 -15 -2 -13 -9 -5 -20 -14 -3 -12 -17 -24 -26
right_child=1 4 6 7 15 11 13 21 14 17 26 20 24 18 16 27 -18 -19 23 -21 -22 -23 28 -25 29 -27 -28 -29 -30 -31
leaf_value=-2.3414015425293684 -0.21024768787655768 2.9137086900167688 -0.99790598035286748 1.689390344157194 4.1365330092723553 -1.7028756748260934 -0.53597195021528221 2.3403845143927771 0.26148852167821868 -0.73561090604971513 3.7595564020763748 -1.4839511777329717 -2.1161292146891357 -0.10430033463267906 1.3777849836565776 4.6233045548200611 0.83642782318232589 -0.37473214594608645 0.43449410167181557 0.47101953564311122 -1.0243673426374982 1.7494912588479186 0.51824187913220632 -0.035920303032259675 -1.8364303106104221 2.3165089129695398 3.0609506450850392 5.7379483387388035 1.270421780118647 -1.1092447136853669
leaf_weight=1407 123 172 1114 288 260 800 346 176 229 844 110 353 624 1194 237 72 1384 964 505 1265 790 814 73 399 430 422 348 58 961 86
leaf_count=1407 123 172 1114 288 260 800 346 176 229 844 110 353 624 1194 237 72 1384 964 505 1265 790 814 73 399 430 422 348 58 961 86
internal_value=0 1.48654 -1.05458 1.02617 3.25844 -1.82523 -0.409739 1.54898 0.652876 -0.716552 2.8113 -1.38723 -2.15935 -0.0429188 0.834612 4.46456 0.915578 -0.543195 0.038395 0.410648 -1.1663 1.85454 1.32016 0.226867 -1.93467 2.48944 3.22874 5.12061 1.21732 -1.71523
internal_weight=0 6992 9856 5550 1442 4490 5366 2312 3238 2922 1052 1943 2547 2444 1850 390 1621 1808 2098 1388 1143 990 1322 904 1140 594 458 130 1034 516
internal_count=16848 6992 9856 5550 1442 4490 5366 2312 3238 2922 1052 1943 2547 2444 1850 390 1621 1808 2098 1388 1143 990 1322 904 1140 594 458 130 1034 516
is_linear=0
shrinkage=0.05


Tree=8
num_leaves=31
num_cat=0
split_feature=4 4 4 4 4 4 4 4 4 4 4 677 677 677 24 677 5 677 677 6 24 678 677 677 20 5 5 677 4 7
split_gain=9.54577e+06 2.46212e+06 1.31622e+06 444578 406137 196889 109819 60209.2 58358.9 57704 49552.4 49133.1 45181.9 41874.5 30369.3 25098.3 23640.3 22240 21698.3 21646.3 21627.8 21387.9 17155.7 15983.5 15915.9 15866.5 15120.3 15018.7 14835.2 14472.8
threshold=72.215000000000018 128.62200000000004 30.623500000000003 98.194000000000003 169.35950000000005 50.344500000000004 7.7500000000000009 201.01050000000001 112.27350000000001 84.34350000000002 149.13450000000003 0.74950000000000017 0.57850000000000013 0.48150000000000004 77.865500000000011 0.87350000000000005 30.086500000000004 1.0475000000000001 0.43650000000000005 57.230500000000006 53.818500000000007 70.705500000000015 1.2775000000000001 0.48150000000000004 109.21350000000001 92.882000000000019 82.720000000000013 0.99650000000000005 42.568000000000005 73.603500000000011
decision_type=2 2 2 2 2 2 2 2 2 2 2 2 2 2 2 2 2 2 2 2 2 2 2 2 2 2 2 2 2 2
left_child=2 3 6 9 10 13 -1 -6 18 19 22 -7 -8 -4 -13 -11 24 -10 -5 -2 -14 -16 -3 -21 -15 -20 -17 -12 -18 -19
right_child=1 4 5 8 7 11 12 -9 17 15 27 14 20 16 21 26 28 29 25 23 -22 -23 -24 -25 -26 -27 -28 -29 -30 -31
leaf_value=-2.1943022307193845 0.59810430708880857 1.7868364161909462 -1.4259791497197203 0.037202551129918833 3.573184005786211 -0.71771764270867688 -1.8959170194056492 4.6492272506616059 1.12162423461623 0.273416546686718 2.0310834188309927 -0.40843991915127487 -1.6660650742987706 -0.66815332042445474 0.20666381642386156 0.98976403491710563 -1.1591004035082757 2.1176259873463557 1.4549222612201911 -0.34733239898812918 -1.2086241731370835 -0.28631906770126009 2.2713198121357343 0.17143246753876215 0.27080192428152516 1.0050196322604157 0.60396779726924643 2.8619374815430776 -0.82375869069843599 1.5476359003912683
leaf_weight=1608 271 286 465 52 390 796 898 195 283 467 63 1362 466 304 455 335 644 130 233 168 580 426 506 1278 53 1233 1050 398 676 777
leaf_count=1608 271 286 465 52 390 796 898 195 283 467 63 1362 466 304 455 335 644 130 233 168 580 426 506 1278 53 1233 1050 398 676 777
internal_value=0 1.23464 -1.14727 0.763357 2.84411 -0.639009 -1.88861 3.93187 1.24643 0.396819 2.33626 -0.380236 -1.63576 -1.00615 -0.26047 0.590401 -0.889736 1.50859 1.04092 0.188017 -1.41242 -0.0317138 2.09637 0.111161 -0.528757 1.07653 0.697283 2.74839 -0.987365 1.62933
internal_weight=0 8115 8733 6277 1838 5181 3552 585 2708 3569 1253 3039 1944 2142 2243 1852 1677 1190 1518 1717 1046 881 792 1446 357 1466 1385 461 1320 907
internal_count=16848 8115 8733 6277 1838 5181 3552 585 2708 3569 1253 3039 1944 2142 2243 1852 1677 1190 1518 1717 1046 881 792 1446 357 1466 1385 461 1320 907
is_linear=0
shrinkage=0.05


Tree=9
num_leaves=31
num_cat=0
split_feature=4 4 4 4 4 4 4 4 4 4 677 677 677 4 677 23 677 5 192 676 678 8 9 4 8 4 677 314 476 7
split_gain=8.61733e+06 2.13895e+06 1.27883e+06 400628 327134 191769 114661 59731.3 54908.6 50746.8 47175.8 37770.8 35516.8 35006.2 28001.5 25292.1 24122.2 23250.2 23009.7 22123 18996.4 16818.8 16814.6 16793.3 15912.7 15799.6 15775 15226.8 18014.2 14616.2
threshold=74.132500000000007 130.99600000000001 31.969500000000004 100.94100000000002 169.35950000000005 55.044500000000006 11.732000000000001 89.839500000000015 194.23650000000001 117.13250000000001 0.48150000000000004 0.59750000000000003 0.77850000000000008 149.13450000000003 0.71050000000000002 76.08550000000001 0.55850000000000011 84.34350000000002 78.408000000000015 27.242500000000003 74.361000000000004 37.531500000000001 44.852500000000006 5.0185000000000004 40.245000000000012 44.171000000000006 0.47450000000000003 96.118000000000009 129.90700000000001 113.76600000000001
decision_type=2 2 2 2 2 2 2 2 2 2 2 2 2 2 2 2 2 2 2 2 2 2 2 2 2 2 2 2 2 2
left_child=2 3 6 7 13 10 23 14 -6 16 -4 -7 19 -3 -2 25 -5 -9 -13 -8 -17 -16 -18 -1 -11 -12 -19 -10 -29 -15
right_child=1 4 5 9 8 11 12 17 27 24 15 18 -14 29 21 20 22 26 -20 -21 -22 -23 -24 -25 -26 -27 -28 28 -30 -31
leaf_value=-2.1527976708782672 -0.10130502162524793 2.0431377475810324 -1.2698328274923627 0.31726220666577942 3.302003353412335 -0.64615425020088202 -1.7284937378701557 1.1584458353184977 3.6525641938330424 2.3229048655146647 -1.0507194892199416 -0.3135657105304181 -1.2229061858278762 3.0751054721493878 0.74920899212421466 -0.26671338469035138 1.5950221614556366 -0.032494582424170519 0.016434065877885585 -0.27488941351572671 -0.78652991709962994 0.3037065838081997 1.0771424566553878 -1.8612402092050251 1.4997350182656519 -0.71532885026266824 0.66030712841278838 4.343454097713944 5.9303572797775272 2.4401953790237361
leaf_weight=1139 395 660 553 95 325 506 857 229 71 63 665 1179 791 124 244 380 178 89 957 27 327 1608 1312 872 862 744 1070 169 20 337
leaf_count=1139 395 660 553 95 325 506 857 229 71 63 665 1179 791 124 244 380 178 89 957 27 327 1608 1312 872 862 744 1070 169 20 337
internal_value=0 1.21051 -1.05632 0.775663 2.77683 -0.55971 -1.77187 0.440185 3.73527 1.26151 -0.858635 -0.257729 -1.4663 2.27665 0.280886 -0.751172 1.08976 0.69807 -0.165715 -1.6841 -0.507138 0.362401 1.13901 -2.02637 1.5558 -0.873622 0.607107 4.27686 4.51138 2.61097
internal_weight=0 7851 8997 6145 1706 5311 3686 3635 585 2510 2669 2642 1675 1121 2247 2116 1585 1388 2136 884 707 1852 1490 2011 925 1409 1159 260 189 461
internal_count=16848 7851 8997 6145 1706 5311 3686 3635 585 2510 2669 2642 1675 1121 2247 2116 1585 1388 2136 884 707 1852 1490 2011 925 1409 1159 260 189 461
is_linear=0
shrinkage=0.05


Tree=10
num_leaves=31
num_cat=0
split_feature=4 4 4 4 4 4 4 4 677 677 4 4 676 677 4 677 5 676 678 217 23 678 677 24 677 202 5 14 677 111
split_gain=7.78275e+06 1.68256e+06 1.44561e+06 320149 231559 229980 157479 50756.1 47042.2 42993.9 41013.6 39607.2 33027.6 26764.4 25670 23932.1 21717.1 20253.3 20202.7 18922.5 18911.6 17972.7 17552.9 16639.4 15641 15368.1 15226 14681 14290.9 14123.1
threshold=80.305500000000009 137.24950000000004 42.568000000000005 106.77050000000001 182.77550000000002 18.259000000000004 64.516000000000005 95.551000000000016 0.67850000000000021 0.92850000000000021 156.29650000000001 122.77900000000001 14.163500000000001 0.50050000000000006 209.38700000000003 0.63750000000000007 105.43100000000003 11.361000000000002 76.361500000000021 61.347000000000008 109.21350000000001 61.997500000000009 0.78850000000000009 85.666500000000013 1.1695000000000002 20.460000000000004 135.34400000000002 18.508000000000003 0.97050000000000003 97.125000000000014
decision_type=2 2 2 2 2 2 2 2 2 2 2 2 2 2 2 2 2 2 2 2 2 2 2 2 2 2 2 2 2 2
left_child=2 3 5 7 10 12 9 13 -7 27 26 16 22 -2 -6 -8 -5 -10 -19 -11 -15 25 -1 -17 -9 -22 -3 -4 -12 -16
right_child=1 4 6 11 14 8 15 24 17 19 28 -13 -14 20 29 23 -18 18 -20 -21 21 -23 -24 -25 -26 -27 -28 -29 -30 -31
leaf_value=-2.0065633592431342 -0.1321170192376788 2.5407388895395258 -1.3832360476845562 1.5457032228569072 3.5513367343865911 -1.441225799630254 -0.34790150874748366 0.60030319044891556 -1.1492643290909104 -0.583901393645611 1.8765842100469077 1.6442843679432766 -1.4700857141136863 0.40283820973048007 3.9441020511918596 -0.039377536432716437 1.0793282661023305 -0.48721500834905695 -1.0664127616878891 -0.26146893738960236 2.4597950220108036 0.53032039262216402 -1.6257429893075284 0.2756989216102908 0.95707684591769471 1.0086098906161973 1.9786615631180191 -0.75032442381875375 2.8548840089953491 4.9925013838143188
leaf_weight=1724 192 168 101 334 260 885 400 486 723 854 41 792 456 1493 72 1105 988 323 282 974 21 270 367 675 835 139 426 987 417 58
leaf_count=1724 192 168 101 334 260 885 400 486 723 854 41 792 456 1493 72 1105 988 323 282 974 21 270 367 675 835 139 426 987 417 58
internal_value=0 1.27589 -0.905134 0.880528 2.79755 -1.53169 -0.319893 0.582659 -1.15883 -0.560219 2.41177 1.36467 -1.85564 0.430785 3.83817 0.00157064 1.19716 -0.970645 -0.757188 -0.412102 0.486987 0.77916 -1.93972 0.0801037 0.825819 1.19908 2.13763 -0.809078 2.76731 4.41185
internal_weight=0 6992 9856 5550 1442 4760 5096 3436 2213 2916 1052 2114 2547 2115 390 2180 1322 1328 605 1828 1923 430 2091 1780 1321 160 594 1088 458 130
internal_count=16848 6992 9856 5550 1442 4760 5096 3436 2213 2916 1052 2114 2547 2115 390 2180 1322 1328 605 1828 1923 430 2091 1780 1321 160 594 1088 458 130
is_linear=0
shrinkage=0.05


Tree=11
num_leaves=31
num_cat=0
split_feature=4 4 4 4 4 4 677 4 4 4 677 677 5 4 24 23 676 677 678 677 677 8 5 676 8 5 4 4 20 677
split_gain=7.03187e+06 1.81234e+06 971375 314179 313300 146541 81995.3 53322.6 45170 41117.5 38042.7 34238.4 30160.8 27131.5 26317.1 25395.9 23308.8 21199.3 20655.1 20009 19142.3 16235 15968.4 15289.9 15083.5 14344.1 14236.8 13684.6 13446.2 13421.5
threshold=72.215000000000018 127.59650000000001 30.623500000000003 169.35950000000005 95.551000000000016 49.276000000000003 0.62750000000000006 109.82800000000002 201.01050000000001 146.61250000000004 0.46750000000000008 0.48150000000000004 31.270000000000003 84.34350000000002 77.865500000000011 77.840000000000018 14.653 1.0325000000000002 70.705500000000015 0.48150000000000004 0.48150000000000004 44.846500000000006 105.43100000000003 30.124000000000006 101.92400000000002 82.720000000000013 16.498500000000003 59.598500000000008 134.03150000000002 0.99650000000000005
decision_type=2 2 2 2 2 2 2 2 2 2 2 2 2 2 2 2 2 2 2 2 2 2 2 2 2 2 2 2 2 2
left_child=2 4 6 9 11 12 16 20 -5 24 -7 -2 28 21 27 26 -1 -9 -16 -14 -6 -13 -19 -22 -3 -15 -8 -12 -4 -11
right_child=1 3 5 8 7 10 15 17 -10 29 14 13 19 25 18 -17 -18 22 -20 -21 23 -23 -24 -25 -26 -27 -28 -29 -30 -31
leaf_value=-1.8706444854069699 -0.19942567973753045 2.0580183847243014 -0.59568192439442003 3.0629846930503848 0.12216116257093766 -0.75837868637929073 -1.6398381183544797 0.89143239994443224 3.9950005205777979 1.6894024776087868 -0.5305492237607341 0.56284585429590894 -1.3001749750778273 0.79788703711860443 0.16319465707046968 -0.93875206764376939 -1.4641388331701244 1.7592892063306829 -0.28557431096919811 -0.88435831235824125 0.8330152691302426 0.13769006371203618 1.2642150996695505 1.5647281444470087 1.5972771715764562 0.42595622266515271 -1.2319993426636706 -0.24580542943770653 0.53488574283463619 2.4240925871343406
leaf_weight=1900 304 269 433 390 91 457 432 310 195 72 835 273 385 344 503 363 433 204 523 1164 1485 1265 808 75 523 1052 424 853 28 455
leaf_count=1900 304 269 433 390 91 457 432 310 195 72 835 273 385 344 503 363 433 204 523 1164 1485 1265 808 75 523 1052 424 853 28 455
internal_value=0 1.05967 -0.984677 2.40923 0.645953 -0.548049 -1.62155 1.01656 3.37366 1.98149 -0.336338 0.305679 -0.882047 0.358014 -0.265272 -1.28921 -1.7952 1.2532 -0.0655638 -0.987708 0.827074 0.213157 1.36401 0.868194 1.75377 0.517607 -1.43782 -0.386659 -0.527014 2.32372
internal_weight=0 8115 8733 1904 6211 5181 3552 2973 585 1319 3171 3238 2010 2934 2714 1219 2333 1322 1026 1549 1651 1538 1012 1560 792 1396 856 1688 461 527
internal_count=16848 8115 8733 1904 6211 5181 3552 2973 585 1319 3171 3238 2010 2934 2714 1219 2333 1322 1026 1549 1651 1538 1012 1560 792 1396 856 1688 461 527
is_linear=0
shrinkage=0.05


Tree=12
num_leaves=31
num_cat=0
split_feature=4 4 4 4 4 4 4 4 4 677 677 677 677 5 23 4 6 4 677 676 4 678 5 8 677 314 505 478 7 678
split_gain=6.34972e+06 1.68673e+06 826485 335022 253032 122677 71742.8 51282.6 41504.2 35875.3 35653.4 33513.3 28432.9 28363.3 27755.8 25761.4 24123.3 20334.3 19401.8 18396.8 17506.9 16689.4 16612.6 16029.3 14121.5 13423.4 15677.1 14456.8 12832.5 11578.5
threshold=70.793500000000009 123.66150000000002 30.058500000000002 169.35950000000005 95.551000000000016 48.246000000000002 7.7500000000000009 146.61250000000004 194.23650000000001 0.71050000000000002 1.0402500000000001 0.45150000000000007 0.57850000000000013 27.695000000000004 109.21350000000001 108.123 33.363500000000009 59.598500000000008 0.40450000000000008 17.551500000000004 86.139500000000012 67.556500000000014 94.029000000000011 99.810500000000005 0.41650000000000004 96.118000000000009 127.59650000000001 115.42250000000001 112.28950000000002 82.522500000000022
decision_type=2 2 2 2 2 2 2 2 2 2 2 2 2 2 2 2 2 2 2 2 2 2 2 2 2 2 2 2 2 2
left_child=2 4 6 7 9 13 -1 23 -5 -2 24 -7 -8 -4 20 -12 -13 -18 -15 -14 -11 -16 -17 -3 -6 -10 -27 -28 -9 -21
right_child=1 3 5 8 10 11 12 28 25 14 15 16 19 18 21 22 17 -19 -20 29 -22 -23 -24 -25 -26 26 27 -29 -30 -31
leaf_value=-1.7954426547517046 -0.058233944802799267 1.8906808940497966 -0.44205105835266079 2.8282847560369055 0.05057548532343429 -0.76499338392342375 -1.5481666116462331 2.6217743852864146 3.0896758160121003 0.16985462342560104 0.8612471264482372 0.10568138668074954 -1.2663560651452486 -1.3067599115410791 0.93877804156697742 1.9002791238836494 -0.49320755016173506 -0.1982326960289521 -0.86381627839643849 -0.43178257177914348 0.46476772745242045 0.3998911955526897 1.1590946505724822 1.4714356803336539 0.71132289824148498 3.6377570233144958 3.8865373115539548 5.6660693395705453 2.0605765655904933 -1.2062810212114379
leaf_weight=1608 652 333 335 325 92 428 877 138 71 1435 1018 339 797 305 281 83 1168 1169 1305 124 775 294 848 723 668 143 25 21 389 79
leaf_count=1608 652 333 335 325 92 428 877 138 71 1435 1018 339 797 305 281 83 1168 1169 1305 124 775 294 848 723 668 143 25 21 389 79
internal_value=0 0.983432 -0.95808 2.18253 0.560451 -0.549281 -1.55034 1.80468 3.20497 0.275628 0.921817 -0.354185 -1.34037 -0.860632 0.353789 1.03509 -0.288481 -0.345657 -0.947728 -1.15812 0.273274 0.663243 1.22517 1.60364 0.631338 3.67584 3.89603 4.69893 2.20753 -0.733188
internal_weight=0 8314 8534 2168 6146 5049 3485 1583 585 3437 2709 3104 1877 1945 2785 1949 2676 2337 1610 1000 2210 575 931 1056 760 260 189 46 527 203
internal_count=16848 8314 8534 2168 6146 5049 3485 1583 585 3437 2709 3104 1877 1945 2785 1949 2676 2337 1610 1000 2210 575 931 1056 760 260 189 46 527 203
is_linear=0
shrinkage=0.05


Tree=13
num_leaves=31
num_cat=0
split_feature=4 4 4 4 4 4 4 4 677 677 4 5 676 677 4 4 24 5 5 168 676 676 677 24 677 678 677 7 678 677
split_gain=5.73536e+06 1.24307e+06 1.07002e+06 234606 172033 160826 113966 35715.4 35293.6 34689.9 29770 27799.2 25813.1 24109.7 21918.4 19626 17696.7 16646.3 16134.8 15865.1 15384.1 14964.3 14835.1 14661.1 13516.7 13285.3 13255.2 13190 12900.2 12465.9
threshold=80.305500000000009 137.24950000000004 36.616500000000009 104.72850000000001 182.77550000000002 60.589000000000006 18.259000000000004 119.13050000000003 0.92850000000000021 0.98850000000000005 156.29650000000001 23.551500000000001 14.163500000000001 0.52650000000000008 89.839500000000015 209.38700000000003 85.666500000000013 83.939500000000024 114.47800000000002 70.538500000000013 28.010500000000004 18.222000000000005 1.0165000000000002 87.011500000000012 0.93550000000000011 72.116500000000016 1.0402500000000001 117.17150000000002 82.066500000000005 0.48150000000000004
decision_type=2 2 2 2 2 2 2 2 2 2 2 2 2 2 2 2 2 2 2 2 2 2 2 2 2 2 2 2 2 2
left_child=2 3 6 9 10 8 12 20 21 29 26 23 24 -7 -11 -6 -15 -16 -9 -10 -5 -4 -13 -8 -1 -18 -3 -12 -14 -2
right_child=1 4 5 7 15 13 11 18 19 14 27 22 28 16 17 -17 25 -19 -20 -21 -22 -23 -24 -25 -26 -27 -28 -29 -30 -31
leaf_value=-1.7193308853163345 -0.074467508009208844 1.3796130275845528 -0.93760439632344872 0.8933834770398934 3.0493434737278866 -0.41963591441874959 -0.91256000033253692 1.7420294398459319 -0.58093092729568674 0.40477889688841745 2.8508468432859946 -1.342461000888244 -0.94121575951186154 -0.096735357586105519 1.135948691969993 3.8017630975063028 0.37451845794817473 0.6444973381999981 1.2558818773478093 -0.28214085112338355 1.421094813263869 -0.57700736163968935 -0.95633773522159427 -0.30428735245809413 -1.3443378931563685 -0.023030968670904331 1.9590615493529389 2.222731681647657 -1.4802436263887389 0.33604007972108263
leaf_weight=1814 247 125 725 1097 260 385 397 214 971 942 110 690 191 1479 204 130 453 1109 843 819 158 477 389 132 277 392 469 348 265 736
leaf_count=1814 247 125 725 1097 260 385 397 214 971 942 110 690 191 1479 204 130 453 1109 843 819 158 477 389 132 277 392 469 348 265 736
internal_value=0 1.09528 -0.77701 0.755458 2.4032 -0.33225 -1.38726 1.14017 -0.584944 0.480764 2.07068 -1.05769 -1.59532 -0.0531571 0.588817 3.30015 0.0075547 0.720854 1.35431 -0.444222 0.95982 -0.794506 -1.20326 -0.760779 -1.66965 0.190093 1.83712 2.37359 -1.25447 0.232891
internal_weight=0 6992 9856 5550 1442 5701 4155 2312 2992 3238 1052 1608 2547 2709 2255 390 2324 1313 1057 1790 1255 1202 1079 529 2091 845 594 458 456 983
internal_count=16848 6992 9856 5550 1442 5701 4155 2312 2992 3238 1052 1608 2547 2709 2255 390 2324 1313 1057 1790 1255 1202 1079 529 2091 845 594 458 456 983
is_linear=0
shrinkage=0.05


Tree=14
num_leaves=31
num_cat=0
split_feature=4 4 4 4 4 4 677 4 4 4 5 4 677 4 167 677 6 677 145 5 677 8 23 678 201 676 17 678 8 676
split_gain=5.18324e+06 1.37539e+06 676680 268557 209048 124096 44416.4 40116.3 32190.3 30784.4 28850.6 28827.4 27828.3 25929.6 21383.9 20421.4 17342.2 15646.8 15453.8 15172.6 13897 13754.5 13306.6 14999.1 12888.3 12400.1 12364 12193.1 11823.7 11709.9
threshold=70.793500000000009 129.90700000000001 25.868500000000004 97.099000000000018 173.24500000000003 48.246000000000002 0.57850000000000013 116.24450000000002 84.34350000000002 154.01650000000004 48.263000000000012 209.38700000000003 0.72150000000000014 62.029500000000006 74.260500000000022 1.1865000000000003 57.230500000000006 0.97050000000000003 54.330500000000008 105.43100000000003 0.44350000000000006 115.39650000000002 109.21350000000001 61.473500000000008 16.105500000000003 28.156500000000005 104.74000000000002 76.361500000000021 40.245000000000012 14.775
decision_type=2 2 2 2 2 2 2 2 2 2 2 2 2 2 2 2 2 2 2 2 2 2 2 2 2 2 2 2 2 2
left_child=2 3 6 8 9 12 29 15 16 17 -7 -6 -4 20 -8 -5 -2 -3 -14 22 -12 -11 -10 24 -24 -17 -13 -20 -9 -1
right_child=1 4 5 7 11 10 14 28 19 21 13 26 18 -15 -16 25 -18 -19 27 -21 -22 -23 23 -25 -26 -27 -28 -29 -30 -31
leaf_value=-1.63630854061277 0.46495379577214013 1.1267230903178873 -1.035809277047131 0.57590483888394994 2.7519281487892839 0.0073545430201265201 -1.3447528740645369 1.8880312506641663 0.39184024516285121 2.5539115495251536 -0.87494113230456905 3.0683861938016168 -0.84917386553524499 -0.20402047224140693 -0.8721326954216595 0.85112212453723513 0.059616193489637231 1.7012706234993926 -0.36279936597411394 -0.07639084342572329 -0.45905602425208331 1.9291780503088487 2.2994689952759515 0.48509512139902083 0.94771438013423581 1.3430071857263304 4.0493241628011072 -0.76767815545298701 1.1384844464110746 -1.3179910503392263
leaf_weight=1726 316 142 831 734 390 555 718 56 1236 133 240 58 669 1077 359 1101 1600 716 474 139 1232 261 21 214 110 145 72 306 870 347
leaf_count=1726 316 142 831 734 390 555 718 56 1236 133 240 58 669 1077 359 1101 1600 716 474 139 1232 261 21 214 110 145 72 306 870 347
internal_value=0 0.888521 -0.865615 0.553822 2.12419 -0.52506 -1.4477 0.912163 0.267424 1.77419 -0.319327 2.96686 -0.805145 -0.390456 -1.18721 0.785119 0.126467 1.60618 -0.67286 0.424444 -0.526863 2.14007 0.468477 0.743037 1.16441 0.908364 3.61167 -0.521636 1.18381 -1.58303
internal_weight=0 8314 8534 6542 1772 5384 3150 2906 3636 1252 3104 520 2280 2549 1077 1980 1916 858 1449 1720 1472 394 1581 345 131 1246 130 780 926 2073
internal_count=16848 8314 8534 6542 1772 5384 3150 2906 3636 1252 3104 520 2280 2549 1077 1980 1916 858 1449 1720 1472 394 1581 345 131 1246 130 780 926 2073
is_linear=0
shrinkage=0.05


Tree=15
num_leaves=31
num_cat=0
split_feature=4 4 4 4 4 4 4 677 677 677 5 4 677 23 677 23 4 241 7 5 678 4 388 4 677 5 133 475 13 313
split_gain=4.67787e+06 1.24304e+06 610703 248181 186610 112414 47841.9 40085.8 28801.4 28271.6 27406.3 26929.5 26899.2 22500 21546 20076 19820.3 18796.1 15476.2 14186.4 13627.7 12962.2 12833 12571.6 12114.4 11746.3 11360.1 11350.5 10962 10828.7
threshold=70.793500000000009 123.66150000000002 25.868500000000004 162.21850000000003 95.551000000000016 49.276000000000003 188.19450000000003 0.57850000000000013 0.71050000000000002 1.0402500000000001 47.081500000000013 137.24950000000004 0.48150000000000004 109.21350000000001 0.92850000000000021 78.312500000000014 108.123 55.865500000000004 107.4945 94.029000000000011 67.556500000000014 58.150500000000008 120.96550000000001 86.139500000000012 0.41650000000000004 125.47800000000002 42.338000000000008 138.83650000000003 76.544000000000025 91.885500000000022
decision_type=2 2 2 2 2 2 2 2 2 2 2 2 2 2 2 2 2 2 2 2 2 2 2 2 2 2 2 2 2 2
left_child=2 4 7 11 8 12 29 -1 28 24 -7 25 -4 23 26 -9 -11 -14 -13 -18 -15 -16 -8 -10 -6 -3 -12 -24 -2 -5
right_child=1 3 5 6 9 10 22 15 13 16 14 18 17 20 21 -17 19 -19 -20 -21 -22 -23 27 -25 -26 -27 -28 -29 -30 -31
leaf_value=-1.5038740314985324 -0.41785869514741053 1.5276709818268477 -1.0518912737909054 1.9291357213606437 -0.0052586980103312628 0.067882640770234384 2.7224129884583608 -1.2619898473170237 0.14628533691691903 0.73969779976466143 -0.92292445188904382 2.1166894136194414 -0.82769091696726216 0.83401632975004747 -0.43557358073398966 -0.78043559707080323 1.6827753967549428 -0.50764143080710367 1.5810769579964103 0.99784998799946578 0.34706136502173485 -0.13843184058717747 3.2056926108295132 0.39619624069501319 0.6067320272404545 1.1175116867805543 -0.46662302204246447 4.3712799549102783 0.055608594907516268 2.4702553206954261
leaf_weight=2073 163 292 572 150 92 447 140 777 1435 1018 166 179 872 281 573 300 83 968 547 848 294 1021 161 775 668 434 765 24 489 241
leaf_count=2073 163 292 572 150 92 447 140 777 1435 1018 166 179 872 281 573 300 83 968 547 848 294 1021 161 775 668 434 765 24 489 241
internal_value=0 0.844095 -0.822335 1.87347 0.480983 -0.498807 2.63529 -1.37531 0.236383 0.791315 -0.292985 1.49781 -0.752415 0.306415 -0.356869 -1.12785 0.89218 -0.659317 1.71314 1.05891 0.585034 -0.245246 3.08358 0.233924 0.532649 1.28248 -0.547983 3.3569 -0.0627582 2.26266
internal_weight=0 8314 8534 2168 6146 5384 716 3150 3437 2709 2972 1452 2412 2785 2525 1077 1949 1840 726 931 575 1594 325 2210 760 726 931 185 652 391
internal_count=16848 8314 8534 2168 6146 5384 716 3150 3437 2709 2972 1452 2412 2785 2525 1077 1949 1840 726 931 575 1594 325 2210 760 726 931 185 652 391
is_linear=0
shrinkage=0.05


Tree=16
num_leaves=31
num_cat=0
split_feature=4 4 4 4 4 4 4 4 677 677 677 677 677 4 676 5 4 4 676 678 7 677 23 677 4 53 250 22 676 676
split_gain=4.2271e+06 966336 729660 169132 153809 107735 79603.5 28266.1 26212.4 25778.7 24677.4 24291.4 22130.9 21499.4 20823.1 20021.6 19471.8 17431.7 17374.8 17924.1 17158.2 13966.1 13255.6 12393.9 12156.2 11754.4 14721.8 11732.4 11672.8 11533.8
threshold=77.855500000000021 132.59800000000004 35.350000000000009 103.58800000000001 177.73450000000003 58.150500000000008 11.732000000000001 89.839500000000015 0.97050000000000003 0.93550000000000011 0.76850000000000007 0.45150000000000007 0.52650000000000008 154.01650000000004 27.242500000000003 84.34350000000002 209.38700000000003 119.13050000000003 15.749000000000001 70.705500000000015 23.551500000000001 0.88350000000000006 72.271500000000017 1.2605000000000002 67.477500000000006 98.203500000000005 80.415000000000006 84.330000000000013 28.010500000000004 18.647000000000002
decision_type=2 2 2 2 2 2 2 2 2 2 2 2 2 2 2 2 2 2 2 2 2 2 2 2 2 2 2 2 2 2
left_child=2 3 6 7 8 11 27 21 -3 -5 14 -4 -7 -10 -8 -9 -6 28 23 -20 29 -2 -12 -13 -22 -18 -27 -1 -11 -14
right_child=1 4 5 9 16 12 10 15 13 17 22 18 20 -15 -16 -17 25 -19 19 -21 24 -23 -24 -25 -26 26 -28 -29 -30 -31
leaf_value=-1.478455133986941 -0.010322226367137406 1.1037181342548201 -0.86139559106370767 0.57844398305051226 2.5470899789700141 -0.4297375049175326 -1.1994491726847343 0.92090359739531058 1.5799104383533473 0.82482972667671151 -0.94371419798576994 -0.75869794550243363 0.041619249789044264 2.0495374270348212 0.096734423306770623 0.44537046808863218 2.4722294246449192 1.2041309368086885 0.029347440537754645 -0.44791098436193044 -0.21573049897868005 0.31508294405668952 -0.56410165927138745 -0.45525144094071107 0.028803307620334812 4.4724679946899419 3.1366306214621575 -1.1351672295647388 1.3047661380408562 0.74362208919091666
leaf_weight=1720 445 173 481 419 325 419 977 261 603 958 643 584 125 409 32 1457 34 723 281 656 921 1273 358 794 1134 30 66 291 146 110
leaf_count=1720 445 173 481 419 325 419 977 261 603 958 643 584 125 409 32 1457 34 723 281 656 921 1273 358 794 1134 30 66 291 146 110
internal_value=0 0.903352 -0.694347 0.594756 1.97253 -0.320354 -1.20637 0.374205 1.67248 0.932163 -0.983842 -0.538077 -0.0956382 1.76971 -1.15834 0.517614 2.75396 1.01328 -0.470899 -0.304784 -0.0345083 0.230796 -0.807949 -0.583853 -0.0807907 3.27113 3.55408 -1.42878 0.8883 0.370216
internal_weight=0 7322 9526 5682 1640 5505 4021 3436 1185 2246 2010 2796 2709 1012 1009 1718 455 1827 2315 937 2290 1718 1001 1378 2055 130 96 2011 1104 235
internal_count=16848 7322 9526 5682 1640 5505 4021 3436 1185 2246 2010 2796 2709 1012 1009 1718 455 1827 2315 937 2290 1718 1001 1378 2055 130 96 2011 1104 235
is_linear=0
shrinkage=0.05


Tree=17
num_leaves=31
num_cat=0
split_feature=4 4 4 4 4 4 4 677 677 677 5 25 676 618 4 677 677 676 678 4 6 4 4 133 677 677 542 7 676 678
split_gain=3.81666e+06 827551 719782 157047 122736 115730 71571 27455.5 26416.5 25690.3 25364.6 24613.8 19541.5 17318.1 17219.7 16790.6 16441.2 15774.3 15937 15538.1 14903.7 12926.4 12244.9 11522 11240.9 10970.9 10782.8 10756.2 10561.3 10297.1
threshold=80.305500000000009 137.24950000000004 43.628000000000007 106.11650000000002 18.259000000000004 182.77550000000002 65.870000000000019 1.0235000000000001 0.66850000000000021 1.2775000000000001 42.026000000000003 165.90300000000005 13.155500000000002 22.081500000000002 223.10700000000003 0.72150000000000014 0.8155 10.032500000000001 76.361500000000021 92.416500000000028 46.036000000000008 120.0835 54.132500000000007 42.338000000000008 0.39250000000000007 0.48150000000000004 98.822000000000017 62.940500000000007 19.604500000000005 82.066500000000005
decision_type=2 2 2 2 2 2 2 2 2 2 2 2 2 2 2 2 2 2 2 2 2 2 2 2 2 2 2 2 2 2
left_child=2 3 4 7 12 11 10 25 28 24 -4 16 -1 -7 -15 23 -3 -10 -19 27 -8 -11 -17 -12 -5 -2 -16 -9 -6 -14
right_child=1 5 6 9 8 13 20 19 17 21 15 -13 29 14 26 22 -18 18 -20 -21 -22 -23 -24 -25 -26 -27 -28 -29 -30 -31
leaf_value=-1.3751153559126754 -0.091224710558890365 0.88008633199837305 -0.023379346005893323 -0.052972261018531266 -1.1142943617816155 1.2632312232255938 0.37776731311256978 0.65313745970622861 -0.83319853860757154 0.93211331169496292 -1.0961574278239694 2.2184596957093445 -0.78007312609258594 2.6192677428745679 3.9728749430456833 -0.50994169158975777 1.6453140561039601 -0.28325721873821541 -0.75890808801618093 0.63096394197780459 -0.029698308249818013 1.2455735930256062 -0.24143841594531021 -0.54463380507237569 0.77634728010222043 0.28339860592506483 2.5676171016693115 0.28738488026623432 -0.7239398922803193 -1.2264941877978091
leaf_weight=2021 256 77 461 43 676 20 258 260 729 670 112 181 228 307 43 690 794 383 326 1142 1724 646 1104 613 821 826 20 886 233 298
leaf_count=2021 256 77 461 43 676 20 258 260 729 670 112 181 228 307 43 690 794 383 326 1142 1724 646 1104 613 821 826 20 886 233 298
internal_value=0 0.893485 -0.633852 0.616215 -1.0641 1.96065 -0.209503 0.402295 -0.803253 0.946908 -0.364368 1.68792 -1.30446 2.69632 2.77379 -0.426772 1.57766 -0.669884 -0.501963 0.500437 0.0233421 1.08599 -0.344709 -0.629835 0.735073 0.194763 3.52676 0.370365 -1.01424 -1.03299
internal_weight=0 6992 9856 5550 4894 1442 4962 3370 2347 2180 2980 1052 2547 390 370 2519 871 1438 709 2288 1982 1316 1794 725 864 1082 63 1146 909 526
internal_count=16848 6992 9856 5550 4894 1442 4962 3370 2347 2180 2980 1052 2547 390 370 2519 871 1438 709 2288 1982 1316 1794 725 864 1082 63 1146 909 526
is_linear=0
shrinkage=0.05


Tree=18
num_leaves=31
num_cat=0
split_feature=4 4 4 4 4 4 4 677 677 25 677 4 5 6 4 4 4 678 24 676 676 677 678 111 26 480 478 384 7 4
split_gain=3.44698e+06 865813 507159 164942 132499 65449.9 62209.9 25269.9 23508.5 21369.8 20331.1 19845 19810.4 19364.6 18897.3 16430.1 16020.4 15895.9 14880.9 12503.3 12428.7 12032.2 11564.1 11188.8 12566.9 11238.1 10642 10415.8 10278.2 10273.7
threshold=73.58750000000002 130.99600000000001 35.350000000000009 99.810500000000005 173.24500000000003 11.732000000000001 55.044500000000006 0.82750000000000001 1.1045000000000003 51.412000000000006 0.97050000000000003 209.38700000000003 53.756000000000007 30.666500000000003 116.24450000000002 154.01650000000004 66.297500000000014 82.066500000000005 92.882000000000019 11.361000000000002 28.367500000000003 0.44350000000000006 62.606500000000004 97.125000000000014 120.0835 123.66150000000002 98.771500000000017 118.08000000000001 73.603500000000011 5.0185000000000004
decision_type=2 2 2 2 2 2 2 2 2 2 2 2 2 2 2 2 2 2 2 2 2 2 2 2 2 2 2 2 2 2
left_child=2 3 5 8 10 29 13 -5 -2 -7 -3 27 -8 -4 20 -12 -14 19 -10 -11 -9 -15 26 24 -13 -25 -20 -6 -16 -1
right_child=1 4 6 7 11 9 12 14 18 17 15 23 16 21 28 -17 -18 -19 22 -21 -22 -23 -24 25 -26 -27 -28 -29 -30 -31
leaf_value=-1.3902715120579039 0.1016783815964323 0.97769957529123652 -0.23481994306985601 0.42001804566446377 2.0243043369951503 -1.0432075857508227 0.12061425673529896 0.67965678947995445 0.25532870760904192 -0.79509825064135453 1.4065543114187871 1.5772567386212557 -0.3494454312618267 -0.8527056794384672 1.4760178260635912 1.8317559476158118 -0.068439540793312548 -0.97221387303484397 0.47754381954394004 -0.33199943788962344 1.14104613059436 -0.53009574287645522 0.36027504243176639 2.9696559203298469 2.9939911822883452 4.4339327907562263 0.98985693077142334 2.5477500299128093 0.9664954394841202 -1.1622273120794173
leaf_weight=1139 1374 181 476 402 226 1054 497 1209 1280 280 658 23 1201 358 114 347 878 372 216 304 166 1500 508 38 49 20 191 164 751 872
leaf_count=1139 1374 181 476 402 226 1054 497 1209 1280 280 658 23 1201 358 114 347 878 372 216 304 166 1500 508 38 49 20 191 164 751 872
internal_value=0 0.7596 -0.673358 0.485563 1.75728 -1.08971 -0.332386 0.785038 0.263872 -0.88794 1.46551 2.42275 -0.162977 -0.51936 0.850546 1.55337 -0.230771 -0.716756 0.3654 -0.554033 0.735359 -0.592256 0.519379 2.95775 2.54142 3.47458 0.717966 2.24442 1.03365 -1.29139
internal_weight=0 7917 8931 6211 1706 4021 4910 2642 3569 2010 1186 520 2576 2334 2240 1005 2079 956 2195 584 1375 1858 915 130 72 58 407 390 865 2011
internal_count=16848 7917 8931 6211 1706 4021 4910 2642 3569 2010 1186 520 2576 2334 2240 1005 2079 956 2195 584 1375 1858 915 130 72 58 407 390 865 2011
is_linear=0
shrinkage=0.05


Tree=19
num_leaves=31
num_cat=0
split_feature=4 4 4 4 4 4 4 24 677 677 5 677 4 73 23 6 5 677 3 678 677 4 6 4 314 478 677 18 4 168
split_gain=3.11702e+06 674559 588004 127758 100072 95115.2 56843.5 24091.2 23728.1 22607.6 21708.3 21627 19454.8 19426.2 17726.5 15460.2 15123.3 13433 12881.3 14901.5 12689.7 12080.8 11552.4 11128.1 10670.2 12111.6 10095.7 10052.8 9916.76 9913.65
threshold=80.305500000000009 137.24950000000004 43.628000000000007 106.77050000000001 18.259000000000004 188.19450000000003 64.516000000000005 146.61250000000004 0.50050000000000006 0.38750000000000007 42.026000000000003 1.2775000000000001 89.839500000000015 43.31900000000001 106.78950000000002 46.036000000000008 83.939500000000024 0.45150000000000007 14.500000000000002 70.705500000000015 0.8155 5.0185000000000004 24.354000000000003 156.29650000000001 93.616500000000016 146.61250000000004 0.39250000000000007 107.47900000000001 51.82200000000001 104.22900000000001
decision_type=2 2 2 2 2 2 2 2 2 2 2 2 2 2 2 2 2 2 2 2 2 2 2 2 2 2 2 2 2 2
left_child=2 3 4 8 14 7 10 20 -2 -6 -4 26 -10 -11 21 -8 27 -12 19 -13 -3 -1 -15 -22 -7 -26 -5 -14 -19 -29
right_child=1 5 6 11 9 24 15 -9 12 13 17 18 16 22 -16 -17 -18 28 -20 -21 23 -23 -24 -25 25 -27 -28 29 -30 -31
leaf_value=-1.3300138061721087 -0.076522314347326759 0.80999688192819941 -0.020706936918232249 -0.090425813978626618 -1.0298215053220561 2.0535988902334466 0.33981106282551954 1.952406816889807 0.2558449956347702 -0.86605552633556027 -0.66773842644813419 1.2963412551556603 0.6707524899881393 -0.32251767615661947 -0.61225319706074155 -0.050567106268725008 0.45285686674823949 -0.51839412420053577 0.82443005775551725 0.78404914429915951 1.3146703912745947 -1.105762633568879 -0.644457961266233 1.7020785350364058 2.5811557345301193 3.7886199329210366 0.70503904800756378 0.82636711108378869 -0.27224355825926327 2.003875127705661
leaf_weight=1117 275 78 449 42 486 88 293 281 1265 655 391 472 187 437 131 1887 1637 586 604 203 435 1299 769 323 214 23 793 39 1356 33
leaf_count=1117 275 78 449 42 486 88 293 281 1265 655 391 472 187 437 131 1887 1637 586 604 203 435 1299 769 323 214 23 793 39 1356 33
internal_value=0 0.807449 -0.572817 0.557118 -0.961689 1.77093 -0.189274 1.55189 0.36895 -0.726156 -0.339081 0.862956 0.407706 -0.646854 -1.17873 0.00190115 0.509026 -0.400354 0.992174 1.14227 1.41726 -1.20944 -0.527801 1.47975 2.52376 2.69834 0.665028 0.864042 -0.34652 1.36606
internal_weight=0 6992 9856 5550 4894 1442 4962 1117 3436 2347 2782 2114 3161 1861 2547 2180 1896 2333 1279 675 836 2416 1206 758 325 237 835 259 1942 72
internal_count=16848 6992 9856 5550 4894 1442 4962 1117 3436 2347 2782 2114 3161 1861 2547 2180 1896 2333 1279 675 836 2416 1206 758 325 237 835 259 1942 72
is_linear=0
shrinkage=0.05


Tree=20
num_leaves=31
num_cat=0
split_feature=4 4 4 4 4 4 4 677 677 6 677 25 23 618 217 4 24 5 677 678 676 4 677 4 133 217 14 677 676 542
split_gain=2.81311e+06 608790 530705 115370 87242.7 86209.1 53743.5 20765.8 20505.4 20476.2 20349.9 19645.3 15998.1 14963.5 14250.1 13469.7 12916.7 12542.8 12539.2 12409.3 11937.7 11857 11293.8 10902.9 10622.7 10166.8 11439.9 10124.7 10036.5 9352.04
threshold=80.305500000000009 137.24950000000004 43.043000000000006 104.72850000000001 18.259000000000004 182.77550000000002 65.870000000000019 1.0885000000000002 0.92850000000000021 25.153000000000002 1.2775000000000001 165.90300000000005 106.78950000000002 22.081500000000002 61.347000000000008 223.10700000000003 95.075500000000019 72.215000000000018 0.9085000000000002 64.077500000000015 26.097500000000004 120.0835 0.38750000000000007 5.0185000000000004 42.338000000000008 126.27500000000002 57.750500000000009 0.43650000000000005 26.958500000000004 98.822000000000017
decision_type=2 2 2 2 2 2 2 2 2 2 2 2 2 2 2 2 2 2 2 2 2 2 2 2 2 2 2 2 2 2
left_child=2 3 4 7 12 11 8 -2 24 20 27 18 23 -7 -10 -15 -9 28 -3 25 -6 -12 -11 -1 -4 -18 -27 -5 -8 -17
right_child=1 5 6 10 9 13 17 16 14 22 21 -13 -14 15 -16 29 19 -19 -20 -21 -22 -23 -24 -25 -26 26 -28 -29 -30 -31
leaf_value=-1.2635131119427772 0.1665883022523586 0.83608916600545258 -0.80323389029838665 0.014297205324356372 -0.52116899812728712 0.9852244424819947 0.093059044360019619 0.32284876270257312 -0.36484855766724245 -1.0280393389147016 0.78399611575189188 1.9209744097778154 -0.58164053864151466 2.2526770316428393 -0.090994291462787036 3.4707620443299763 0.62411403439840996 -0.10152413787985232 1.4187355701072391 0.40086303232840437 0.35795367440072501 1.0761553141028237 -0.71757347135181104 -1.0504745003725011 -0.41142417955147581 2.0779821605594071 0.89657867131864322 0.66174507417948925 0.61611090982513672 2.1620495367050174
leaf_weight=1117 1155 105 213 65 664 20 837 1188 878 389 751 181 131 307 1035 43 304 1042 766 479 41 646 1186 1299 921 27 85 850 103 20
leaf_count=1117 1155 105 213 65 664 20 837 1188 878 389 751 181 131 307 1035 43 304 1042 766 479 41 646 1186 1299 921 27 85 850 103 20
internal_value=0 0.767077 -0.544176 0.529262 -0.918673 1.68238 -0.184722 0.336631 -0.31655 -0.694004 0.799044 1.44699 -1.11979 2.31733 -0.216684 2.38934 0.430918 0.0179423 1.3485 0.574367 -0.470043 0.919096 -0.794254 -1.14897 -0.485018 0.774148 1.18138 0.615752 0.150372 3.0553
internal_weight=0 6992 9856 5550 4827 1442 5029 3238 3047 2280 2312 1052 2547 390 1913 370 2083 1982 871 895 705 1397 1575 2416 1134 416 112 915 940 63
internal_count=16848 6992 9856 5550 4827 1442 5029 3238 3047 2280 2312 1052 2547 390 1913 370 2083 1982 871 895 705 1397 1575 2416 1134 416 112 915 940 63
is_linear=0
shrinkage=0.05


Tree=21
num_leaves=31
num_cat=0
split_feature=4 4 4 4 4 4 677 5 3 678 5 4 676 677 3 678 676 9 677 20 26 677 677 676 167 133 216 677 53 71
split_gain=2.54264e+06 660124 357745 115258 114822 61742.9 29846.2 22991 20344.1 23110.8 19362.7 18099.9 17917.8 17725.2 16859.7 18401.2 16665.7 15254.3 14772.4 12493.4 11283.6 11274.1 11105.7 10813.7 10677.2 10186.1 9329.67 9095.1 8376.69 8752.81
threshold=72.215000000000018 127.59650000000001 28.398000000000003 169.35950000000005 95.551000000000016 50.344500000000004 0.75950000000000017 31.270000000000003 16.500000000000004 65.486000000000004 48.263000000000012 201.01050000000001 25.083000000000002 0.48150000000000004 15.500000000000002 64.952500000000015 17.119500000000006 33.481500000000004 0.97050000000000003 134.03150000000002 60.657000000000004 0.38750000000000007 0.69950000000000012 25.083000000000002 77.898500000000027 42.338000000000008 149.13450000000003 1.4005000000000003 98.203500000000005 80.350500000000011
decision_type=2 2 2 2 2 2 2 2 2 2 2 2 2 2 2 2 2 2 2 2 2 2 2 2 2 2 2 2 2 2
left_child=2 4 6 14 13 7 12 19 9 23 -7 27 -1 -2 15 -3 -15 -18 25 -4 -20 -9 -10 -6 -8 -12 28 -5 29 -13
right_child=1 3 5 11 8 10 24 21 22 -11 18 26 -14 16 -16 -17 17 -19 20 -21 -22 -23 -24 -25 -26 -27 -28 -29 -30 -31
leaf_value=-1.1089624554492201 -0.18191096304018223 1.5389175569638611 -0.31339279376171308 1.505428596130058 0.75141186142429606 0.10794645672087032 -0.86641267787095666 -0.89062118335105722 0.042700519726849073 0.53660359738153784 -0.73070110867518689 2.3893853096734907 -0.19617547782984648 0.087857315773952685 0.99841614387113575 1.0026716647685068 0.71212663635577977 0.26572094453013922 -0.2958176864506859 0.68913999619809063 -0.027401696606614647 -0.5620615286587255 0.5029995021543916 1.0986310201441194 -0.49376151797896262 -0.31882336368658609 3.3523114363352455 2.0138615166302771 2.4961118267132689 0.92784436702728268
leaf_weight=2391 304 472 533 134 584 460 628 318 153 959 184 21 55 1325 605 242 222 1387 716 33 864 1459 913 364 277 815 24 256 130 20
leaf_count=2391 304 472 533 134 584 460 628 318 153 959 184 21 55 1325 605 242 222 1387 716 33 864 1459 913 364 277 815 24 256 130 20
internal_value=0 0.6372 -0.592108 1.45169 0.387515 -0.339591 -0.997672 -0.532464 0.611874 0.709664 -0.19089 2.03583 -1.08844 0.181519 1.19261 1.35716 0.219175 0.327313 -0.244192 -0.254941 -0.149038 -0.620858 0.436934 0.884732 -0.752353 -0.394685 2.42915 1.83917 2.29958 1.67644
internal_weight=0 8115 8733 1904 6211 5382 3351 2343 2973 1907 3039 585 2446 3238 1319 714 2934 1609 2579 566 1580 1777 1066 948 905 999 195 390 171 41
internal_count=16848 8115 8733 1904 6211 5382 3351 2343 2973 1907 3039 585 2446 3238 1319 714 2934 1609 2579 566 1580 1777 1066 948 905 999 195 390 171 41
is_linear=0
shrinkage=0.05


Tree=22
num_leaves=31
num_cat=0
split_feature=4 4 4 4 4 4 677 23 677 4 8 3 3 120 218 5 618 4 4 677 142 678 5 676 21 5 6 3 677 8
split_gain=2.29711e+06 526530 399851 88982.8 88286.2 55162.3 49414.2 23844.9 18306.2 17677.5 16996.8 16112.6 19734.5 15702.5 15422.8 13886.7 13868.1 13583.5 13232.4 11608.2 11469 11252.8 11125.4 10996.5 10896 10044.6 9890.27 9747.53 9704.6 9114.85
threshold=77.855500000000021 130.99600000000001 36.616500000000009 177.73450000000003 100.94100000000002 58.150500000000008 0.5375000000000002 77.840000000000018 0.43650000000000005 154.01650000000004 42.651000000000003 16.500000000000004 8.5000000000000018 60.733000000000011 35.141000000000005 54.14050000000001 20.253500000000006 223.10700000000003 116.24450000000002 0.97850000000000004 194.23650000000001 74.361000000000004 130.99600000000001 17.000000000000004 109.85150000000002 162.21850000000003 32.704000000000008 20.500000000000004 0.67850000000000021 12.662500000000001
decision_type=2 2 2 2 2 2 2 2 2 2 2 2 2 2 2 2 2 2 2 2 2 2 2 2 2 2 2 2 2 2
left_child=2 4 6 9 11 14 23 19 -6 22 -10 12 -2 -7 -4 -15 -5 -18 -12 -8 26 -9 -3 -1 -14 -11 -16 28 -13 -17
right_child=1 3 5 16 8 13 7 21 10 25 18 27 24 15 20 29 17 -19 -20 -21 -22 -23 -24 -25 -26 -27 -28 -29 -30 -31
leaf_value=-1.0829478790577796 0.16956099655368076 1.3709227786127445 -0.57620471505929494 0.837654797927193 -0.082001420714688023 -0.21742680695068506 -0.96448020774432841 -0.19950414972994415 1.1342220442211057 1.693693109964713 0.54040039122617289 -0.53796252934705646 0.38171967069050527 0.34094531837526598 -0.10481016038365626 0.63061986553425697 1.9818292338996721 2.7762197933499775 0.78864824615122397 -0.66721668007058099 0.85057634058452791 -0.66769123259371366 0.95594135279744175 -0.78735686626602364 0.73388347272450727 1.225804099255138 -0.38482321422917598 0.27899174406669308 0.041876483790292698 -0.064054226049078775
leaf_weight=1928 989 226 776 23 82 1067 595 297 188 234 1348 84 820 293 402 49 369 63 892 733 21 226 566 376 300 225 1463 401 512 1300
leaf_count=1928 989 226 776 23 82 1067 595 297 188 234 1348 84 820 293 402 49 369 63 892 733 21 226 566 376 300 225 1463 401 512 1300
internal_value=0 0.665928 -0.511855 1.43522 0.432237 -0.226935 -0.880158 -0.687783 0.652766 1.21744 0.677581 0.254024 0.332324 -0.0680943 -0.388581 0.0289445 2.03398 2.09768 0.639256 -0.800403 -0.311383 -0.401818 1.07436 -1.03471 0.476049 1.46434 -0.324467 0.0883928 -0.0398458 -0.0388214
internal_weight=0 7322 9526 1706 5616 5371 4155 1851 2510 1251 2428 3106 2109 2709 2662 1642 455 432 2240 1328 1886 523 792 2304 1120 459 1865 997 596 1349
internal_count=16848 7322 9526 1706 5616 5371 4155 1851 2510 1251 2428 3106 2109 2709 2662 1642 455 432 2240 1328 1886 523 792 2304 1120 459 1865 997 596 1349
is_linear=0
shrinkage=0.05


Tree=23
num_leaves=31
num_cat=0
split_feature=4 4 4 4 4 4 4 24 677 5 5 676 677 3 677 676 4 7 678 677 26 169 573 388 446 538 504 553 13 205
split_gain=2.07769e+06 556524 278990 113519 85241.2 49675.4 21290.2 21191 20258.4 19934.3 18203 16170.7 15246 14931.2 13165.7 12806.5 12455.4 12170.2 11826.2 11658.9 10360.5 9852.78 9269.16 9054.27 8835.21 8785.89 11365.4 8754 8579.3 8271.33
threshold=70.793500000000009 123.66150000000002 25.868500000000004 162.21850000000003 91.356500000000025 48.246000000000002 188.19450000000003 59.138000000000012 0.62750000000000006 26.994500000000006 48.263000000000012 29.899000000000004 0.50050000000000006 16.500000000000004 0.46750000000000008 17.119500000000006 109.20650000000002 59.080000000000005 64.659500000000023 0.39850000000000008 54.721500000000006 76.990500000000011 98.759500000000017 120.96550000000001 7.8310000000000004 101.47650000000002 125.47800000000002 66.014500000000012 41.041500000000006 60.31900000000001
decision_type=2 2 2 2 2 2 2 2 2 2 2 2 2 2 2 2 2 2 2 2 2 2 2 2 2 2 2 2 2 2
left_child=2 4 7 13 12 9 27 -1 28 -4 -7 16 -2 18 29 -14 -10 24 22 -9 -11 -16 -3 -8 -17 26 -25 -5 -6 -12
right_child=1 3 5 6 8 10 23 19 11 20 14 -13 15 -15 21 17 -18 -19 -20 -21 -22 -23 -24 25 -26 -27 -28 -29 -30 -31
leaf_value=-1.0040722730224549 -0.21509040824661693 1.0825731611886278 -0.20593925792438628 1.0113422196252004 -0.62402628008808414 0.060281373667341931 1.7622258118220739 -0.96716532763335616 0.42706226940779723 -0.68968430687385007 -0.9179991560191223 0.9640711494875186 0.046875037768355922 0.78419089221812432 -0.29519278082089012 1.5473669093847275 0.65229917576926588 0.18187471820792153 0.8701756498979093 -0.58830062055635268 -0.45149931225719941 -0.076825102179643417 1.4781772240701871 2.3359383407392 0.46401888038204009 1.8535297120468959 3.6473389148712161 1.6284488217852939 0.20661145050108784 -0.39015790901347241
leaf_weight=2246 299 357 444 70 35 555 140 308 1783 985 97 206 1256 525 1261 20 936 1014 317 596 851 875 253 95 319 70 20 321 278 316
leaf_count=2246 299 357 444 70 35 555 140 308 1783 985 97 206 1256 525 1261 20 936 1014 317 596 851 875 253 95 319 70 20 321 278 316
internal_value=0 0.562545 -0.548043 1.25131 0.319582 -0.329373 1.76654 -0.921797 0.496047 -0.50658 -0.199207 0.536958 0.123093 0.997247 -0.255707 0.16185 0.504599 0.268581 1.11791 -0.717383 -0.579284 -0.20574 1.24665 2.0656 0.527933 2.29518 2.56401 1.51797 0.113729 -0.51413
internal_weight=0 8314 8534 2168 6146 5384 716 3150 3238 2280 3104 2925 2908 1452 2549 2609 2719 1353 927 904 1836 2136 610 325 339 185 115 391 313 413
internal_count=16848 8314 8534 2168 6146 5384 716 3150 3238 2280 3104 2925 2908 1452 2549 2609 2719 1353 927 904 1836 2136 610 325 339 185 115 391 313 413
is_linear=0
shrinkage=0.05


Tree=24
num_leaves=31
num_cat=0
split_feature=4 4 4 4 4 4 4 3 3 5 73 677 8 676 553 677 6 677 21 170 677 677 12 20 314 478 615 677 3 17
split_gain=1.87672e+06 391586 380841 77423 63950.4 50295.8 38592.8 18726.5 19153.1 17352 16878.1 16476.9 14513.1 13308.2 12858.8 12650.9 11581.1 10705.5 10476.9 10435.2 10171.7 9311.81 8876.49 8828.72 8661.48 9550.15 8830.95 7676.35 7643.04 7326.15
threshold=82.199500000000015 140.58250000000001 44.171000000000006 109.82800000000002 18.259000000000004 188.19450000000003 65.870000000000019 16.500000000000004 8.5000000000000018 42.026000000000003 43.31900000000001 1.4005000000000003 41.56900000000001 25.083000000000002 76.774500000000018 0.39850000000000008 57.230500000000006 0.39250000000000007 109.85150000000002 50.020500000000006 0.75950000000000017 0.75950000000000017 83.515000000000015 121.93300000000001 92.901000000000025 146.61250000000004 60.388500000000008 0.38750000000000007 20.500000000000004 52.815000000000005
decision_type=2 2 2 2 2 2 2 2 2 2 2 2 2 2 2 2 2 2 2 2 2 2 2 2 2 2 2 2 2 2
left_child=2 3 4 7 13 11 9 8 -2 -4 -6 -3 -5 21 -13 -12 -8 -9 -10 -11 29 -1 -23 -17 26 -26 -7 -21 -19 -14
right_child=1 5 6 12 10 24 16 17 18 19 15 14 20 -15 -16 23 -18 28 -20 27 -22 22 -24 -25 25 -27 -28 -29 -30 -31
leaf_value=-0.98002894460933099 0.24382552786590803 1.0002771773750401 0.040120672157080955 1.2149953732887904 -0.7283369161302975 0.61338027179241184 0.24814773667084111 -0.50395091227416333 0.43908246768910564 -0.42830740073008039 -0.76216305930506101 1.0118285657191763 -0.13846065726196558 -0.024292801902061557 1.5530590358080545 -0.42861715504380282 -0.031845174747207883 0.089596216755135238 0.75241177764836109 -0.53348030690103776 0.71966493723095148 -0.7914332370722259 0.096172759830951693 0.044767629644936989 2.0147870874682137 3.0867513926132868 1.8106197641856636 -0.17756138873333532 0.35664999357642557 0.53258611216065543
leaf_weight=2015 1042 405 439 135 912 20 466 58 890 975 275 147 57 41 433 1119 1780 695 381 171 1582 461 30 108 215 23 67 1328 436 142
leaf_count=2015 1042 405 439 135 912 20 466 58 890 975 275 147 57 41 433 1119 1780 695 381 171 1582 461 30 108 215 23 67 1328 436 142
internal_value=0 0.647207 -0.430277 0.45964 -0.743065 1.42296 -0.129494 0.319834 0.402732 -0.249575 -0.558669 1.245 0.715172 -0.917833 1.41589 -0.455647 0.0262477 0.15857 0.533007 -0.300981 0.677285 -0.932452 -0.737201 -0.38695 1.96232 2.11838 1.53539 -0.218163 0.192545 0.340377
internal_weight=0 6728 10120 5418 4961 1310 5159 3502 2313 2913 2414 985 1916 2547 580 1502 2246 1189 1271 2474 1781 2506 491 1227 325 238 87 1499 1131 199
internal_count=16848 6728 10120 5418 4961 1310 5159 3502 2313 2913 2414 985 1916 2547 580 1502 2246 1189 1271 2474 1781 2506 491 1227 325 238 87 1499 1131 199
is_linear=0
shrinkage=0.05


Tree=25
num_leaves=31
num_cat=0
split_feature=4 4 4 4 4 4 4 5 3 5 3 677 677 7 676 676 6 676 677 265 21 677 3 3 194 614 477 3 5 445
split_gain=1.69542e+06 371180 332902 60385.4 57715.2 45392 40781.3 16374.2 16171.8 15679.5 15343.7 14870.4 14702.7 12558.5 12303.1 11873.6 11473.3 10735.2 10679.1 9699.52 9539.62 9258.01 9096.86 9017.79 8320.14 11712.6 9201.19 8230.89 8175.12 7819.24
threshold=84.34350000000002 44.171000000000006 140.58250000000001 111.53300000000002 18.259000000000004 188.19450000000003 66.297500000000014 14.915500000000002 16.500000000000004 42.026000000000003 8.5000000000000018 1.4005000000000003 0.99650000000000005 95.601000000000013 14.416500000000001 22.371500000000001 57.230500000000006 19.604500000000005 0.45850000000000007 104.18050000000001 110.58850000000001 0.63750000000000007 13.500000000000002 13.500000000000002 118.11150000000002 52.593500000000013 117.15200000000002 8.5000000000000018 67.930500000000009 7.8310000000000004
decision_type=2 2 2 2 2 2 2 2 2 2 2 2 2 2 2 2 2 2 2 2 2 2 2 2 2 2 2 2 2 2
left_child=1 4 3 8 14 11 9 -6 10 -3 -2 -4 17 22 -1 -13 -8 -9 28 -20 -12 -10 27 -17 25 -7 -26 -5 -11 -22
right_child=2 6 5 13 7 24 16 12 21 18 20 15 -14 -15 -16 23 -18 -19 19 -21 29 -23 -24 -25 26 -27 -28 -29 -30 -31
leaf_value=-0.92208974717681491 0.26364944671425428 0.039104149565038028 0.95026332021817383 0.4694704046845436 -0.17622818122527142 0.49838194966316229 0.25914766293445912 -0.78867320297937193 -0.19862185679115618 -0.31197871599414351 0.43743151449670531 0.97697010076833224 -0.43098771020603799 0.61835474839564142 -0.63113595525975974 1.8050699628889562 -0.012673331216465697 -0.45236579378294506 -0.28505653280537718 -0.00036124447076852305 1.6574226807464254 0.2320691854601552 0.65643072401062919 1.3172721040055211 1.9878792318871352 1.780891463013343 3.1442377614974979 1.2529481222664103 -0.75261769118951638 0.68503311838854231
leaf_weight=2108 978 446 405 40 287 20 480 858 143 233 839 159 941 1360 439 144 2030 328 1747 361 22 979 177 277 123 162 20 207 192 343
leaf_count=2108 978 446 405 40 287 20 480 858 143 233 839 159 941 1360 439 144 2030 328 1747 361 22 979 177 277 123 162 20 207 192 343
internal_value=0 -0.392463 0.641019 0.458012 -0.705912 1.35181 -0.109166 -0.530735 0.33144 -0.234266 0.410763 1.18275 -0.578569 0.692427 -0.871941 1.34509 0.0393084 -0.695664 -0.282399 -0.236302 0.530261 0.177177 0.930017 1.48412 1.8642 1.63996 2.14961 1.12607 -0.511044 0.743643
internal_weight=0 10450 6398 5088 4961 1310 5489 2414 3304 2979 2182 985 2127 1784 2547 580 2510 1186 2533 2108 1204 1122 424 421 325 182 143 247 425 365
internal_count=16848 10450 6398 5088 4961 1310 5489 2414 3304 2979 2182 985 2127 1784 2547 580 2510 1186 2533 2108 1204 1122 424 421 325 182 143 247 425 365
is_linear=0
shrinkage=0.05


Tree=26
num_leaves=31
num_cat=0
split_feature=4 4 4 4 4 4 5 24 7 433 20 677 677 265 3 677 676 9 677 4 4 678 505 617 7 676 3 551 573 19
split_gain=1.53191e+06 413669 207309 85150.7 64267 37663.6 17660.3 17186.5 16558.8 15782.4 13397.3 12819.2 12805.3 12716.8 12476.4 11104.2 10911.5 10516.1 10271.1 9859.99 9625.65 9417.43 9247.34 8598.18 8589.3 8561.24 8032.08 7818.71 7777.86 7659.78
threshold=70.793500000000009 123.66150000000002 25.868500000000004 162.21850000000003 91.356500000000025 51.82200000000001 31.270000000000003 54.215500000000006 74.604500000000016 100.95150000000001 134.03150000000002 0.50050000000000006 0.40450000000000008 60.530000000000008 16.500000000000004 0.38150000000000006 17.119500000000006 33.481500000000004 0.40450000000000008 209.38700000000003 103.069 64.659500000000023 127.59650000000001 15.197000000000001 36.034500000000001 19.717500000000005 4.5000000000000009 127.59650000000001 98.759500000000017 100.95150000000001
decision_type=2 2 2 2 2 2 2 2 2 2 2 2 2 2 2 2 2 2 2 2 2 2 2 2 2 2 2 2 2 2
left_child=2 4 7 14 11 6 10 -1 27 23 -4 -2 -10 -7 21 -9 -13 29 26 -11 -14 28 -21 -5 -15 -17 -8 -6 -3 -18
right_child=1 3 5 9 8 13 18 15 12 19 -12 16 20 24 -16 25 17 -19 -20 22 -22 -23 -24 -25 -26 -27 -28 -29 -30 -31
leaf_value=-0.8758854417204287 -0.20714361770171985 0.93170524067049776 -0.2472643815691242 0.26379139661788942 0.57738109226233003 -0.26472086530498551 -0.44172062473483831 -0.85860703438944963 -0.15110416692766276 1.6076687338712969 0.70672463365854366 0.032368979956450501 0.28890645894664757 0.19716775567235612 0.66206706423986539 -0.60097996536740705 0.43081964693744396 0.17828026913192363 -0.42975278900326713 1.8150536830608663 0.48296304049232597 0.74605078950571346 2.9060794091993767 1.3335285833449042 -0.10775995116181077 -0.16444720369364535 -0.89294070177424101 1.0336189566361831 1.2940905953584454 1.2529284837491375
leaf_weight=2091 299 357 653 20 397 1232 166 351 110 304 39 1256 1120 291 525 568 170 1149 1641 52 1488 317 31 309 1119 140 243 123 253 34
leaf_count=2091 299 357 653 20 397 1232 166 351 110 304 39 1256 1120 291 525 568 170 1149 1641 52 1488 317 31 309 1119 140 243 123 253 34
internal_value=0 0.483041 -0.470589 1.07687 0.27357 -0.282091 -0.411902 -0.79277 0.426794 1.5231 -0.193499 0.102958 0.377337 -0.147367 0.856823 -0.628659 0.138497 0.237016 -0.485627 1.73954 0.399626 0.967122 2.22255 1.2685 -0.0448281 -0.51466 -0.709805 0.685299 1.08201 0.567838
