tree
version=v4
num_class=1
num_tree_per_iteration=1
label_index=0
max_feature_idx=679
objective=regression
feature_names=year month day hour O3VAL_1 O3VAL_2 O3VAL_3 O3VAL_4 O3VAL_5 O3VAL_6 O3VAL_7 O3VAL_8 O3VAL_9 O3VAL_10 O3VAL_11 O3VAL_12 O3VAL_13 O3VAL_14 O3VAL_15 O3VAL_16 O3VAL_17 O3VAL_18 O3VAL_19 O3VAL_20 O3VAL_21 O3VAL_22 O3VAL_23 O3VAL_24 O3VAL_25 O3VAL_26 O3VAL_27 O3VAL_28 O3VAL_29 O3VAL_30 O3VAL_31 O3VAL_32 O3VAL_33 O3VAL_34 O3VAL_35 O3VAL_36 O3VAL_37 O3VAL_38 O3VAL_39 O3VAL_40 O3VAL_41 O3VAL_42 O3VAL_43 O3VAL_44 O3VAL_45 O3VAL_46 O3VAL_47 O3VAL_48 O3VAL_49 O3VAL_50 O3VAL_51 O3VAL_52 O3VAL_53 O3VAL_54 O3VAL_55 O3VAL_56 O3VAL_57 O3VAL_58 O3VAL_59 O3VAL_60 O3VAL_61 O3VAL_62 O3VAL_63 O3VAL_64 O3VAL_65 O3VAL_66 O3VAL_67 O3VAL_68 O3VAL_69 O3VAL_70 O3VAL_71 O3VAL_72 O3VAL_73 O3VAL_74 O3VAL_75 O3VAL_76 O3VAL_77 O3VAL_78 O3VAL_79 O3VAL_80 O3VAL_81 O3VAL_82 O3VAL_83 O3VAL_84 O3VAL_85 O3VAL_86 O3VAL_87 O3VAL_88 O3VAL_89 O3VAL_90 O3VAL_91 O3VAL_92 O3VAL_93 O3VAL_94 O3VAL_95 O3VAL_96 O3VAL_97 O3VAL_98 O3VAL_99 O3VAL_100 O3VAL_101 O3VAL_102 O3VAL_103 O3VAL_104 O3VAL_105 O3VAL_106 O3VAL_107 O3VAL_108 O3VAL_109 O3VAL_110 O3VAL_111 O3VAL_112 O3VAL_113 O3VAL_114 O3VAL_115 O3VAL_116 O3VAL_117 O3VAL_118 O3VAL_119 O3VAL_120 O3VAL_121 O3VAL_122 O3VAL_123 O3VAL_124 O3VAL_125 O3VAL_126 O3VAL_127 O3VAL_128 O3VAL_129 O3VAL_130 O3VAL_131 O3VAL_132 O3VAL_133 O3VAL_134 O3VAL_135 O3VAL_136 O3VAL_137 O3VAL_138 O3VAL_139 O3VAL_140 O3VAL_141 O3VAL_142 O3VAL_143 O3VAL_144 O3VAL_145 O3VAL_146 O3VAL_147 O3VAL_148 O3VAL_149 O3VAL_150 O3VAL_151 O3VAL_152 O3VAL_153 O3VAL_154 O3VAL_155 O3VAL_156 O3VAL_157 O3VAL_158 O3VAL_159 O3VAL_160 O3VAL_161 O3VAL_162 O3VAL_163 O3VAL_164 O3VAL_165 O3VAL_166 O3VAL_167 O3VAL_168 O3VAL_169 O3VAL_170 O3VAL_171 O3VAL_172 O3VAL_173 O3VAL_174 O3VAL_175 O3VAL_176 O3VAL_177 O3VAL_178 O3VAL_179 O3VAL_180 O3VAL_181 O3VAL_182 O3VAL_183 O3VAL_184 O3VAL_185 O3VAL_186 O3VAL_187 O3VAL_188 O3VAL_189 O3VAL_190 O3VAL_191 O3VAL_192 O3VAL_193 O3VAL_194 O3VAL_195 O3VAL_196 O3VAL_197 O3VAL_198 O3VAL_199 O3VAL_200 O3VAL_201 O3VAL_202 O3VAL_203 O3VAL_204 O3VAL_205 O3VAL_206 O3VAL_207 O3VAL_208 O3VAL_209 O3VAL_210 O3VAL_211 O3VAL_212 O3VAL_213 O3VAL_214 O3VAL_215 O3VAL_216 O3VAL_217 O3VAL_218 O3VAL_219 O3VAL_220 O3VAL_221 O3VAL_222 O3VAL_223 O3VAL_224 O3VAL_225 O3VAL_226 O3VAL_227 O3VAL_228 O3VAL_229 O3VAL_230 O3VAL_231 O3VAL_232 O3VAL_233 O3VAL_234 O3VAL_235 O3VAL_236 O3VAL_237 O3VAL_238 O3VAL_239 O3VAL_240 O3VAL_241 O3VAL_242 O3VAL_243 O3VAL_244 O3VAL_245 O3VAL_246 O3VAL_247 O3VAL_248 O3VAL_249 O3VAL_250 O3VAL_251 O3VAL_252 O3VAL_253 O3VAL_254 O3VAL_255 O3VAL_256 O3VAL_257 O3VAL_258 O3VAL_259 O3VAL_260 O3VAL_261 O3VAL_262 O3VAL_263 O3VAL_264 O3VAL_265 O3VAL_266 O3VAL_267 O3VAL_268 O3VAL_269 O3VAL_270 O3VAL_271 O3VAL_272 O3VAL_273 O3VAL_274 O3VAL_275 O3VAL_276 O3VAL_277 O3VAL_278 O3VAL_279 O3VAL_280 O3VAL_281 O3VAL_282 O3VAL_283 O3VAL_284 O3VAL_285 O3VAL_286 O3VAL_287 O3VAL_288 O3VAL_289 O3VAL_290 O3VAL_291 O3VAL_292 O3VAL_293 O3VAL_294 O3VAL_295 O3VAL_296 O3VAL_297 O3VAL_298 O3VAL_299 O3VAL_300 O3VAL_301 O3VAL_302 O3VAL_303 O3VAL_304 O3VAL_305 O3VAL_306 O3VAL_307 O3VAL_308 O3VAL_309 O3VAL_310 O3VAL_311 O3VAL_312 O3VAL_313 O3VAL_314 O3VAL_315 O3VAL_316 O3VAL_317 O3VAL_318 O3VAL_319 O3VAL_320 O3VAL_321 O3VAL_322 O3VAL_323 O3VAL_324 O3VAL_325 O3VAL_326 O3VAL_327 O3VAL_328 O3VAL_329 O3VAL_330 O3VAL_331 O3VAL_332 O3VAL_333 O3VAL_334 O3VAL_335 O3VAL_336 O3VAL_337 O3VAL_338 O3VAL_339 O3VAL_340 O3VAL_341 O3VAL_342 O3VAL_343 O3VAL_344 O3VAL_345 O3VAL_346 O3VAL_347 O3VAL_348 O3VAL_349 O3VAL_350 O3VAL_351 O3VAL_352 O3VAL_353 O3VAL_354 O3VAL_355 O3VAL_356 O3VAL_357 O3VAL_358 O3VAL_359 O3VAL_360 O3VAL_361 O3VAL_362 O3VAL_363 O3VAL_364 O3VAL_365 O3VAL_366 O3VAL_367 O3VAL_368 O3VAL_369 O3VAL_370 O3VAL_371 O3VAL_372 O3VAL_373 O3VAL_374 O3VAL_375 O3VAL_376 O3VAL_377 O3VAL_378 O3VAL_379 O3VAL_380 O3VAL_381 O3VAL_382 O3VAL_383 O3VAL_384 O3VAL_385 O3VAL_386 O3VAL_387 O3VAL_388 O3VAL_389 O3VAL_390 O3VAL_391 O3VAL_392 O3VAL_393 O3VAL_394 O3VAL_395 O3VAL_396 O3VAL_397 O3VAL_398 O3VAL_399 O3VAL_400 O3VAL_401 O3VAL_402 O3VAL_403 O3VAL_404 O3VAL_405 O3VAL_406 O3VAL_407 O3VAL_408 O3VAL_409 O3VAL_410 O3VAL_411 O3VAL_412 O3VAL_413 O3VAL_414 O3VAL_415 O3VAL_416 O3VAL_417 O3VAL_418 O3VAL_419 O3VAL_420 O3VAL_421 O3VAL_422 O3VAL_423 O3VAL_424 O3VAL_425 O3VAL_426 O3VAL_427 O3VAL_428 O3VAL_429 O3VAL_430 O3VAL_431 O3VAL_432 O3VAL_433 O3VAL_434 O3VAL_435 O3VAL_436 O3VAL_437 O3VAL_438 O3VAL_439 O3VAL_440 O3VAL_441 O3VAL_442 O3VAL_443 O3VAL_444 O3VAL_445 O3VAL_446 O3VAL_447 O3VAL_448 O3VAL_449 O3VAL_450 O3VAL_451 O3VAL_452 O3VAL_453 O3VAL_454 O3VAL_455 O3VAL_456 O3VAL_457 O3VAL_458 O3VAL_459 O3VAL_460 O3VAL_461 O3VAL_462 O3VAL_463 O3VAL_464 O3VAL_465 O3VAL_466 O3VAL_467 O3VAL_468 O3VAL_469 O3VAL_470 O3VAL_471 O3VAL_472 O3VAL_473 O3VAL_474 O3VAL_475 O3VAL_476 O3VAL_477 O3VAL_478 O3VAL_479 O3VAL_480 O3VAL_481 O3VAL_482 O3VAL_483 O3VAL_484 O3VAL_485 O3VAL_486 O3VAL_487 O3VAL_488 O3VAL_489 O3VAL_490 O3VAL_491 O3VAL_492 O3VAL_493 O3VAL_494 O3VAL_495 O3VAL_496 O3VAL_497 O3VAL_498 O3VAL_499 O3VAL_500 O3VAL_501 O3VAL_502 O3VAL_503 O3VAL_504 O3VAL_505 O3VAL_506 O3VAL_507 O3VAL_508 O3VAL_509 O3VAL_510 O3VAL_511 O3VAL_512 O3VAL_513 O3VAL_514 O3VAL_515 O3VAL_516 O3VAL_517 O3VAL_518 O3VAL_519 O3VAL_520 O3VAL_521 O3VAL_522 O3VAL_523 O3VAL_524 O3VAL_525 O3VAL_526 O3VAL_527 O3VAL_528 O3VAL_529 O3VAL_530 O3VAL_531 O3VAL_532 O3VAL_533 O3VAL_534 O3VAL_535 O3VAL_536 O3VAL_537 O3VAL_538 O3VAL_539 O3VAL_540 O3VAL_541 O3VAL_542 O3VAL_543 O3VAL_544 O3VAL_545 O3VAL_546 O3VAL_547 O3VAL_548 O3VAL_549 O3VAL_550 O3VAL_551 O3VAL_552 O3VAL_553 O3VAL_554 O3VAL_555 O3VAL_556 O3VAL_557 O3VAL_558 O3VAL_559 O3VAL_560 O3VAL_561 O3VAL_562 O3VAL_563 O3VAL_564 O3VAL_565 O3VAL_566 O3VAL_567 O3VAL_568 O3VAL_569 O3VAL_570 O3VAL_571 O3VAL_572 O3VAL_573 O3VAL_574 O3VAL_575 O3VAL_576 O3VAL_577 O3VAL_578 O3VAL_579 O3VAL_580 O3VAL_581 O3VAL_582 O3VAL_583 O3VAL_584 O3VAL_585 O3VAL_586 O3VAL_587 O3VAL_588 O3VAL_589 O3VAL_590 O3VAL_591 O3VAL_592 O3VAL_593 O3VAL_594 O3VAL_595 O3VAL_596 O3VAL_597 O3VAL_598 O3VAL_599 O3VAL_600 O3VAL_601 O3VAL_602 O3VAL_603 O3VAL_604 O3VAL_605 O3VAL_606 O3VAL_607 O3VAL_608 O3VAL_609 O3VAL_610 O3VAL_611 O3VAL_612 O3VAL_613 O3VAL_614 O3VAL_615 O3VAL_616 O3VAL_617 O3VAL_618 O3VAL_619 O3VAL_620 O3VAL_621 O3VAL_622 O3VAL_623 O3VAL_624 O3VAL_625 O3VAL_626 O3VAL_627 O3VAL_628 O3VAL_629 O3VAL_630 O3VAL_631 O3VAL_632 O3VAL_633 O3VAL_634 O3VAL_635 O3VAL_636 O3VAL_637 O3VAL_638 O3VAL_639 O3VAL_640 O3VAL_641 O3VAL_642 O3VAL_643 O3VAL_644 O3VAL_645 O3VAL_646 O3VAL_647 O3VAL_648 O3VAL_649 O3VAL_650 O3VAL_651 O3VAL_652 O3VAL_653 O3VAL_654 O3VAL_655 O3VAL_656 O3VAL_657 O3VAL_658 O3VAL_659 O3VAL_660 O3VAL_661 O3VAL_662 O3VAL_663 O3VAL_664 O3VAL_665 O3VAL_666 O3VAL_667 O3VAL_668 O3VAL_669 O3VAL_670 O3VAL_671 O3VAL_672 QIWENVAL FSVAL SHIDUVAL YALIVAL
feature_infos=[2021:2022] [1:12] [1:31] [0:23] [2.081:273.77199999999999] [2.081:273.77199999999999] [2.081:273.77199999999999] [2.081:273.77199999999999] [2.081:273.77199999999999] [2.081:273.77199999999999] [2.081:273.77199999999999] [2.081:273.77199999999999] [2.081:273.77199999999999] [2.081:273.77199999999999] [2.081:273.77199999999999] [2.081:273.77199999999999] [2.081:273.77199999999999] [2.081:273.77199999999999] [2.081:273.77199999999999] [2.081:273.77199999999999] [2.081:273.77199999999999] [2.081:273.77199999999999] [2.081:273.77199999999999] [2.081:273.77199999999999] [2.081:273.77199999999999] [2.081:273.77199999999999] [2.081:273.77199999999999] [2.081:273.77199999999999] [2.081:273.77199999999999] [2.081:273.77199999999999] [2.081:273.77199999999999] [2.081:273.77199999999999] [2.081:273.77199999999999] [2.081:273.77199999999999] [2.081:273.77199999999999] [2.081:273.77199999999999] [2.081:273.77199999999999] [2.081:273.77199999999999] [2.081:273.77199999999999] [2.081:273.77199999999999] [2.081:273.77199999999999] [2.081:273.77199999999999] [2.081:273.77199999999999] [2.081:273.77199999999999] [2.081:273.77199999999999] [2.081:273.77199999999999] [2.081:273.77199999999999] [2.081:273.77199999999999] [2.081:273.77199999999999] [2.081:273.77199999999999] [2.081:273.77199999999999] [2.081:273.77199999999999] [2.081:273.77199999999999] [2.081:273.77199999999999] [2.081:273.77199999999999] [2.081:273.77199999999999] [2.081:273.77199999999999] [2.081:273.77199999999999] [2.081:273.77199999999999] [2.081:273.77199999999999] [2.081:273.77199999999999] [2.081:273.77199999999999] [2.081:273.77199999999999] [2.081:273.77199999999999] [2.081:273.77199999999999] [2.081:273.77199999999999] [2.081:273.77199999999999] [2.081:273.77199999999999] [2.081:273.77199999999999] [2.081:273.77199999999999] [2.081:273.77199999999999] [2.081:273.77199999999999] [2.081:273.77199999999999] [2.081:273.77199999999999] [2.081:273.77199999999999] [2.081:273.77199999999999] [2.081:273.77199999999999] [2.081:273.77199999999999] [2.081:273.77199999999999] [2.081:273.77199999999999] [2.081:273.77199999999999] [2.081:273.77199999999999] [2.081:273.77199999999999] [2.081:273.77199999999999] [2.081:273.77199999999999] [2.081:273.77199999999999] [2.081:273.77199999999999] [2.081:273.77199999999999] [2.081:273.77199999999999] [2.081:273.77199999999999] [2.081:273.77199999999999] [2.081:273.77199999999999] [2.081:273.77199999999999] [2.081:273.77199999999999] [2.081:273.77199999999999] [2.081:273.77199999999999] [2.081:273.77199999999999] [2.081:273.77199999999999] [2.081:273.77199999999999] [2.081:273.77199999999999] [2.081:273.77199999999999] [2.081:273.77199999999999] [2.081:273.77199999999999] [2.081:273.77199999999999] [2.081:273.77199999999999] [2.081:273.77199999999999] [2.081:273.77199999999999] [2.081:273.77199999999999] [2.081:273.77199999999999] [2.081:273.77199999999999] [2.081:273.77199999999999] [2.081:273.77199999999999] [2.081:273.77199999999999] [2.081:273.77199999999999] [2.081:273.77199999999999] [2.081:273.77199999999999] [2.081:273.77199999999999] [2.081:273.77199999999999] [2.081:273.77199999999999] [2.081:273.77199999999999] [2.081:273.77199999999999] [2.081:273.77199999999999] [2.081:273.77199999999999] [2.081:273.77199999999999] [2.081:273.77199999999999] [2.081:273.77199999999999] [2.081:273.77199999999999] [2.081:273.77199999999999] [2.081:273.77199999999999] [2.081:273.77199999999999] [2.081:273.77199999999999] [2.081:273.77199999999999] [2.081:273.77199999999999] [2.081:273.77199999999999] [2.081:273.77199999999999] [2.081:273.77199999999999] [2.081:273.77199999999999] [2.081:273.77199999999999] [2.081:273.77199999999999] [2.081:273.77199999999999] [2.081:273.77199999999999] [2.081:273.77199999999999] [2.081:273.77199999999999] [2.081:273.77199999999999] [2.081:273.77199999999999] [2.081:273.77199999999999] [2.081:273.77199999999999] [2.081:273.77199999999999] [2.081:273.77199999999999] [2.081:273.77199999999999] [2.081:273.77199999999999] [2.081:273.77199999999999] [2.081:273.77199999999999] [2.081:273.77199999999999] [2.081:273.77199999999999] [2.081:273.77199999999999] [2.081:273.77199999999999] [2.081:273.77199999999999] [2.081:273.77199999999999] [2.081:273.77199999999999] [2.081:273.77199999999999] [2.081:273.77199999999999] [2.081:273.77199999999999] [2.081:273.77199999999999] [2.081:273.77199999999999] [2.081:273.77199999999999] [2.081:273.77199999999999] [2.081:273.77199999999999] [2.081:273.77199999999999] [2.081:273.77199999999999] [2.081:273.77199999999999] [2.081:273.77199999999999] [2.081:273.77199999999999] [2.081:273.77199999999999] [2.081:273.77199999999999] [2.081:273.77199999999999] [2.081:273.77199999999999] [2.081:273.77199999999999] [2.081:273.77199999999999] [2.081:273.77199999999999] [2.081:273.77199999999999] [2.081:273.77199999999999] [2.081:273.77199999999999] [2.081:273.77199999999999] [2.081:273.77199999999999] [2.081:273.77199999999999] [2.081:273.77199999999999] [2.081:273.77199999999999] [2.081:273.77199999999999] [2.081:273.77199999999999] [2.081:273.77199999999999] [2.081:273.77199999999999] [2.081:273.77199999999999] [2.081:273.77199999999999] [2.081:273.77199999999999] [2.081:273.77199999999999] [2.081:273.77199999999999] [2.081:273.77199999999999] [2.081:273.77199999999999] [2.081:273.77199999999999] [2.081:273.77199999999999] [2.081:273.77199999999999] [2.081:273.77199999999999] [2.081:273.77199999999999] [2.081:273.77199999999999] [2.081:273.77199999999999] [2.081:273.77199999999999] [2.081:273.77199999999999] [2.081:273.77199999999999] [2.081:273.77199999999999] [2.081:273.77199999999999] [2.081:273.77199999999999] [2.081:273.77199999999999] [2.081:273.77199999999999] [2.081:273.77199999999999] [2.081:273.77199999999999] [2.081:273.77199999999999] [2.081:273.77199999999999] [2.081:273.77199999999999] [2.081:273.77199999999999] [2.081:273.77199999999999] [2.081:273.77199999999999] [2.081:273.77199999999999] [2.081:273.77199999999999] [2.081:273.77199999999999] [2.081:273.77199999999999] [2.081:273.77199999999999] [2.081:273.77199999999999] [2.081:273.77199999999999] [2.081:273.77199999999999] [2.081:273.77199999999999] [2.081:273.77199999999999] [2.081:273.77199999999999] [2.081:273.77199999999999] [2.081:273.77199999999999] [2.081:273.77199999999999] [2.081:273.77199999999999] [2.081:273.77199999999999] [2.081:273.77199999999999] [2.081:273.77199999999999] [2.081:273.77199999999999] [2.081:273.77199999999999] [2.081:273.77199999999999] [2.081:273.77199999999999] [2.081:273.77199999999999] [2.081:273.77199999999999] [2.081:273.77199999999999] [2.081:273.77199999999999] [2.081:273.77199999999999] [2.081:273.77199999999999] [2.081:273.77199999999999] [2.081:273.77199999999999] [2.081:273.77199999999999] [2.081:273.77199999999999] [2.081:273.77199999999999] [2.081:273.77199999999999] [2.081:273.77199999999999] [2.081:273.77199999999999] [2.081:273.77199999999999] [2.081:273.77199999999999] [2.081:273.77199999999999] [2.081:273.77199999999999] [2.081:273.77199999999999] [2.081:273.77199999999999] [2.081:273.77199999999999] [2.081:273.77199999999999] [2.081:273.77199999999999] [2.081:273.77199999999999] [2.081:273.77199999999999] [2.081:273.77199999999999] [2.081:273.77199999999999] [2.081:273.77199999999999] [2.081:273.77199999999999] [2.081:273.77199999999999] [2.081:273.77199999999999] [2.081:273.77199999999999] [2.081:273.77199999999999] [2.081:273.77199999999999] [2.081:273.77199999999999] [2.081:273.77199999999999] [2.081:273.77199999999999] [2.081:273.77199999999999] [2.081:273.77199999999999] [2.081:273.77199999999999] [2.081:273.77199999999999] [2.081:273.77199999999999] [2.081:273.77199999999999] [2.081:273.77199999999999] [2.081:273.77199999999999] [2.081:273.77199999999999] [2.081:273.77199999999999] [2.081:273.77199999999999] [2.081:273.77199999999999] [2.081:273.77199999999999] [2.081:273.77199999999999] [2.081:273.77199999999999] [2.081:273.77199999999999] [2.081:273.77199999999999] [2.081:273.77199999999999] [2.081:273.77199999999999] [2.081:273.77199999999999] [2.081:273.77199999999999] [2.081:273.77199999999999] [2.081:273.77199999999999] [2.081:273.77199999999999] [2.081:273.77199999999999] [2.081:273.77199999999999] [2.081:273.77199999999999] [2.081:273.77199999999999] [2.081:273.77199999999999] [2.081:273.77199999999999] [2.081:273.77199999999999] [2.081:273.77199999999999] [2.081:273.77199999999999] [2.081:273.77199999999999] [2.081:273.77199999999999] [2.081:273.77199999999999] [2.081:273.77199999999999] [2.081:273.77199999999999] [2.081:273.77199999999999] [2.081:273.77199999999999] [2.081:273.77199999999999] [2.081:273.77199999999999] [2.081:273.77199999999999] [2.081:273.77199999999999] [2.081:273.77199999999999] [2.081:273.77199999999999] [2.081:273.77199999999999] [2.081:273.77199999999999] [2.081:273.77199999999999] [2.081:273.77199999999999] [2.081:273.77199999999999] [2.081:273.77199999999999] [2.081:273.77199999999999] [2.081:273.77199999999999] [2.081:273.77199999999999] [2.081:273.77199999999999] [2.081:273.77199999999999] [2.081:273.77199999999999] [2.081:273.77199999999999] [2.081:273.77199999999999] [2.081:273.77199999999999] [2.081:273.77199999999999] [2.081:273.77199999999999] [2.081:273.77199999999999] [2.081:273.77199999999999] [2.081:273.77199999999999] [2.081:273.77199999999999] [2.081:273.77199999999999] [2.081:273.77199999999999] [2.081:273.77199999999999] [2.081:273.77199999999999] [2.081:273.77199999999999] [2.081:273.77199999999999] [2.081:273.77199999999999] [2.081:273.77199999999999] [2.081:273.77199999999999] [2.081:273.77199999999999] [2.081:273.77199999999999] [2.081:273.77199999999999] [2.081:273.77199999999999] [2.081:273.77199999999999] [2.081:273.77199999999999] [2.081:273.77199999999999] [2.081:273.77199999999999] [2.081:273.77199999999999] [2.081:273.77199999999999] [2.081:273.77199999999999] [2.081:273.77199999999999] [2.081:273.77199999999999] [2.081:273.77199999999999] [2.081:273.77199999999999] [2.081:273.77199999999999] [2.081:273.77199999999999] [2.081:273.77199999999999] [2.081:273.77199999999999] [2.081:273.77199999999999] [2.081:273.77199999999999] [2.081:273.77199999999999] [2.081:273.77199999999999] [2.081:273.77199999999999] [2.081:273.77199999999999] [2.081:273.77199999999999] [2.081:273.77199999999999] [2.081:273.77199999999999] [2.081:273.77199999999999] [2.081:273.77199999999999] [2.081:273.77199999999999] [2.081:273.77199999999999] [2.081:273.77199999999999] [2.081:273.77199999999999] [2.081:273.77199999999999] [2.081:273.77199999999999] [2.081:273.77199999999999] [2.081:273.77199999999999] [2.081:273.77199999999999] [2.081:273.77199999999999] [2.081:273.77199999999999] [2.081:273.77199999999999] [2.081:273.77199999999999] [2.081:273.77199999999999] [2.081:273.77199999999999] [2.081:273.77199999999999] [2.081:273.77199999999999] [2.081:273.77199999999999] [2.081:273.77199999999999] [2.081:273.77199999999999] [2.081:273.77199999999999] [2.081:273.77199999999999] [2.081:273.77199999999999] [2.081:273.77199999999999] [2.081:273.77199999999999] [2.081:273.77199999999999] [2.081:273.77199999999999] [2.081:273.77199999999999] [2.081:273.77199999999999] [2.081:273.77199999999999] [2.081:273.77199999999999] [2.081:273.77199999999999] [2.081:273.77199999999999] [2.081:273.77199999999999] [2.081:273.77199999999999] [2.081:273.77199999999999] [2.081:273.77199999999999] [2.081:273.77199999999999] [2.081:273.77199999999999] [2.081:273.77199999999999] [2.081:273.77199999999999] [2.081:273.77199999999999] [2.081:273.77199999999999] [2.081:273.77199999999999] [2.081:273.77199999999999] [2.081:273.77199999999999] [2.081:273.77199999999999] [2.081:273.77199999999999] [2.081:273.77199999999999] [2.081:273.77199999999999] [2.081:273.77199999999999] [2.081:273.77199999999999] [2.081:273.77199999999999] [2.081:273.77199999999999] [2.081:273.77199999999999] [2.081:273.77199999999999] [2.081:273.77199999999999] [2.081:273.77199999999999] [2.081:273.77199999999999] [2.081:273.77199999999999] [2.081:273.77199999999999] [2.081:273.77199999999999] [2.081:273.77199999999999] [2.081:273.77199999999999] [2.081:273.77199999999999] [2.081:273.77199999999999] [2.081:273.77199999999999] [2.081:273.77199999999999] [2.081:273.77199999999999] [2.081:273.77199999999999] [2.081:273.77199999999999] [2.081:273.77199999999999] [2.081:273.77199999999999] [2.081:273.77199999999999] [2.081:273.77199999999999] [2.081:273.77199999999999] [2.081:273.77199999999999] [2.081:273.77199999999999] [2.081:273.77199999999999] [2.081:273.77199999999999] [2.081:273.77199999999999] [2.081:273.77199999999999] [2.081:273.77199999999999] [2.081:273.77199999999999] [2.081:273.77199999999999] [2.081:273.77199999999999] [2.081:273.77199999999999] [2.081:273.77199999999999] [2.081:273.77199999999999] [2.081:273.77199999999999] [2.081:273.77199999999999] [2.081:273.77199999999999] [2.081:273.77199999999999] [2.081:273.77199999999999] [2.081:273.77199999999999] [2.081:273.77199999999999] [2.081:273.77199999999999] [2.081:273.77199999999999] [2.081:273.77199999999999] [2.081:273.77199999999999] [2.081:273.77199999999999] [2.081:273.77199999999999] [2.081:273.77199999999999] [2.081:273.77199999999999] [2.081:273.77199999999999] [2.081:273.77199999999999] [2.081:273.77199999999999] [2.081:273.77199999999999] [2.081:273.77199999999999] [2.081:273.77199999999999] [2.081:273.77199999999999] [2.081:273.77199999999999] [2.081:273.77199999999999] [2.081:273.77199999999999] [2.081:273.77199999999999] [2.081:273.77199999999999] [2.081:273.77199999999999] [2.081:273.77199999999999] [2.081:273.77199999999999] [2.081:273.77199999999999] [2.081:273.77199999999999] [2.081:273.77199999999999] [2.081:273.77199999999999] [2.081:273.77199999999999] [2.081:273.77199999999999] [2.081:273.77199999999999] [2.081:273.77199999999999] [2.081:273.77199999999999] [2.081:273.77199999999999] [2.081:273.77199999999999] [2.081:273.77199999999999] [2.081:273.77199999999999] [2.081:273.77199999999999] [2.081:273.77199999999999] [2.081:273.77199999999999] [2.081:273.77199999999999] [2.081:273.77199999999999] [2.081:273.77199999999999] [2.081:273.77199999999999] [2.081:273.77199999999999] [2.081:273.77199999999999] [2.081:273.77199999999999] [2.081:273.77199999999999] [2.081:273.77199999999999] [2.081:273.77199999999999] [2.081:273.77199999999999] [2.081:273.77199999999999] [2.081:273.77199999999999] [2.081:273.77199999999999] [2.081:273.77199999999999] [2.081:273.77199999999999] [2.081:273.77199999999999] [2.081:273.77199999999999] [2.081:273.77199999999999] [2.081:273.77199999999999] [2.081:273.77199999999999] [2.081:273.77199999999999] [2.081:273.77199999999999] [2.081:273.77199999999999] [2.081:273.77199999999999] [2.081:273.77199999999999] [2.081:273.77199999999999] [2.081:273.77199999999999] [2.081:273.77199999999999] [2.081:273.77199999999999] [2.081:273.77199999999999] [2.081:273.77199999999999] [2.081:273.77199999999999] [2.081:273.77199999999999] [2.081:273.77199999999999] [2.081:273.77199999999999] [2.081:273.77199999999999] [2.081:273.77199999999999] [2.081:273.77199999999999] [2.081:273.77199999999999] [2.081:273.77199999999999] [2.081:273.77199999999999] [2.081:273.77199999999999] [2.081:273.77199999999999] [2.081:273.77199999999999] [2.081:273.77199999999999] [2.081:273.77199999999999] [2.081:273.77199999999999] [2.081:273.77199999999999] [2.081:273.77199999999999] [2.081:273.77199999999999] [2.081:273.77199999999999] [2.081:273.77199999999999] [2.081:273.77199999999999] [2.081:273.77199999999999] [2.081:273.77199999999999] [2.081:273.77199999999999] [2.081:273.77199999999999] [2.081:273.77199999999999] [2.081:273.77199999999999] [2.081:273.77199999999999] [2.081:273.77199999999999] [2.081:273.77199999999999] [2.081:273.77199999999999] [2.081:273.77199999999999] [2.081:273.77199999999999] [2.081:273.77199999999999] [2.081:273.77199999999999] [2.081:273.77199999999999] [2.081:273.77199999999999] [2.081:273.77199999999999] [2.081:273.77199999999999] [2.081:273.77199999999999] [2.081:273.77199999999999] [2.081:273.77199999999999] [2.081:273.77199999999999] [2.081:273.77199999999999] [2.081:273.77199999999999] [2.081:273.77199999999999] [2.081:273.77199999999999] [2.081:273.77199999999999] [2.081:273.77199999999999] [2.081:273.77199999999999] [2.081:273.77199999999999] [2.081:273.77199999999999] [2.081:273.77199999999999] [2.081:273.77199999999999] [2.081:273.77199999999999] [2.081:273.77199999999999] [2.081:273.77199999999999] [2.081:273.77199999999999] [2.081:273.77199999999999] [2.081:273.77199999999999] [2.081:273.77199999999999] [2.081:273.77199999999999] [2.081:273.77199999999999] [2.081:273.77199999999999] [2.081:273.77199999999999] [2.081:273.77199999999999] [2.081:273.77199999999999] [2.081:273.77199999999999] [2.081:273.77199999999999] [2.081:273.77199999999999] [2.081:273.77199999999999] [2.081:273.77199999999999] [2.081:273.77199999999999] [2.081:273.77199999999999] [2.081:273.77199999999999] [2.081:273.77199999999999] [2.081:273.77199999999999] [2.081:273.77199999999999] [2.081:273.77199999999999] [2.081:273.77199999999999] [2.081:273.77199999999999] [2.081:273.77199999999999] [2.081:273.77199999999999] [2.081:273.77199999999999] [2.081:273.77199999999999] [2.081:273.77199999999999] [2.081:273.77199999999999] [2.081:273.77199999999999] [2.081:273.77199999999999] [2.081:273.77199999999999] [2.081:273.77199999999999] [2.081:273.77199999999999] [2.081:273.77199999999999] [2.081:273.77199999999999] [2.081:273.77199999999999] [2.081:273.77199999999999] [2.081:273.77199999999999] [2.081:273.77199999999999] [2.081:273.77199999999999] [2.081:273.77199999999999] [2.081:273.77199999999999] [2.081:273.77199999999999] [2.081:273.77199999999999] [2.081:273.77199999999999] [2.081:273.77199999999999] [2.081:273.77199999999999] [2.081:273.77199999999999] [2.081:273.77199999999999] [2.081:273.77199999999999] [2.081:273.77199999999999] [2.081:273.77199999999999] [2.081:273.77199999999999] [2.081:273.77199999999999] [2.081:273.77199999999999] [2.081:273.77199999999999] [2.081:273.77199999999999] [2.081:273.77199999999999] [2.081:273.77199999999999] [2.081:273.77199999999999] [2.081:273.77199999999999] [2.081:273.77199999999999] [-9.8919999999999995:35.847999999999999] [0.0050000000000000001:6.7110000000000003] [12.919:100] [990.202:1041.3720000000001]
tree_sizes=2720 2757 2767 2777 2745 2765 2774 2762 2771 2772 2747 2771 2763 2756 2772 2760 2768 2774 2780 2774 2732 2797 2785 2786 2784 2800 2769 2797 2796 2804 2790 2773 2801 2792 2768 2799 2786 2802 2773 2768 2805 2792 2803 2786 2807 2763 2745 2783 2788 2785 2786 2803 2790 2803 2830 2808 2746 2799 2781 2784 2806 2820 2824 2785 2799 2816 2818 2798 2768 2766 2825 2819 2820 2783 2821 2819 2776 2806 2748 2813 2808 2772 2796 2803 2818 2815 2824 2774 2826 2780 2836 2849 2844 2829 2806 2814 2809 2845 2828 2862

Tree=0
num_leaves=31
num_cat=0
split_feature=4 4 4 4 4 4 4 677 4 4 677 4 677 4 4 4 25 7 677 5 5 192 7 677 4 677 5 8 7 459
split_gain=1.75359e+07 3.49926e+06 3.29493e+06 611061 510651 433377 384200 100182 89597.2 86271.3 71479.6 70430.8 65011.9 58155.8 55539.9 53306 39401.7 35766 35237.8 34130.2 33131.9 24242.8 22691 22359.4 21353.2 20864.3 20476 20187.1 16273.7 14852.9
threshold=74.072500000000005 121.99000000000002 37.021000000000008 93.520500000000013 158.55150000000003 16.910000000000004 53.906000000000006 0.83950000000000002 107.75350000000002 139.02700000000002 0.85050000000000014 185.17700000000002 0.86950000000000005 83.523500000000013 64.512500000000003 7.6595000000000004 56.176500000000011 75.76900000000002 0.91150000000000009 30.254000000000001 40.680500000000002 60.015000000000008 87.347500000000011 0.99250000000000005 46.755000000000003 1.1555000000000002 56.148500000000006 105.66350000000001 56.961000000000006 144.32500000000002
decision_type=2 2 2 2 2 2 2 2 2 2 2 2 2 2 2 2 2 2 2 2 2 2 2 2 2 2 2 2 2 2
left_child=2 3 5 13 9 15 12 -8 17 27 -7 -6 -4 23 20 -1 -12 -5 -15 -14 -9 -17 -10 -2 -21 -19 -16 -3 -20 -13
right_child=1 4 6 8 11 10 7 14 22 -11 16 29 19 18 26 21 -18 25 28 24 -22 -23 -24 -25 -26 -27 -28 -29 -30 -31
leaf_value=62.503135754683484 65.619780647517658 68.883066295386897 64.071936585649141 67.641976494027233 70.500689965044558 63.340133972068351 64.71564717078769 66.032659789419085 68.173988821453719 69.446135574847489 63.677922140289027 71.63273359690524 65.251385057387324 65.82080035779542 66.222792433560286 62.815162851185164 64.260102203316478 66.454021672487372 67.06909146610279 64.379858140635449 65.156714392091203 63.333406342377508 67.608392125782316 66.156947864887044 64.763622021207638 67.094385172728025 65.620199226513463 68.296936469881544 66.543266607189409 73.233305560828782
leaf_weight=1410 235 275 690 288 325 876 552 118 263 458 663 108 210 157 164 799 539 153 182 765 1213 342 662 1217 722 1013 1060 385 982 22
leaf_count=1410 235 275 690 288 325 876 552 118 263 458 663 108 210 157 164 799 539 153 182 765 1213 342 662 1217 722 1013 1060 385 982 22
internal_value=65.4463 67.4254 64.1315 66.795 69.4898 63.1488 64.9597 65.3265 67.3831 68.9132 63.6858 70.9048 64.4827 66.2901 65.4582 62.7116 63.9384 67.1365 66.531 64.6501 65.2349 62.9698 67.77 66.0705 64.5657 67.011 65.7016 68.5423 66.6261 71.9094
internal_weight=0 6725 10123 5152 1573 4629 5494 3107 2379 1118 2078 455 2387 2773 2555 2551 1202 1454 1321 1697 1331 1141 925 1452 1487 1166 1224 660 1164 130
internal_count=16848 6725 10123 5152 1573 4629 5494 3107 2379 1118 2078 455 2387 2773 2555 2551 1202 1454 1321 1697 1331 1141 925 1452 1487 1166 1224 660 1164 130
is_linear=0
shrinkage=1


Tree=1
num_leaves=31
num_cat=0
split_feature=4 4 4 4 4 4 4 4 677 677 4 677 4 677 4 25 25 4 677 5 6 6 4 4 7 5 4 7 4 7
split_gain=1.58378e+07 3.46041e+06 2.64259e+06 572216 545706 389544 258125 108678 78218.5 77451.7 66129.8 64161.6 63451.3 61449 52827.9 38091.1 34956.2 34839.6 29021.4 25798 25463.8 23219.4 23126.8 21714.2 21082.3 20021.3 19383.2 19060.4 16950.8 16660.7
threshold=70.82650000000001 116.94350000000001 31.996000000000002 149.33050000000003 91.334500000000006 53.045500000000004 12.638500000000002 177.93850000000003 0.88050000000000017 0.75450000000000006 133.08200000000002 0.86950000000000005 101.28050000000002 0.76550000000000018 80.808500000000009 57.850000000000001 56.510000000000012 59.95300000000001 1.0155000000000001 44.550500000000007 73.122500000000016 18.942000000000004 6.9560000000000004 43.052000000000007 84.956000000000003 52.58400000000001 162.75450000000004 91.870500000000007 197.39000000000001 51.27450000000001
decision_type=2 2 2 2 2 2 2 2 2 2 2 2 2 2 2 2 2 2 2 2 2 2 2 2 2 2 2 2 2 2
left_child=2 4 6 10 11 9 22 26 -7 -4 27 -2 20 -8 -13 23 -15 19 -14 -10 -6 -17 -1 -11 -20 -19 -5 -3 -9 -16
right_child=1 3 5 7 12 8 13 28 17 15 -12 14 18 16 29 21 -18 25 24 -21 -22 -23 -24 -25 -26 -27 -28 -29 -30 -31
leaf_value=-2.8159363669601145 0.071234574090655853 3.1354172622601606 -1.4842403505782038 4.1111426346118636 2.0665213941670149 -0.73622253677216332 -2.2069511073296764 5.477707003079928 0.29260230513032653 -1.3080296673998237 3.4690887177068088 0.54693303814851912 1.2000038038424361 -1.8625242511680509 1.4671995959086725 -0.16498986077143918 -1.2763884446337719 0.56330266372145466 2.3870954538320568 -0.43447986689643292 1.3315387768216613 -0.77405481148881827 -2.4705091478625252 -0.86630035078209089 1.8885498491634021 0.011203312903487972 4.8142002790402145 2.5314286020414918 6.5640506773728591 0.92748224733242712
leaf_weight=1275 378 193 717 260 139 548 797 130 145 550 461 1315 123 638 171 199 443 192 308 735 984 794 873 598 825 1156 195 533 65 1108
leaf_count=1275 378 193 717 260 139 548 797 130 145 550 461 1315 123 638 171 199 443 192 308 735 984 794 873 598 825 1156 195 533 65 1108
internal_value=0 1.77718 -1.32237 3.64974 1.13419 -0.623111 -2.30073 4.84413 -0.200922 -1.03292 2.99506 0.68201 1.69876 -1.87123 0.770724 -0.881432 -1.62302 -0.0689229 1.94457 -0.313824 1.42318 -0.652752 -2.6759 -1.07858 2.02474 0.090397 4.4141 2.69303 5.84367 1.00023
internal_weight=0 7188 9660 1837 5351 5634 4026 650 2776 2858 1187 2972 2379 1878 2594 2141 1081 2228 1256 880 1123 993 2148 1148 1133 1348 455 726 195 1279
internal_count=16848 7188 9660 1837 5351 5634 4026 650 2776 2858 1187 2972 2379 1878 2594 2141 1081 2228 1256 880 1123 993 2148 1148 1133 1348 455 726 195 1279
is_linear=0
shrinkage=0.05


Tree=2
num_leaves=31
num_cat=0
split_feature=4 4 4 4 4 4 4 4 677 677 4 4 4 677 4 6 25 7 677 5 677 4 4 677 7 3 5 4 5 411
split_gain=1.42959e+07 3.16043e+06 2.3447e+06 516386 506982 339362 232878 97959.8 76405.7 63816.1 61039.5 59588.2 58728.4 55397.3 40692.7 33059.2 31501.7 30475.5 29852.5 27096.4 27007.6 24607.8 20795.7 20745.2 18589.6 17998.8 17965.2 17367.6 16091.8 15298.2
threshold=70.512500000000017 116.94350000000001 31.996000000000002 149.33050000000003 91.334500000000006 51.272000000000013 12.638500000000002 177.93850000000003 0.86950000000000005 0.75450000000000006 80.808500000000009 133.08200000000002 104.82250000000001 0.76550000000000018 59.95300000000001 21.878500000000003 56.510000000000012 74.683500000000024 0.85050000000000014 40.680500000000002 0.94450000000000001 40.136500000000005 6.9560000000000004 1.1795000000000002 84.956000000000003 16.500000000000004 52.58400000000001 162.75450000000004 126.03800000000003 146.89750000000001
decision_type=2 2 2 2 2 2 2 2 2 2 2 2 2 2 2 2 2 2 2 2 2 2 2 2 2 2 2 2 2 2
left_child=2 4 6 11 10 9 22 27 -7 -4 18 25 17 -8 19 -11 -15 -6 -2 -10 -12 -17 -1 -19 -14 -3 -16 -5 -13 -9
right_child=1 3 5 7 12 8 13 29 14 15 20 28 24 16 26 21 -18 23 -20 -21 -22 -23 -24 -25 -26 -27 -28 -29 -30 -31
leaf_value=-2.6751395378393288 -0.14178153585163084 2.754029948204562 -1.4433120157558461 3.9055854115119346 1.8665440944251637 -0.74527313237179182 -2.0966035488034733 5.3313008489784295 0.36013129075186523 -0.39666659443899754 0.33258136249206999 3.9166881602297554 2.3283591148645981 -1.7693980393364885 0.52814403383355391 -1.2342835678587836 -1.2125690330635615 0.77970866761627922 0.50615580624807155 -0.4249300272284085 0.96036961424231537 -0.81971928943177896 -2.3469836786406417 1.3846586862215593 1.7938888744221959 2.2153200517510467 0.0010810518302183693 4.5734902015099159 3.136645160712626 6.6507784485816961
leaf_weight=1275 202 461 666 260 302 592 797 163 123 311 203 93 230 638 190 561 443 173 1383 965 1250 1056 873 979 695 265 1104 195 368 32
leaf_count=1275 202 461 666 260 302 592 797 163 123 311 203 93 230 638 190 561 443 173 1383 965 1250 1056 873 979 695 265 1104 195 368 32
internal_value=0 1.67502 -1.26643 3.46737 1.06707 -0.601578 -2.18573 4.60209 -0.236692 -1.01963 0.638611 2.84537 1.61389 -1.77771 -0.109979 -0.872884 -1.5419 1.4138 0.423106 -0.335488 0.873177 -0.964012 -2.54212 1.29446 1.92759 2.55843 0.0790501 4.19348 3.29563 5.55168
internal_weight=0 7254 9594 1837 5417 5568 4026 650 2974 2594 3038 1187 2379 1878 2382 1928 1081 1454 1585 1088 1453 1617 2148 1152 925 726 1294 455 461 195
internal_count=16848 7254 9594 1837 5417 5568 4026 650 2974 2594 3038 1187 2379 1878 2382 1928 1081 1454 1585 1088 1453 1617 2148 1152 925 726 1294 455 461 195
is_linear=0
shrinkage=0.05


Tree=3
num_leaves=31
num_cat=0
split_feature=4 4 4 4 4 4 4 677 4 677 4 4 677 4 4 24 145 8 677 24 677 6 4 24 6 8 8 6 5 677
split_gain=1.29112e+07 2.57914e+06 2.4338e+06 448959 374815 319648 282474 64018.1 63975.6 62716.3 61321.3 53342.5 53037.4 50769.2 38103 34849 32513.2 30476 28014.4 26210.3 23251.8 23111.8 20351.2 18534.1 17861.8 16430.2 16197.2 15650.9 15153.1 15116
threshold=74.072500000000005 121.99000000000002 37.021000000000008 94.542500000000004 158.55150000000003 16.910000000000004 57.823000000000008 0.86950000000000005 139.02700000000002 0.86250000000000016 111.91300000000003 185.17700000000002 0.85050000000000014 83.523500000000013 8.5080000000000009 67.928000000000011 44.127000000000002 68.857000000000014 0.91150000000000009 74.043500000000009 0.93250000000000022 31.435000000000002 46.755000000000003 58.305500000000002 70.512500000000017 105.66350000000001 32.564000000000007 18.278000000000002 77.567000000000021 1.1665000000000003
decision_type=2 2 2 2 2 2 2 2 2 2 2 2 2 2 2 2 2 2 2 2 2 2 2 2 2 2 2 2 2 2
left_child=2 3 5 13 8 14 7 -4 25 -8 17 -6 -7 24 -1 22 -14 -5 -15 -11 -19 -17 -9 -16 -2 -3 -21 -18 -20 -26
right_child=1 4 6 10 11 12 9 15 -10 19 -12 -13 16 18 23 21 27 20 28 26 -22 -23 -24 -25 29 -27 -28 -29 -30 -31
leaf_value=-2.5069275416260095 0.81257269277813904 2.9642508531050251 -1.1133349306508451 1.9533538757545363 4.3303388384305519 -1.8094567480186623 -0.55497331821414475 -0.97374427390310014 3.4360056270092856 -0.053797815752321891 2.1264228219651624 5.5598849039811356 -1.6068671160527774 0.3375708778130721 -2.2528308349490853 0.097300094666119621 -0.77852076105773449 0.76207298872567075 1.4434693385757993 0.73752010569468229 1.4869935178554665 -0.4976579102335979 -0.58310415954010131 -1.7742593684773535 0.074858461682241959 2.4342631153007606 0.19909609623756397 -1.2683800147713926 0.95931169509216607 0.52898506299136938
leaf_weight=1544 420 275 829 345 325 876 442 592 458 1140 595 130 496 166 693 221 284 127 199 178 1180 604 803 314 244 385 685 422 1088 788
leaf_count=1544 420 275 829 345 325 876 442 592 458 1140 595 130 496 166 693 221 284 127 199 178 1180 604 803 314 244 385 685 422 1088 788
internal_value=0 1.69824 -1.12812 1.15697 3.47056 -1.97277 -0.416308 -0.737365 2.97634 -0.0156312 1.68795 4.68329 -1.5114 0.746008 -2.3483 -0.596631 -1.29356 1.52957 0.955622 0.10301 1.41713 -0.337372 -0.749419 -2.10435 0.535734 2.65623 0.311019 -1.07239 1.03476 0.422341
internal_weight=0 6725 10123 5152 1573 4629 5494 3049 1118 2445 2247 455 2078 2905 2551 2220 1202 1652 1453 2003 1307 825 1395 1007 1452 660 863 706 1287 1032
internal_count=16848 6725 10123 5152 1573 4629 5494 3049 1118 2445 2247 455 2078 2905 2551 2220 1202 1652 1453 2003 1307 825 1395 1007 1452 660 863 706 1287 1032
is_linear=0
shrinkage=0.05


Tree=4
num_leaves=31
num_cat=0
split_feature=4 4 4 4 4 4 4 4 677 677 4 4 4 677 4 217 24 6 677 6 677 5 5 6 5 7 5 7 4 4
split_gain=1.16586e+07 2.57441e+06 1.91691e+06 422364 413116 298836 167052 80144.1 63301.7 58358.2 49184.4 49030 48853.1 46301.7 37297.2 31021.6 26639 26489.7 25017.7 24021.5 21948.7 21113.2 18221.9 16332.9 15939.4 15841 14483.2 14285.4 13931.5 13826.3
threshold=70.512500000000017 116.94350000000001 30.908000000000005 149.33050000000003 91.334500000000006 50.435500000000012 10.897500000000003 177.93850000000003 0.86950000000000005 0.75450000000000006 80.808500000000009 104.82250000000001 133.08200000000002 0.76550000000000018 58.659500000000001 51.348500000000008 68.8215 88.209500000000006 0.54950000000000021 23.297000000000001 0.94450000000000001 45.515000000000008 46.755000000000003 105.60800000000002 66.676500000000019 84.956000000000003 126.03800000000003 51.27450000000001 197.39000000000001 162.75450000000004
decision_type=2 2 2 2 2 2 2 2 2 2 2 2 2 2 2 2 2 2 2 2 2 2 2 2 2 2 2 2 2 2
left_child=2 4 6 12 10 9 -1 29 -7 -4 18 17 23 -8 21 -11 -15 -6 -2 -17 -12 -10 -16 -3 -20 -13 -14 -22 -9 -5
right_child=1 3 5 7 11 8 13 28 14 15 20 25 26 16 22 19 -18 -19 24 -21 27 -23 -24 -25 -26 -27 -28 -29 -30 -31
leaf_value=-2.3277253542551035 -0.43640006600782794 2.7168704084781785 -1.3523961047293536 3.5273267298478346 1.5974465858141582 -0.67738237431745585 -1.943996607517374 4.6834036225538993 0.10775635406630589 -1.0337322604077965 0.29986210037799887 2.114946614555691 3.565091670456753 -1.6112262546888365 0.59077506976202132 -0.20586121357332632 -1.0571682256886608 1.1291761605393009 0.78834282799929611 -0.76530855587829671 1.3024961423428199 -0.45753516350144691 -0.0088803699174860341 2.157767562951201 0.35552952059371884 1.6206749163964671 2.8249316854564395 0.7979954563378866 5.6720043299748353 4.1282986411070217
leaf_weight=1946 87 193 687 260 450 627 870 130 204 871 203 230 93 758 140 260 318 1004 262 778 168 825 1310 533 1236 695 368 1082 65 195
leaf_count=1946 87 193 687 260 450 627 870 130 204 871 203 230 93 758 140 260 318 1004 262 778 168 825 1310 533 1236 695 368 1082 65 195
internal_value=0 1.51268 -1.14364 3.13036 0.963954 -0.559547 -1.99917 4.15676 -0.228309 -0.95557 0.577151 1.45759 2.56767 -1.67023 -0.114425 -0.81237 -1.44818 1.27462 0.383605 -0.6259 0.787765 -0.344737 0.0485002 2.30743 0.431729 1.74439 2.97588 0.8664 5.01678 3.78653
internal_weight=0 7254 9594 1837 5417 5702 3892 650 3106 2596 3038 2379 1187 1946 2479 1909 1076 1454 1585 1038 1453 1029 1450 726 1498 925 461 1250 195 455
internal_count=16848 7254 9594 1837 5417 5702 3892 650 3106 2596 3038 2379 1187 1946 2479 1909 1076 1454 1585 1038 1453 1029 1450 726 1498 925 461 1250 195 455
is_linear=0
shrinkage=0.05


Tree=5
num_leaves=31
num_cat=0
split_feature=4 4 4 4 4 4 4 4 4 677 677 4 677 4 5 217 677 4 677 677 121 6 4 5 24 5 6 7 7 677
split_gain=1.05337e+07 2.53781e+06 1.50304e+06 457803 381855 226406 125390 84075.5 67982.8 54141.2 51543 45538.7 36564 34182.3 33364 30412.9 28790.5 27470 24706.1 23364.5 23292.8 20768.9 18682.4 18673.7 18358.1 16829.2 16498.3 14969.3 14428.4 12473.3
threshold=67.150500000000008 116.94350000000001 28.990500000000001 91.334500000000006 146.89750000000001 47.685000000000009 10.381000000000002 172.29650000000004 78.386500000000012 0.88050000000000017 0.75450000000000006 100.56500000000001 0.7985000000000001 127.52550000000001 40.680500000000002 51.348500000000008 0.99250000000000005 56.942000000000007 0.75450000000000006 1.0155000000000001 52.625000000000007 17.646500000000003 197.39000000000001 82.677500000000023 116.94350000000001 131.22600000000003 83.176500000000019 45.909500000000001 51.27450000000001 0.75450000000000006
decision_type=2 2 2 2 2 2 2 2 2 2 2 2 2 2 2 2 2 2 2 2 2 2 2 2 2 2 2 2 2 2
left_child=2 3 6 8 13 10 -1 -6 18 -7 -4 23 -8 -3 24 -12 -10 -16 -2 -13 -14 -17 -9 -5 -11 -15 -21 -20 -18 -25
right_child=1 4 5 11 7 9 12 22 16 14 15 19 20 25 17 21 28 -19 27 26 -22 -23 -24 29 -26 -27 -28 -29 -30 -31
leaf_value=-2.2225388000482829 -0.25443566714785076 2.0972849129416953 -1.3624873507161996 1.7744057722180804 3.4621867329733713 -0.73071776268905719 -1.8727900557510488 4.3397323060647031 0.23528039997203423 0.12023157396456273 -1.0704263250994024 0.93195842451774158 -1.6531641254030853 3.0120205229546828 -0.48732246472802648 -0.20523871279617342 1.1690895734285867 -0.11877192555346311 0.67577484148650113 2.0898889589060041 -1.1451920978316705 -0.77377029650771822 5.388404142673199 0.30760304050313103 1.2393612756994035 2.4398665632777021 1.5677794103900513 0.25805229585644585 0.72175143597921554 1.1098666809016973
leaf_weight=1879 203 528 664 107 455 665 872 195 287 209 796 130 502 229 924 211 216 1132 263 191 438 729 65 54 45 365 1001 1251 1346 896
leaf_count=1879 203 528 664 107 455 665 872 195 287 209 796 130 502 229 924 211 216 1132 263 191 438 729 65 54 45 365 1001 1251 1346 896
internal_value=0 1.34949 -1.15824 0.847395 2.97398 -0.624539 -1.93524 3.87873 0.488693 -0.332694 -0.985994 1.38476 -1.6369 2.39677 -0.217786 -0.841557 0.699311 -0.284769 0.261445 1.58182 -1.41727 -0.646951 4.60478 1.13757 0.321455 2.66171 1.65207 0.331111 0.784091 1.06505
internal_weight=0 7782 9066 5945 1837 5375 3691 715 3566 2975 2400 2379 1812 1122 2310 1736 1849 2056 1717 1322 940 940 260 1057 254 594 1192 1514 1562 950
internal_count=16848 7782 9066 5945 1837 5375 3691 715 3566 2975 2400 2379 1812 1122 2310 1736 1849 2056 1717 1322 940 940 260 1057 254 594 1192 1514 1562 950
is_linear=0
shrinkage=0.05


Tree=6
num_leaves=31
num_cat=0
split_feature=4 4 4 4 4 4 4 4 677 4 4 677 4 677 4 4 145 5 5 677 677 192 5 6 6 6 7 677 4 459
split_gain=9.50906e+06 1.89968e+06 1.80332e+06 390877 238484 224701 205386 60677.1 55684 43243.6 38278.9 36908.9 36310.5 35571.5 30160.3 28107.6 23496.9 23415.2 22869.6 22769.3 22460.1 20415.6 20279.6 16801 14638.6 13801 13664.5 13185.1 12403 12064.2
threshold=74.072500000000005 126.03800000000003 37.021000000000008 95.629500000000021 18.942000000000004 162.75450000000004 53.906000000000006 111.91300000000003 0.99250000000000005 83.523500000000013 141.71650000000002 0.85050000000000014 7.6595000000000004 0.86950000000000005 185.17700000000002 65.800500000000014 44.127000000000002 30.254000000000001 50.435500000000012 0.91150000000000009 0.83950000000000002 60.015000000000008 87.772500000000022 109.07400000000001 70.512500000000017 18.278000000000002 72.205000000000013 0.49750000000000005 45.904000000000003 144.32500000000002
decision_type=2 2 2 2 2 2 2 2 2 2 2 2 2 2 2 2 2 2 2 2 2 2 2 2 2 2 2 2 2 2
left_child=2 3 4 9 12 10 13 20 27 24 -3 -6 -1 -4 -7 18 -13 -15 -10 -11 -5 -14 -22 -9 -2 -18 -21 -8 -19 -16
right_child=1 5 6 7 11 14 8 23 15 19 -12 16 21 17 29 -17 25 28 -20 26 22 -23 -24 -25 -26 -27 -28 -29 -30 -31
leaf_value=-2.1718399161819026 0.71032945514789647 2.4141155295751311 -1.0083702500330529 0.58495137198952984 -1.5235862924536805 3.809464445114136 -0.81338338694842582 2.1633026301860809 0.27660495113524208 0.2964349615694532 3.0522732580255889 -1.3528318588663868 -1.9351959863705663 -0.081749053132675942 4.5321897957060076 0.23438893791734927 -0.57935341081836012 -0.80726958012643601 -0.2200327080298993 1.1619179329337062 1.8812902330070416 -1.5013403288839224 1.3099374160315227 1.6796767792086613 0.3569112605527639 -1.0610086875280949 0.80737296992783103 -0.3344778640320929 -0.51316743365542627 5.9612620787187058
leaf_weight=1410 420 528 690 97 784 260 203 324 293 176 457 444 930 210 108 987 253 689 1094 391 186 412 1236 469 1032 396 1019 530 798 22
leaf_count=1410 420 528 690 97 784 260 203 324 293 176 457 444 930 210 108 987 253 689 1094 391 186 412 1236 469 1032 396 1019 530 798 22
internal_value=0 1.45746 -0.968102 1.03122 -1.69517 3.11537 -0.355365 1.52138 -0.0871319 0.657955 2.71096 -1.25953 -1.99203 -0.704193 4.13483 0.0301901 -1.06944 -0.580073 -0.114579 0.839026 1.33459 -1.80256 1.3852 1.87822 0.459656 -0.8744 0.906222 -0.468131 -0.649944 4.7798
internal_weight=0 6725 10123 5350 4629 1375 5494 2312 3107 3038 985 1877 2752 2387 390 2374 1093 1697 1387 1586 1519 1342 1422 793 1452 649 1410 733 1487 130
internal_count=16848 6725 10123 5350 4629 1375 5494 2312 3107 3038 985 1877 2752 2387 390 2374 1093 1697 1387 1586 1519 1342 1422 793 1452 649 1410 733 1487 130
is_linear=0
shrinkage=0.05


Tree=7
num_leaves=31
num_cat=0
split_feature=4 4 4 4 4 4 4 4 677 4 677 4 4 24 24 25 677 6 677 677 6 6 6 4 6 6 677 6 4 4
split_gain=8.58932e+06 2.06998e+06 1.2275e+06 367116 323252 184378 101701 68719.7 45295.7 44213 42026.9 39731.9 37472.7 32872.7 31943.6 27932.1 23898.8 21231.9 17924.5 17041.9 16902.9 15572.9 15480.6 15245.6 15138.8 14926.3 13690.6 13435.8 11381.3 10053.6
threshold=67.150500000000008 114.00650000000002 28.990500000000001 146.89750000000001 89.22450000000002 47.220000000000006 10.381000000000002 172.29650000000004 0.88050000000000017 76.266000000000005 0.73350000000000015 127.52550000000001 99.291000000000011 56.961000000000006 74.608500000000006 59.066500000000005 0.96750000000000014 35.875000000000007 1.0355000000000001 0.83950000000000002 78.830000000000013 52.58400000000001 112.90250000000002 197.39000000000001 106.39450000000001 16.910000000000004 0.53850000000000009 83.176500000000019 57.823000000000008 20.334000000000003
decision_type=2 2 2 2 2 2 2 2 2 2 2 2 2 2 2 2 2 2 2 2 2 2 2 2 2 2 2 2 2 2
left_child=2 4 6 11 9 10 -1 -5 -7 19 -4 24 20 29 28 -12 -11 -16 -14 -2 -6 -18 -13 -9 -3 -17 -15 -20 -10 -8
right_child=1 3 5 7 12 8 13 23 14 16 15 22 18 26 17 25 21 -19 27 -21 -22 -23 -24 -25 -26 -27 -28 -29 -30 -31
leaf_value=-2.0069161323932589 -0.22225855786965232 2.184115574697568 -1.2530739678127123 3.1256466667992733 1.3483832002437417 -0.66531157688318066 -1.7812524810433388 3.9187612846570143 -0.4603743057447397 0.15282129978388548 -0.947871914836111 2.8546935181868704 0.76354788526767448 -1.6711734544399175 0.498782643980483 -0.12963666620727798 1.122412453421529 -0.093954391756123634 1.8244667973389497 0.26791463899960888 0.86922394715471851 0.59035647376443656 2.2431319119501438 4.8725872894433833 1.6776734427522553 -0.66184474608593891 -1.0832112799587614 1.3441907784775229 -0.18288844006028282 -1.4678600095205026
leaf_weight=1879 207 233 619 455 238 684 640 195 851 300 967 152 119 129 198 176 156 634 185 1180 951 1459 442 65 494 572 542 951 674 501
leaf_count=1879 207 233 619 455 238 684 640 195 851 300 967 152 119 129 198 176 156 634 185 1180 951 1459 442 65 494 572 542 951 674 501
internal_value=0 1.21861 -1.04587 2.5887 0.733017 -0.563547 -1.74806 3.50286 -0.306618 0.410026 -0.89798 2.09334 1.16909 -1.47921 -0.202208 -0.769378 0.565939 0.0462042 1.36113 0.194219 0.965767 0.642215 2.40089 4.1601 1.84102 -0.537622 -1.19736 1.42306 -0.338226 -1.6443
internal_weight=0 7782 9066 2036 5746 5375 3691 715 3041 3302 2334 1321 2444 1812 2357 1715 1915 832 1255 1387 1189 1615 594 260 727 748 671 1136 1525 1141
internal_count=16848 7782 9066 2036 5746 5375 3691 715 3041 3302 2334 1321 2444 1812 2357 1715 1915 832 1255 1387 1189 1615 594 260 727 748 671 1136 1525 1141
is_linear=0
shrinkage=0.05


Tree=8
num_leaves=31
num_cat=0
split_feature=4 4 4 4 4 4 4 4 4 24 677 4 4 677 121 6 25 677 6 677 4 6 7 3 4 677 5 6 677 7
split_gain=7.75267e+06 1.8704e+06 1.10779e+06 337378 283718 167019 91775.3 60632.5 50441.1 46351.6 35035.4 34514.3 31988.6 27109.1 26855.7 23520.1 23010.4 21469.1 20018.1 19430.8 15714.6 14694.2 14600.6 14336.6 13803.8 13307.6 12970.5 12403.5 11657.3 11210.9
threshold=67.150500000000008 116.94350000000001 28.990500000000001 91.334500000000006 158.55150000000003 45.522500000000008 12.638500000000002 134.91050000000004 78.830000000000013 76.650500000000008 0.71250000000000002 104.82250000000001 185.17700000000002 0.53850000000000009 52.625000000000007 37.021000000000008 59.066500000000005 0.96750000000000014 88.209500000000006 0.6755000000000001 56.148500000000006 114.00650000000002 46.32200000000001 16.500000000000004 6.4270000000000005 0.52850000000000008 105.60800000000002 9.3310000000000013 1.5155000000000001 51.27450000000001
decision_type=2 2 2 2 2 2 2 2 2 2 2 2 2 2 2 2 2 2 2 2 2 2 2 2 2 2 2 2 2 2
left_child=2 3 6 8 7 10 24 23 19 13 -4 18 -6 -7 -8 -11 -12 -10 -5 -2 -15 -9 -21 -3 -1 -16 -13 -18 -20 -19
right_child=1 4 5 11 12 9 14 21 17 15 16 26 -14 20 25 -17 27 29 28 22 -22 -23 -24 -25 -26 -27 -28 -29 -30 -31
leaf_value=-1.9964271307618444 -0.28636557193325335 2.0697931117089778 -1.2380537757955825 1.3150902093781367 3.362159507751465 -0.9236205576214136 -1.5480430874905804 3.1137063505338585 0.19059241156913898 0.42039288033857913 -0.9364180554882382 1.6889151632058912 4.3213166861350727 -0.50617078137264204 -1.5296229688427116 -0.16025947381421371 0.050273419958294221 1.0317026956832689 0.5975508075684679 0.60832119996991618 -0.22914730427732619 2.4514409481522286 0.21232862078965242 1.6092375919150941 -1.7322937474320641 -0.99073548279001877 1.2848132938446113 -0.61921914802961575 1.005082377799227 0.62521854169847257
leaf_weight=1141 164 507 536 450 325 255 880 115 268 228 865 328 130 1092 158 740 76 203 242 286 990 475 1333 285 1007 505 597 593 762 1312
leaf_count=1141 164 507 536 450 325 255 880 115 268 228 865 328 130 1092 158 740 76 203 242 286 990 475 1333 285 1007 505 597 593 762 1312
internal_value=0 1.15775 -0.993625 0.726681 2.5524 -0.535411 -1.66069 2.19449 0.418705 -0.314481 -0.88779 1.18801 3.63785 -0.43501 -1.36473 -0.0227195 -0.764914 0.607011 1.03423 0.229978 -0.374805 2.5818 0.282745 1.90501 -1.87295 -1.12029 1.42892 -0.542042 0.9076 0.68018
internal_weight=0 7782 9066 5945 1837 5375 3691 1382 3566 3305 2070 2379 455 2337 1543 968 1534 1783 1454 1783 2082 590 1619 792 2148 663 925 669 1004 1515
internal_count=16848 7782 9066 5945 1837 5375 3691 1382 3566 3305 2070 2379 455 2337 1543 968 1534 1783 1454 1783 2082 590 1619 792 2148 663 925 669 1004 1515
is_linear=0
shrinkage=0.05


Tree=9
num_leaves=31
num_cat=0
split_feature=4 4 4 4 4 4 4 677 677 4 4 4 6 4 4 24 677 121 677 24 5 677 6 3 8 5 5 5 5 6
split_gain=7.00206e+06 1.42069e+06 1.31334e+06 251752 205232 175123 146958 36681.4 36312.5 35104.7 32343.2 31178.4 30629 28766 26806.1 19154.3 18934.7 17159.4 16762.9 16430.7 16129.2 15535.4 12954.6 12562 12098.9 11847.2 11556.1 11351.1 11246.8 11119.8
threshold=73.659500000000023 121.99000000000002 37.021000000000008 95.047500000000028 158.55150000000003 18.942000000000004 57.823000000000008 1.0805000000000002 1.0155000000000001 139.02700000000002 83.523500000000013 111.91300000000003 14.639000000000001 185.17700000000002 7.6595000000000004 67.928000000000011 0.83950000000000002 50.948500000000003 0.91150000000000009 70.086000000000013 87.772500000000022 1.1235000000000002 70.512500000000017 15.500000000000002 124.67800000000001 56.148500000000006 77.567000000000021 111.91300000000003 33.231000000000002 21.878500000000003
decision_type=2 2 2 2 2 2 2 2 2 2 2 2 2 2 2 2 2 2 2 2 2 2 2 2 2 2 2 2 2 2
left_child=2 3 5 10 9 14 7 29 -8 24 22 16 -7 -6 -1 -9 -5 -16 -12 -10 -18 -14 -2 -11 -3 -21 -20 -13 -17 -4
right_child=1 4 6 11 13 12 8 15 19 23 18 27 21 -15 17 28 20 -19 26 25 -22 -23 -24 -25 -26 -27 -28 -29 -30 -31
leaf_value=-1.865600320836331 0.61325393988294685 2.1239246312528848 -0.10027697917724412 0.46108740513572599 3.1940515213012697 -0.64609677281164368 -0.3688262774501827 -0.52802952792543667 -0.050367672963373439 2.803273658670931 0.24099419897633367 1.8473296883791814 -1.3073194558104388 4.1052509071276742 -1.685017616746028 0.17970415216207114 1.6074623607844114 -1.3029180792926514 1.1268369916337775 0.5412890174165369 1.1142782913907956 -0.97444519229766335 0.28910938763878374 2.2486505523856199 1.6594687741799434 0.13118503230760156 0.70851542018549152 1.3817753085609299 -0.30080903291593863 -0.79706886304579472
leaf_weight=1410 443 416 63 101 325 337 556 1160 951 234 172 233 939 130 857 153 200 485 202 250 1285 601 1075 224 244 622 1145 362 567 1106
leaf_count=1410 443 416 63 101 325 337 556 1160 951 234 172 233 939 130 857 153 200 485 202 250 1285 601 1075 224 244 622 1145 362 567 1106
internal_value=0 1.24053 -0.837518 0.84325 2.55793 -1.45629 -0.309691 -0.539506 -0.0148372 2.19175 0.548497 1.25334 -1.08282 3.45604 -1.71075 -0.401903 1.13582 -1.54749 0.712194 0.0927151 1.18121 -1.1779 0.384199 2.53365 1.95335 0.249621 0.771805 1.56535 -0.197658 -0.760159
internal_weight=0 6791 10057 5218 1573 4629 5428 3049 2379 1118 3037 2181 1877 455 2752 1880 1586 1342 1519 1823 1485 1540 1518 458 660 872 1347 595 720 1169
internal_count=16848 6791 10057 5218 1573 4629 5428 3049 2379 1118 3037 2181 1877 455 2752 1880 1586 1342 1519 1823 1485 1540 1518 458 660 872 1347 595 720 1169
is_linear=0
shrinkage=0.05


Tree=10
num_leaves=31
num_cat=0
split_feature=4 4 4 4 4 4 4 4 6 4 677 677 4 25 677 4 217 677 6 4 677 25 4 7 6 7 6 677 23 677
split_gain=6.32768e+06 1.52317e+06 903627 272965 239176 138457 74822.7 51575.4 34851 32730 32374.9 32079.2 29560.6 27302.6 26691.2 20144.9 19522.1 16882.6 15486.1 15135.1 14670.4 14245.1 14075.7 14000.8 12777 12719.2 12127.4 11415.7 10592.7 9028.93
threshold=67.150500000000008 114.00650000000002 28.990500000000001 146.89750000000001 88.209500000000006 47.685000000000009 10.381000000000002 167.42400000000001 34.674500000000002 98.771000000000015 0.93250000000000022 1.2005000000000001 126.03800000000003 41.688500000000012 1.1455000000000002 77.567000000000021 51.348500000000008 0.8175 88.209500000000006 197.39000000000001 0.68450000000000022 95.049500000000009 56.942000000000007 86.843000000000004 111.91300000000003 102.90650000000001 17.646500000000003 0.48650000000000004 119.41800000000002 0.72250000000000003
decision_type=2 2 2 2 2 2 2 2 2 2 2 2 2 2 2 2 2 2 2 2 2 2 2 2 2 2 2 2 2 2
left_child=2 4 6 12 11 10 -1 -5 21 18 -4 28 25 -8 27 -13 -12 -11 -6 -9 -15 -7 -16 -19 -14 -3 -18 -10 -2 -20
right_child=1 3 5 7 9 8 13 19 14 17 16 15 24 20 22 -17 26 23 29 -21 -22 -23 -24 -25 -26 -27 -28 -29 -30 -31
leaf_value=-1.722323008907038 0.0107855854182419 1.8329133464002063 -1.0064174312827034 2.6143120030256419 1.023745432025309 0.029277537417198931 -1.4617962007116512 3.2976540407767665 -0.88113709751050928 0.42868094243012467 -0.82473772728275618 0.27751333710475595 2.4320267200469972 -1.3848098118110261 -0.36021961856613482 0.5699333773967874 -0.10733952120506239 1.4772260098067742 0.056131640722354249 4.2076295412503759 -0.93155461474953649 0.77962645716601764 -0.066611629550349313 1.0972562507391985 1.9002632658710383 1.3680817717388274 -0.56478705266968654 -0.44304829232689613 0.77875603108356406 0.70898509861754144
leaf_weight=1879 733 261 893 390 493 287 924 260 192 77 676 1152 165 266 747 1237 193 358 60 65 622 82 917 886 495 400 638 750 48 702
leaf_count=1879 733 261 893 390 493 287 924 260 192 77 676 1152 165 266 747 1237 193 358 60 65 622 82 917 886 495 400 638 750 48 702
internal_value=0 1.04598 -0.897649 2.22127 0.629402 -0.483787 -1.50013 3.00974 -0.255479 0.987405 -0.766481 0.338246 1.79393 -1.26931 -0.319985 0.429239 -0.623804 1.1624 0.802615 3.48196 -1.06817 0.198054 -0.198868 1.20721 2.03434 1.55276 -0.459447 -0.533136 0.0589451 0.658564
internal_weight=0 7782 9066 2036 5746 5375 3691 715 2975 2576 2400 3170 1321 1812 2606 2389 1507 1321 1255 325 888 369 1664 1244 660 661 831 942 781 762
internal_count=16848 7782 9066 2036 5746 5375 3691 715 2975 2576 2400 3170 1321 1812 2606 2389 1507 1321 1255 325 888 369 1664 1244 660 661 831 942 781 762
is_linear=0
shrinkage=0.05


Tree=11
num_leaves=31
num_cat=0
split_feature=4 4 4 4 4 4 4 4 677 677 49 8 677 4 4 677 192 4 6 6 676 6 3 3 3 6 411 676 24 677
split_gain=5.7132e+06 1.24504e+06 968533 209506 198633 136822 102148 40984.5 30353.1 30172.2 26375.4 24518.6 24387.6 23667.3 23324 22744.3 20884.1 19587.4 18683 14375.1 14143.1 12382.1 12082.2 12346.7 11780.9 11754.6 10756.7 10678.5 9484.55 9428.52
threshold=70.82650000000001 117.96550000000001 36.494500000000009 92.987000000000009 158.55150000000003 18.942000000000004 53.045500000000004 133.08200000000002 0.83950000000000002 0.83950000000000002 54.706500000000013 68.474000000000004 0.93250000000000022 185.17700000000002 83.523500000000013 0.75450000000000006 68.488000000000014 104.82250000000001 34.674500000000002 18.278000000000002 13.082000000000003 35.875000000000007 14.500000000000002 9.5000000000000018 16.500000000000004 44.554000000000009 146.89750000000001 25.094500000000004 58.305500000000002 1.5365000000000002
decision_type=2 2 2 2 2 2 2 2 2 2 2 2 2 2 2 2 2 2 2 2 2 2 2 2 2 2 2 2 2 2
left_child=2 3 5 9 7 12 15 24 -8 -2 -7 27 28 -6 25 -4 -10 29 -17 -12 -14 -18 23 -9 -3 -11 -15 -5 -1 -13
right_child=1 4 6 11 13 10 8 22 16 14 19 17 20 26 -16 18 21 -19 -20 -21 -22 -23 -24 -25 -26 -27 -28 -29 -30 -31
leaf_value=-1.6797885034101601 0.0017987047264044526 1.7892368240789935 -0.84543243631305887 1.1873002359776172 2.8831330460768481 -1.1527447328397673 -0.46817129389680923 1.9213873041087184 -0.18174654752783728 0.80723316778029719 -0.43976377654592602 0.5334764310240484 -1.3874678062405765 3.4627770196823846 0.66097807130133235 -0.21028554553062767 0.48704802998151459 1.1640851343485616 -0.57700208216240267 -0.90910294152567772 -0.78074856199897258 0.042069604629589398 1.9915885897801524 2.6790724404652915 1.3331190556291614 0.32414081902484398 4.7305888290405269 1.691999934182141 -1.4069319289963262 0.90922168667133973
leaf_weight=1725 369 418 557 295 325 1027 500 87 1195 140 245 228 456 105 1131 487 191 775 1278 538 130 890 374 195 242 1530 25 183 441 766
leaf_count=1725 369 418 557 295 325 1027 500 87 1195 140 245 228 456 105 1131 487 191 775 1278 538 130 890 374 195 242 1530 25 183 441 766
internal_value=0 1.0675 -0.794126 0.691034 2.21856 -1.32343 -0.320327 1.90574 -0.115293 0.428842 -0.984645 1.06059 -1.54598 3.1217 0.484832 -0.565126 -0.0374424 0.973297 -0.476242 -0.763205 -1.25415 0.121386 2.18892 2.44798 1.62313 0.365089 3.71236 1.38209 -1.62458 0.823789
internal_weight=0 7188 9660 5417 1771 4562 5098 1316 2776 3170 1810 2247 2752 455 2801 2322 2276 1769 1765 783 586 1081 656 282 660 1670 130 478 2166 994
internal_count=16848 7188 9660 5417 1771 4562 5098 1316 2776 3170 1810 2247 2752 455 2801 2322 2276 1769 1765 783 586 1081 656 282 660 1670 130 478 2166 994
is_linear=0
shrinkage=0.05


Tree=12
num_leaves=31
num_cat=0
split_feature=4 4 4 4 4 4 4 4 24 677 677 4 677 4 677 169 7 72 4 8 538 6 677 6 6 23 676 5 677 3
split_gain=5.16416e+06 1.27148e+06 709533 245835 185270 106857 61789.3 48701 32925.8 25380.8 25264 24604.3 24089.6 22568.7 19414.3 18404.2 18376.3 18096.8 16495.8 15383.8 13119 12328.4 11988.4 11951.2 11597.6 10903.3 10499.6 9907.37 9885.28 9193.96
threshold=66.226500000000016 111.91300000000003 28.990500000000001 144.28050000000005 87.306500000000014 45.522500000000008 10.381000000000002 167.42400000000001 76.650500000000008 1.2005000000000001 0.71250000000000002 96.773500000000027 0.63650000000000018 126.03800000000003 0.51650000000000007 43.166000000000004 20.334000000000003 50.105500000000006 77.567000000000021 79.608000000000018 46.779000000000003 16.118000000000006 1.1555000000000002 91.334500000000006 109.07400000000001 119.41800000000002 24.993500000000001 120.51400000000002 0.7985000000000001 15.500000000000002
decision_type=2 2 2 2 2 2 2 2 2 2 2 2 2 2 2 2 2 2 2 2 2 2 2 2 2 2 2 2 2 2
left_child=2 4 6 13 9 10 -1 -5 14 25 -4 23 -8 24 -7 -12 -10 -14 29 26 -9 -17 -21 -6 -3 -2 -13 -15 -29 -11
right_child=1 3 5 7 11 8 12 20 16 18 15 19 17 27 -16 21 -18 -19 -20 22 -22 -23 -24 -25 -26 -27 -28 28 -30 -31
leaf_value=-1.5569500812607411 -0.0086626377060346951 1.619774634896973 -1.027059094794442 2.3332543040053886 0.84710139048679567 -0.80765208751611084 -1.3927309152677403 3.8448072371944306 0.51861390001582408 0.33813835686443761 -0.85476548115983475 1.0777389503688928 -1.2158618228479874 2.2075754649937154 -0.32005282824618236 -0.12031777450534445 -0.10869075115403254 -0.81479512974742208 0.5050485759629324 0.45737355707398231 2.9800769907440072 -0.57831705856874227 0.96558391442188629 0.52464178022198238 1.2171239999565744 0.75331318829208616 1.6511623584307156 0.59685323861512274 1.7368003502622384 0.05006380349935368
leaf_weight=1879 743 324 536 456 596 230 647 62 137 817 561 251 556 128 2019 186 787 609 1131 141 263 787 865 593 469 50 130 22 444 429
leaf_count=1879 743 324 536 456 596 230 647 62 137 817 561 251 556 128 2019 186 787 609 1131 141 263 787 865 593 469 50 130 22 444 429
internal_value=0 0.930203 -0.82377 1.9621 0.540732 -0.449691 -1.35494 2.67299 -0.266998 0.28444 -0.729368 0.85583 -1.14505 1.56127 -0.370252 -0.624862 -0.0148696 -1.00685 0.366195 1.0001 3.14735 -0.491536 0.895099 0.686909 1.38258 0.0384355 1.27536 1.79855 1.68459 0.239556
internal_weight=0 7914 8934 2168 5746 5243 3691 781 3173 3170 2070 2576 1812 1387 2249 1534 924 1165 2377 1387 325 973 1006 1189 793 793 381 594 466 1246
internal_count=16848 7914 8934 2168 5746 5243 3691 781 3173 3170 2070 2576 1812 1387 2249 1534 924 1165 2377 1387 325 973 1006 1189 793 793 381 594 466 1246
is_linear=0
shrinkage=0.05


Tree=13
num_leaves=31
num_cat=0
split_feature=4 4 4 4 4 4 4 4 677 5 677 677 624 25 4 4 677 6 677 4 23 7 5 5 6 24 5 9 3 676
split_gain=4.66208e+06 1.122e+06 666870 221805 158338 97815.7 65497.5 44001.4 24753.4 24652.1 23204.9 22864.5 22160.5 21699.9 21209.9 20332.2 19803.7 16196.4 15463.2 14390.9 12731.4 12262.1 11608.8 11530.2 11021.1 10989 10849.1 9810.17 9366.61 8965.67
threshold=67.150500000000008 111.91300000000003 34.674500000000002 144.28050000000005 87.306500000000014 15.270000000000001 51.272000000000013 172.29650000000004 0.52850000000000008 40.680500000000002 0.83950000000000002 0.8175 46.755000000000003 56.176500000000011 98.771000000000015 126.03800000000003 0.99250000000000005 43.052000000000007 1.1665000000000003 76.693500000000014 167.42400000000001 39.111000000000011 17.646500000000003 79.143500000000017 93.520500000000013 116.94350000000001 106.39450000000001 91.813000000000017 16.500000000000004 15.519500000000003
decision_type=2 2 2 2 2 2 2 2 2 2 2 2 2 2 2 2 2 2 2 2 2 2 2 2 2 2 2 2 2 2
left_child=2 4 5 15 10 18 13 27 -7 25 -2 -6 -10 -4 23 26 -11 -12 -1 -19 -9 -15 -14 -13 -16 -8 -3 -5 -17 -20
right_child=1 3 6 7 11 8 9 20 12 16 17 14 22 21 24 28 -18 19 29 -21 -22 -23 -24 -25 -26 -27 -28 -29 -30 -31
leaf_value=-1.4733669262215641 -0.073133773126284093 1.7011493714394108 -0.68849964547522513 2.5901286937422672 0.26192522825589976 -1.2817301515481445 0.16210972756954534 2.9139752346631056 -1.0755292312039944 -0.47148399005161984 0.74256114104563109 1.1334980958260148 -0.4189832283766009 -0.15487188932788443 1.2524369346110571 1.8696244212736017 -0.13450337837240475 0.16172461744680722 -1.1657269077795047 0.40825660727120638 3.9412563905483342 -0.51837260388595574 -0.81561397914093059 0.65698330751780809 0.90488982443009602 1.0949454936312468 1.2181474576175775 2.1012857905827289 1.4377449799813498 -0.2519716421085777
leaf_weight=2161 401 155 1275 177 179 445 150 219 645 597 224 149 288 394 351 371 1658 1108 222 1305 41 590 567 1131 766 41 638 344 223 33
leaf_count=2161 401 155 1275 177 179 445 150 219 645 597 224 149 288 394 351 371 1658 1108 222 1305 41 590 567 1131 766 41 638 344 223 33
internal_value=0 0.897867 -0.770459 1.86411 0.52459 -1.21595 -0.357379 2.53943 -0.950877 -0.177646 0.279698 0.813111 -0.852224 -0.551658 0.853959 1.48331 -0.22405 0.333636 -1.42904 0.295365 3.07885 -0.373587 -0.682889 0.713039 1.01477 0.366279 1.3135 2.2688 1.70875 -1.05042
internal_weight=0 7782 9066 2168 5614 4361 4705 781 1945 2446 3038 2576 1500 2259 2397 1387 2255 2637 2416 2413 260 984 855 1280 1117 191 793 521 594 255
internal_count=16848 7782 9066 2168 5614 4361 4705 781 1945 2446 3038 2576 1500 2259 2397 1387 2255 2637 2416 2413 260 984 855 1280 1117 191 793 521 594 255
is_linear=0
shrinkage=0.05


Tree=14
num_leaves=31
num_cat=0
split_feature=4 4 4 4 4 4 4 4 6 49 24 25 677 3 677 677 677 4 6 31 25 4 3 4 5 677 5 677 23 677
split_gain=4.21205e+06 843022 811999 146031 132968 125134 72308.7 26912.7 26396.7 24175.6 23641 23622.8 23495.4 17718.2 17363.4 14827 14762.5 14579.7 13637.7 13453.6 13264.9 13168 12620 12489.1 12343.1 10511.3 10253.9 11713.2 9536.38 9118.6
threshold=74.072500000000005 121.99000000000002 40.136500000000005 93.520500000000013 20.334000000000003 162.75450000000004 58.659500000000001 141.71650000000002 35.875000000000007 60.609000000000002 58.305500000000002 102.11450000000001 0.68450000000000022 15.500000000000002 0.77650000000000008 0.48650000000000004 0.82750000000000001 197.39000000000001 47.685000000000009 84.428000000000011 87.758000000000024 81.70650000000002 7.5000000000000009 104.21850000000002 27.092000000000002 0.70550000000000013 116.94350000000001 0.96750000000000014 87.282000000000025 1.2925000000000002
decision_type=2 2 2 2 2 2 2 2 2 2 2 2 2 2 2 2 2 2 2 2 2 2 2 2 2 2 2 2 2 2
left_child=2 3 4 14 10 7 8 26 20 29 -1 16 -8 22 -2 -10 -5 -7 -16 -13 -4 -20 -14 -18 -11 -12 -3 -28 -9 -6
right_child=1 5 6 11 9 17 12 28 15 24 25 19 13 -15 18 -17 23 -19 21 -21 -22 -23 -24 -25 -26 -27 27 -29 -30 -31
leaf_value=-1.3992350365419979 0.012053114353832472 1.9361208881157035 -0.19284148498884168 0.29521815456816408 -1.0236442341742402 2.6171666118915269 -0.42797753380904924 1.7288561915854612 -0.8249071396214247 -0.32114330793959123 -1.2691311372432881 1.4165170574205972 -0.034731684115660542 -0.14030201031773568 0.88254311927727302 -0.40334578528209231 0.72964616498531787 3.4828493851881763 0.28098341356402445 0.99338927431652957 0.39450283519557267 0.52278264090963 0.28373835325366398 1.0302366350736611 -0.72923514653690336 -0.87094069824546494 0.56740912688084133 1.4965601712248149 2.2252787855342837 -0.73750945777036592
leaf_weight=2181 249 138 447 122 883 325 273 180 238 302 334 336 476 687 175 1972 734 65 997 480 122 1352 877 707 516 371 39 549 277 444
leaf_count=2181 249 138 447 122 883 325 273 180 238 302 334 336 476 687 175 1972 734 65 997 480 122 1352 877 707 516 371 39 549 277 444
internal_value=0 0.97009 -0.644232 0.660543 -1.09478 1.98346 -0.198933 1.72572 -0.370834 -0.795736 -1.31678 0.948184 0.00727666 0.0658916 0.413501 -0.449084 0.832664 2.76337 0.452808 1.16854 -0.0655902 0.420474 0.171143 0.877646 -0.579487 -1.06065 1.53227 1.43621 2.03139 -0.928472
internal_weight=0 6725 10123 5152 5031 1573 5092 1183 2779 2145 2886 2379 2313 2040 2773 2210 1563 390 2524 816 569 2349 1353 1441 818 705 726 588 457 1327
internal_count=16848 6725 10123 5152 5031 1573 5092 1183 2779 2145 2886 2379 2313 2040 2773 2210 1563 390 2524 816 569 2349 1353 1441 818 705 726 588 457 1327
is_linear=0
shrinkage=0.05


Tree=15
num_leaves=31
num_cat=0
split_feature=4 4 4 4 4 4 677 4 24 4 5 3 3 25 5 676 677 4 677 5 677 31 677 70 6 3 24 48 4 677
split_gain=3.80597e+06 937324 524709 180405 135239 87407.5 42477.2 32421.6 30837.8 20799.6 20408.8 20302.7 24201.4 18996.2 18331.9 17445.3 16226.4 13151.8 12248.2 11224.5 11026.2 10953.5 9861.7 9690.22 9504.25 8984.8 8514.82 8301.35 8300.56 8121.5
threshold=66.226500000000016 111.91300000000003 27.898000000000003 146.89750000000001 87.306500000000014 43.052000000000007 0.90050000000000019 177.93850000000003 70.799000000000021 127.52550000000001 37.529500000000006 15.500000000000002 7.5000000000000009 94.545000000000016 27.898000000000003 13.533500000000002 1.3025000000000002 9.6485000000000021 0.8175 131.22600000000003 1.4495000000000002 84.428000000000011 0.71250000000000002 130.84150000000002 109.07400000000001 7.5000000000000009 87.282000000000025 43.199000000000005 58.273000000000003 0.7985000000000001
decision_type=2 2 2 2 2 2 2 2 2 2 2 2 2 2 2 2 2 2 2 2 2 2 2 2 2 2 2 2 2 2
left_child=2 4 6 9 11 14 17 26 16 24 -10 12 -2 18 25 27 -7 -1 -6 -11 -13 -15 -16 -9 -3 -4 -5 -8 -12 -21
right_child=1 3 5 7 13 8 15 23 10 19 28 20 -14 21 22 -17 -18 -19 -20 29 -22 -23 -24 -25 -26 -27 -28 -29 -30 -31
leaf_value=-1.3886178675681071 0.13244861881740344 1.4147830384093174 -0.74603776057397042 1.7709452070973137 0.18409270247163839 -0.49103811145926723 -1.1772231685131362 2.749557897500825 0.43660126537005745 1.8794092440188714 -0.25896522445927561 -0.10338137469747488 0.49078371119432573 1.1236839719992082 -0.95819645126505104 -0.51547857266911767 -0.22483789156395867 -1.1495351943255736 0.67143828453496102 0.43347292867573828 0.20531030475872281 0.76902804957798032 -0.66789212920620011 3.9146294196446743 1.0620178572151644 -0.23021331519121305 2.2567992611625169 -0.84623070579925275 0.031038969084110163 1.4749264499666741
leaf_weight=1478 805 340 121 143 146 1118 418 171 189 229 553 476 1160 383 439 229 1205 1036 1480 22 729 567 1010 24 519 304 377 396 438 343
leaf_count=1478 805 340 121 143 146 1118 418 171 189 229 553 476 1160 383 439 229 1205 1036 1480 22 729 567 1010 24 519 304 377 396 438 343
internal_value=0 0.798601 -0.707159 1.6846 0.464176 -0.395291 -1.17839 2.33627 -0.247504 1.36341 -0.0386399 0.245155 0.344367 0.733411 -0.671144 -0.9077 -0.353276 -1.29039 0.62814 1.59482 0.0827483 0.9128 -0.756363 2.8968 1.20252 -0.378836 2.12463 -1.01712 -0.130033 1.41421
internal_weight=0 7914 8934 2168 5746 5377 3557 715 3503 1453 1180 3170 1965 2576 1874 1043 2323 2514 1626 594 1205 950 1449 195 859 425 520 814 991 365
internal_count=16848 7914 8934 2168 5746 5377 3557 715 3503 1453 1180 3170 1965 2576 1874 1043 2323 2514 1626 594 1205 950 1449 195 859 425 520 814 991 365
is_linear=0
shrinkage=0.05


Tree=16
num_leaves=31
num_cat=0
split_feature=4 4 4 4 4 4 4 6 4 677 49 24 24 4 288 539 5 677 677 457 31 7 25 3 6 677 5 677 4 5
split_gain=3.44167e+06 695506 649451 123969 103015 101898 61530.5 22548.8 21840.5 21660.8 21611.9 18619.7 17786.5 17639.9 15472 12521.9 12183.1 11946 11764.3 11741.1 11629.3 11237.3 11206.7 10171.7 9293.44 8443.79 8355 9062.9 8079.62 7209.76
threshold=73.659500000000023 121.99000000000002 39.111000000000011 96.223000000000013 162.75450000000004 19.654500000000002 57.823000000000008 35.875000000000007 139.02700000000002 0.68450000000000022 54.706500000000013 57.401727272727278 108.43550000000002 83.523500000000013 64.247500000000016 46.779000000000003 27.092000000000002 0.82750000000000001 1.2235000000000003 139.15100000000004 85.77300000000001 83.191000000000017 87.758000000000024 15.500000000000002 70.512500000000017 0.68450000000000022 107.16350000000001 0.96750000000000014 107.75350000000002 56.148500000000006
decision_type=2 2 2 2 2 2 2 2 2 2 2 2 2 2 2 2 2 2 2 2 2 2 2 2 2 2 2 2 2 2
left_child=2 3 5 13 8 11 7 22 26 -8 -7 -1 17 24 -11 19 -12 -5 -9 -6 -14 -15 -4 -10 -2 -13 -3 -28 -19 -16
right_child=1 4 6 12 15 10 9 18 23 14 16 25 20 21 29 -17 -18 28 -20 -21 -22 -23 -24 -25 -26 -27 27 -29 -30 -31
leaf_value=-1.271108292393369 0.46525244852675141 2.0336983467670198 -0.19032668523336893 0.29743357974304158 2.6758328885917209 -0.87866242993428989 -0.41852352148590904 -0.5502349941349437 2.024802293435342 -0.097010592608499882 -0.3258454469803681 -1.1564677355480981 1.3970114777092879 0.66818671438817379 0.38666643885980279 2.3132780406163351 -0.70076464503458857 0.73712894628807235 -0.31620691021499991 4.0237630923589078 0.92119701891427952 0.39913893478789503 0.34921515376791978 1.5605652412689066 0.19074394978591525 -0.79790786562984528 0.55918161080377859 1.361380920689423 0.98845860898544979 0.096730636070776838
leaf_weight=2115 443 47 461 112 83 1152 284 1052 272 985 372 333 253 672 297 283 554 796 1147 24 294 980 121 251 1075 371 41 572 593 813
leaf_count=2115 443 47 461 112 83 1152 284 1052 272 985 372 333 253 672 297 283 554 796 1147 24 294 980 121 251 1075 371 41 572 593 813
internal_value=0 0.869802 -0.587092 0.591766 1.79163 -0.999577 -0.195486 -0.355186 1.55762 -0.00848431 -0.732992 -1.19582 0.895263 0.395452 0.046743 2.49954 -0.550959 0.804612 -0.428507 2.98518 1.14264 0.509036 -0.0768652 1.80344 0.271348 -0.968576 1.3617 1.30895 0.844968 0.174984
internal_weight=0 6791 10057 5218 1573 4897 5160 2781 1183 2379 2078 2819 2048 3170 2095 390 926 1501 2199 107 547 1652 582 523 1518 704 660 613 1389 1110
internal_count=16848 6791 10057 5218 1573 4897 5160 2781 1183 2379 2078 2819 2048 3170 2095 390 926 1501 2199 107 547 1652 582 523 1518 704 660 613 1389 1110
is_linear=0
shrinkage=0.05


Tree=17
num_leaves=31
num_cat=0
split_feature=4 4 4 4 4 4 4 677 6 49 24 8 4 677 5 4 677 4 4 54 676 5 4 676 7 5 5 677 5 677
split_gain=3.10701e+06 620412 597038 114839 98659.5 87383.1 53687.1 25993.3 20265.9 19037.1 18265.8 17913.4 17379 15975.7 13787.3 13611.5 12970.3 12739.3 11735.5 10286.9 10026.2 9315.91 9118.27 9041.83 8398.64 8278.52 8150.38 8066.92 7915.8 8834.1
threshold=74.072500000000005 123.17300000000002 40.136500000000005 96.223000000000013 20.334000000000003 162.75450000000004 62.699000000000005 0.48650000000000004 21.878500000000003 60.609000000000002 57.401727272727278 75.76900000000002 141.71650000000002 0.77650000000000008 63.624000000000009 84.943500000000014 1.6505000000000003 51.722500000000004 197.39000000000001 48.296000000000006 25.094500000000004 58.273000000000003 108.43550000000002 16.390000000000004 27.898000000000003 146.89750000000001 52.138000000000012 0.58250000000000013 116.94350000000001 0.96750000000000014
decision_type=2 2 2 2 2 2 2 2 2 2 2 2 2 2 2 2 2 2 2 2 2 2 2 2 2 2 2 2 2 2
left_child=2 3 4 13 10 12 7 -4 23 -6 -1 20 28 -2 -8 21 -13 -10 -7 -11 -5 -15 -18 -9 -17 -14 -19 -12 -3 -30
right_child=1 5 6 11 9 18 14 8 17 19 27 16 25 15 -16 24 22 26 -20 -21 -22 -23 -24 -25 -26 -27 -28 -29 29 -31
leaf_value=-1.2050366304828626 0.0067363205552101145 1.7299113236961112 -0.73446749285763546 0.92929700175498398 -0.79974567684469178 2.2429455919632546 0.27629412158626127 -0.04124858372322307 -0.39741773306266109 -0.25928208133313579 -1.1390885016698948 0.52446066740246977 1.9970653969049454 0.85455660729816096 -0.034749591150669265 1.0959823123766828 0.73194624420086096 0.015990483223142393 3.022287827730179 -0.62971975894046028 1.3826909015760867 0.28068389546128758 1.0224052841928797 0.57013278931696365 0.50243361283496835 1.5418263489170299 -0.25014244462395363 -0.78047585027796929 0.43334751146681172 1.3001081955305085
leaf_weight=2158 265 113 298 329 1327 325 502 164 1308 311 261 407 200 76 1217 65 660 379 65 507 215 1417 503 94 1281 257 1130 467 34 513
leaf_count=2158 265 113 298 329 1327 325 502 164 1308 311 261 407 200 76 1217 65 660 379 65 507 215 1417 503 94 1281 257 1130 467 34 513
internal_value=0 0.833217 -0.553268 0.574913 -0.939609 1.7271 -0.171408 -0.287346 -0.243771 -0.681896 -1.13089 0.859426 1.5003 0.380901 0.0556483 0.415562 0.772172 -0.28272 2.37476 -0.489798 1.10987 0.310399 0.858215 0.178596 0.531654 1.7427 -0.182804 -0.910075 1.33132 1.2476
internal_weight=0 6725 10123 5218 5031 1507 5092 3373 3075 2145 2886 2114 1117 3104 1719 2839 1570 2817 390 818 544 1493 1163 258 1346 457 1509 728 660 547
internal_count=16848 6725 10123 5218 5031 1507 5092 3373 3075 2145 2886 2114 1117 3104 1719 2839 1570 2817 390 818 544 1493 1163 258 1346 457 1509 728 660 547
is_linear=0
shrinkage=0.05


Tree=18
num_leaves=31
num_cat=0
split_feature=4 4 4 4 4 4 4 4 4 121 7 677 7 168 241 677 677 4 677 24 4 5 5 678 22 459 368 678 7 72
split_gain=2.80777e+06 677224 403224 122168 104707 56723.3 43192.1 22941.7 22460 21980.3 20298.3 17743.9 16726.5 13198.8 13180.9 12605.3 12384.6 12284.8 11487.8 11442 11037.6 10817.8 9976.48 8568.91 8352.18 8276 8142.55 7918.95 7791.92 7441.75
threshold=67.150500000000008 116.94350000000001 30.908000000000005 92.987000000000009 149.33050000000003 48.176000000000009 8.9540000000000024 80.808500000000009 185.17700000000002 51.348500000000008 40.680500000000002 0.85050000000000014 39.537000000000006 51.348500000000008 65.037500000000009 0.75450000000000006 0.47350000000000003 133.08200000000002 0.63650000000000018 116.94350000000001 102.11450000000001 146.89750000000001 77.567000000000021 85.782500000000013 93.529500000000027 144.32500000000002 62.928500000000007 67.452000000000012 90.419000000000011 65.824000000000012
decision_type=2 2 2 2 2 2 2 2 2 2 2 2 2 2 2 2 2 2 2 2 2 2 2 2 2 2 2 2 2 2
left_child=2 3 6 7 17 11 -1 14 27 -8 19 -4 -5 -13 -2 -14 -12 28 -11 -7 -17 -19 -9 24 -15 -10 -16 -6 -3 -18
right_child=1 4 5 12 8 10 9 22 25 18 16 13 15 23 26 20 29 21 -20 -21 -22 -23 -24 -25 -26 -27 -28 -29 -30 -31
leaf_value=-1.1817594781804723 0.0055913919340231733 1.4155278775209938 -0.70154425085451588 1.2945008396178252 2.0349144135440529 0.0082751802360811807 -0.97179001480448912 0.67295249108084298 2.4482531278773592 -0.92162492882827651 -0.63902855218448007 -0.57800081777251611 0.18247842549629834 -0.26754590176825394 0.40129013877400133 0.59695703914943177 -0.28325769915467458 1.6220449883638903 -0.53408365013698744 0.68205894273771372 0.84129016940346646 1.067431374772716 0.34649054968099602 -0.46731655795271226 0.17140101578728906 3.6098591761155561 0.14119588293576682 1.5843638254168593 1.0223141967207467 -0.091398315565608068
leaf_weight=1611 876 183 725 129 358 582 1346 291 108 284 175 622 115 411 562 884 1159 327 651 71 1053 134 1360 362 145 22 675 162 543 922
leaf_count=1611 876 183 725 129 358 582 1346 291 108 284 175 622 115 411 562 884 1159 327 651 71 1053 134 1360 362 145 22 675 162 543 922
internal_value=0 0.696858 -0.597848 0.437401 1.53612 -0.30843 -0.982406 0.264555 2.04807 -0.84128 -0.161964 -0.496209 0.735357 -0.399054 0.154865 0.699841 -0.233109 1.25514 -0.652599 0.0826835 0.73017 1.46246 0.404486 -0.27699 -0.151723 2.6506 0.25997 1.89599 1.12246 -0.198614
internal_weight=0 7782 9066 5945 1837 5174 3892 3764 650 2281 2909 2265 2181 1540 2113 2052 2256 1187 935 653 1937 461 1651 918 556 130 1237 520 726 2081
internal_count=16848 7782 9066 5945 1837 5174 3892 3764 650 2281 2909 2265 2181 1540 2113 2052 2256 1187 935 653 1937 461 1651 918 556 130 1237 520 726 2081
is_linear=0
shrinkage=0.05


Tree=19
num_leaves=31
num_cat=0
split_feature=4 4 4 4 4 4 4 3 3 4 677 677 5 25 7 4 677 4 677 7 24 5 598 411 5 3 678 677 676 4
split_gain=2.53579e+06 559507 423602 95117.8 90037.8 55085 52423.2 19324 19007.5 18266.5 17720.6 17508.8 15655.2 15583.1 14759.2 12376.8 11707.4 11039.6 10868.6 10087.2 9832.03 9348.88 8086.39 8015.65 7766.76 7754.24 7572.09 7054.19 6972.95 6820.74
threshold=70.512500000000017 117.96550000000001 34.674500000000002 92.987000000000009 158.55150000000003 15.270000000000001 53.045500000000004 15.500000000000002 7.5000000000000009 134.91050000000004 1.2335000000000003 0.52850000000000008 17.646500000000003 56.176500000000011 39.537000000000006 185.17700000000002 0.75450000000000006 102.80950000000001 1.2435000000000003 54.349000000000011 90.379000000000019 146.89750000000001 67.580500000000015 146.89750000000001 40.136500000000005 16.500000000000004 86.01700000000001 0.50750000000000017 15.890500000000001 23.297000000000001
decision_type=2 2 2 2 2 2 2 2 2 2 2 2 2 2 2 2 2 2 2 2 2 2 2 2 2 2 2 2 2 2
left_child=2 3 5 10 9 18 13 8 -8 25 27 -7 -13 -4 -5 -6 -16 -18 -1 -15 -12 -11 -17 -24 -10 -3 -22 -2 -20 -14
right_child=1 4 6 14 15 11 7 -9 24 21 20 12 29 19 16 22 17 -19 28 -21 26 -23 23 -25 -26 -27 -28 -29 -30 -31
leaf_value=-1.0900747252028868 -0.26035552926601446 1.2222790992915118 -0.5034055856424956 1.2197391976250544 1.9126156080388108 -0.97632815642303294 -0.16134368873016203 -0.26327310736034443 0.5259958176098708 1.6531619820950156 0.27607360146188464 -0.33826837675995497 -0.91901049767390353 -0.13072139399779878 0.17578943326812368 1.7109170313539179 0.57446605955917485 0.81443468772597305 -0.80484401962616381 -0.4452983468208726 0.59670301187577646 1.2310310750671849 2.4923803847513084 3.7193710708618166 0.10995539482538784 0.86790883210665393 0.26444153078466992 0.14037028014949168 0.074727555333326257 -0.63227205671482989
leaf_weight=2212 132 464 1425 135 325 445 805 918 131 343 1658 389 303 681 116 29 944 1052 180 417 552 247 81 20 856 262 263 631 24 808
leaf_count=2212 132 464 1425 135 325 445 805 918 131 343 1658 389 303 681 116 29 944 1052 180 417 552 247 81 20 856 262 263 631 24 808
internal_value=0 0.705627 -0.533205 0.455864 1.47847 -0.897205 -0.229716 -0.0766749 0.0184964 1.26739 0.281942 -0.698015 -0.614948 -0.393802 0.706003 2.08733 0.672809 0.701318 -1.05725 -0.250875 0.347011 1.47771 2.51836 2.74277 0.165934 1.09543 0.490403 0.0700612 -0.697689 -0.711149
internal_weight=0 7254 9594 5483 1771 4361 5233 2710 1792 1316 3236 1945 1500 2523 2247 455 2112 1996 2416 1098 2473 590 130 101 987 726 815 763 204 1111
internal_count=16848 7254 9594 5483 1771 4361 5233 2710 1792 1316 3236 1945 1500 2523 2247 455 2112 1996 2416 1098 2473 590 130 101 987 726 815 763 204 1111
is_linear=0
shrinkage=0.05


Tree=20
num_leaves=31
num_cat=0
split_feature=4 4 4 4 4 4 4 24 5 677 192 677 677 25 3 3 24 676 3 24 30 677 144 677 32 70 678 24 4 677
split_gain=2.29332e+06 590169 295584 109545 89942.1 58347.3 20527.9 20407.2 20407.1 20288 17423.5 15315.9 14163.2 13725.8 12986.5 11627 10872.8 10560.1 10309.7 10267.1 9915.53 8036.59 8015.58 7980.73 7262.35 7154.22 7078.41 7055.78 6893.81 6660.42
threshold=64.512500000000003 111.91300000000003 23.297000000000001 146.89750000000001 88.209500000000006 43.052000000000007 177.93850000000003 90.379000000000019 38.602000000000011 0.99250000000000005 67.975500000000025 1.2235000000000003 1.3605000000000003 94.545000000000016 16.500000000000004 7.5000000000000009 104.82250000000001 13.533500000000002 13.500000000000002 71.20750000000001 71.636500000000026 0.8175 93.509500000000017 2.0605000000000007 89.203500000000005 130.84150000000002 85.782500000000013 87.282000000000025 51.722500000000004 0.48650000000000004
decision_type=2 2 2 2 2 2 2 2 2 2 2 2 2 2 2 2 2 2 2 2 2 2 2 2 2 2 2 2 2 2
left_child=2 4 9 14 7 10 27 12 16 22 -4 29 -2 21 15 -3 -7 -11 -17 -12 -9 -6 -1 -16 -15 -8 -21 -5 -13 -10
right_child=1 3 5 6 13 8 25 20 11 17 19 28 -14 24 23 18 -18 -19 -20 26 -22 -23 -24 -25 -26 -27 -28 -29 -30 -31
leaf_value=-1.0467616699050382 -0.056163838492238043 0.81304368556186724 -0.64405269814069266 1.326022226535357 0.11873443226729122 0 2.1364687513886835 0.57826418886451347 -0.63269534105701108 -0.81259442185713116 -0.51882571176135739 -0.31388442601433131 0.19291210746165965 0.88353553465157586 0.61980510301618286 1.4939766836767236 0.67484636095327311 -0.32617285895813897 1.0971654406248643 0 0.25219754299629132 0.52323217873530836 -0.68436697022515847 1.0204180989933735 0.59187348312668131 3.1419797172149022 -0.45305473425272685 1.766427825687735 -0.08921979268400905 -0.33172681514276681
leaf_weight=2279 855 186 1456 143 140 316 171 380 238 552 439 492 1693 443 221 310 74 147 406 247 640 1398 177 330 463 24 134 377 1167 950
leaf_count=2279 855 186 1456 143 140 316 171 380 238 552 439 492 1693 443 221 310 74 147 406 247 640 1398 177 330 463 24 134 377 1167 950
internal_value=0 0.600685 -0.566502 1.30804 0.345479 -0.345409 1.81617 0.185111 -0.208635 -0.9526 -0.539603 -0.255189 0.109039 0.579294 1.05748 1.17662 0.129287 -0.711373 1.27002 -0.353227 0.374409 0.486899 -1.02095 0.861098 0.735313 2.26407 -0.160451 1.64676 -0.156299 -0.392653
internal_weight=0 8180 8668 2168 6012 5513 715 3568 3237 3155 2276 2847 2548 2444 1453 902 390 699 716 820 1020 1538 2456 551 906 195 381 520 1659 1188
internal_count=16848 8180 8668 2168 6012 5513 715 3568 3237 3155 2276 2847 2548 2444 1453 902 390 699 716 820 1020 1538 2456 551 906 195 381 520 1659 1188
is_linear=0
shrinkage=0.05


Tree=21
num_leaves=31
num_cat=0
split_feature=4 4 4 4 4 4 4 3 3 73 551 4 22 3 677 5 120 677 7 474 677 678 677 678 677 6 5 676 676 243
split_gain=2.07654e+06 431456 390028 72651.2 66294.8 51657.9 43397.8 20420.7 25424.5 16282.5 14705.3 13188.1 13153.2 11831.1 11822.5 11160.1 9653.38 9564.1 9362.81 8979.22 8697.71 8642.23 8046.4 8005.03 7073.59 6747.46 6727.06 8847.07 6266.16 6025.78
threshold=76.266000000000005 40.136500000000005 126.03800000000003 100.56500000000001 18.942000000000004 167.42400000000001 63.181500000000007 15.500000000000002 8.5000000000000018 57.00650000000001 94.560500000000005 6.4270000000000005 104.21850000000002 15.500000000000002 1.5365000000000002 63.624000000000009 49.183500000000002 0.62550000000000006 39.111000000000011 126.07550000000002 0.95550000000000013 72.271000000000015 0.48650000000000004 61.576500000000003 1.4585000000000001 8.9540000000000024 32.553500000000007 16.508000000000003 27.180500000000002 105.66350000000001
decision_type=2 2 2 2 2 2 2 2 2 2 2 2 2 2 2 2 2 2 2 2 2 2 2 2 2 2 2 2 2 2
left_child=1 4 3 10 11 13 7 8 -3 -6 14 -1 20 23 -2 -8 -13 -11 28 29 -5 -14 -9 -4 -17 -19 27 -10 -12 -7
right_child=2 6 5 12 9 19 15 22 26 17 18 16 21 -15 -16 24 -18 25 -20 -21 -22 -23 -24 -25 -26 -27 -28 -29 -30 -31
leaf_value=-1.0656073357560572 0.13288528264014907 -0.29420071869741798 1.6459013164901048 0.25495696375935767 -0.68125105211462134 1.7000430199997556 0.26375919625045746 -0.8036198461676638 0.015132500158250331 -0.73676967670588378 0.77244616776409725 -0.94423528652673827 1.1641186026759627 1.1024381674426214 0.37498227758998848 -0.14058406139322149 -0.68951848740619959 0.018422294651036678 0.47031296531004907 2.9581231630765479 0.71599176707793055 0.73597745959033078 -0.36270587890505079 1.2430657582655273 0.082358123117817858 -0.39071210314972926 -0.027502011621712549 0.68271172608522812 1.7637627919514973 2.1921169948928498
leaf_weight=1141 759 1324 278 118 1327 163 508 120 125 182 101 941 289 503 1572 598 670 115 783 26 1154 223 959 269 877 655 826 85 21 136
leaf_count=1141 759 1324 278 118 1327 163 508 120 125 182 101 941 289 503 1572 598 670 115 783 26 1154 223 959 269 877 655 826 85 21 136
internal_value=0 -0.433986 0.709875 0.505286 -0.767496 1.45627 -0.124389 -0.231851 -0.148969 -0.567205 0.36361 -0.933089 0.761851 1.28378 0.296475 0.0615978 -0.838766 -0.407447 0.535703 2.01122 0.673812 0.979108 -0.412437 1.44917 -0.00751945 -0.328634 0.0359125 0.288915 0.94923 1.92637
internal_weight=0 10453 6395 5020 5031 1375 5422 3439 2360 2279 3236 2752 1784 1050 2331 1983 1611 952 905 325 1272 512 1079 547 1475 770 1036 210 122 299
internal_count=16848 10453 6395 5020 5031 1375 5422 3439 2360 2279 3236 2752 1784 1050 2331 1983 1611 952 905 325 1272 512 1079 547 1475 770 1036 210 122 299
is_linear=0
shrinkage=0.05


Tree=22
num_leaves=31
num_cat=0
split_feature=4 4 4 4 4 4 4 5 5 25 677 22 7 4 24 23 538 3 677 678 677 677 677 457 551 96 577 676 4 527
split_gain=1.87442e+06 389415 352040 65746.6 60080.1 46615.5 39434.7 17575.1 15425 14145.4 13570.5 13409.1 13038.9 11039.2 10606.4 10110.6 9826.39 9436.77 9351.51 9312.59 9163.91 8356.49 8332.86 8258.61 7806.96 7479.65 7078.06 6462.15 6453.73 5923.11
threshold=76.266000000000005 40.136500000000005 126.03800000000003 98.771000000000015 21.164500000000004 162.75450000000004 60.490000000000002 40.136500000000005 17.646500000000003 39.63450000000001 0.75450000000000006 104.82250000000001 53.06900000000001 50.435500000000012 103.49400000000001 89.203500000000005 46.779000000000003 15.500000000000002 0.95550000000000013 72.271000000000015 1.5365000000000002 0.71250000000000002 0.60350000000000004 133.14350000000005 126.07550000000002 51.348500000000008 67.615500000000011 29.049500000000005 139.02700000000002 96.785500000000013
decision_type=2 2 2 2 2 2 2 2 2 2 2 2 2 2 2 2 2 2 2 2 2 2 2 2 2 2 2 2 2 2
left_child=1 4 3 12 9 15 7 14 29 -1 -8 18 24 -9 -3 -4 23 26 -5 -13 27 -11 -10 -7 -2 -24 -12 -14 -17 -6
right_child=2 6 5 11 8 16 10 13 22 21 17 19 20 -15 -16 28 -18 -19 -20 -21 -22 -23 25 -25 -26 -27 -28 -29 -30 -31
leaf_value=-0.95859569623137519 0.49244282444195192 -0.086078123394137548 1.0071655045660104 0.21313327863022236 -0.30527940996354674 2.0260832369603494 -0.27219847094612765 -0.42356162599748998 -0.76563367294707652 -0.86899401773551765 0.026513552017736898 1.1079211307109784 0.12753078183805985 -0.20634318295727461 0.48789546942959233 1.1408320181873215 1.7186986578811732 -0.067708174147626518 0.66349831405502857 0.6804807029786657 0.35585333313038298 -0.5831357136309786 -0.63317938427171339 3.2918509892054963 1.0754036725362142 -0.39342932742262304 0.25758249613150824 0.98369493730690172 1.5028002212553444 0.22565627802109375
leaf_weight=1877 303 497 425 132 205 54 313 1014 449 539 595 302 792 1436 96 251 315 700 1304 244 1845 537 667 21 75 688 771 23 309 69
leaf_count=1877 303 497 425 132 205 54 313 1014 449 539 595 302 792 1436 96 251 315 700 1304 244 1845 537 667 21 75 688 771 23 309 69
internal_value=0 -0.412305 0.674464 0.480081 -0.729151 1.38359 -0.11817 -0.237428 -0.522277 -0.874472 0.0340596 0.704447 0.333458 -0.296551 0.00557696 1.19823 1.84981 0.0808209 0.622622 0.918277 0.293864 -0.727028 -0.575543 2.3905 0.610094 -0.512 0.157483 0.152613 1.3419 -0.168839
internal_weight=0 10453 6395 5020 5031 1375 5422 3043 2078 2953 2379 1982 3038 2450 593 985 390 2066 1436 546 2660 1076 1804 75 378 1355 1366 815 560 274
internal_count=16848 10453 6395 5020 5031 1375 5422 3043 2078 2953 2379 1982 3038 2450 593 985 390 2066 1436 546 2660 1076 1804 75 378 1355 1366 815 560 274
is_linear=0
shrinkage=0.05


Tree=23
num_leaves=31
num_cat=0
split_feature=4 4 4 4 4 4 4 120 25 8 677 3 3 4 6 5 4 677 677 6 4 5 676 383 677 598 433 4 411 677
split_gain=1.69263e+06 348842 313176 57142 56698.1 45395.4 35122.7 16252.9 15478.1 12190.2 11899.9 11611.7 16667.5 11334.1 9649.96 9276.8 8962.22 8924.71 8797.49 8030.85 7889.59 7593.91 7409.01 7310.17 7252.66 6962.27 6421.51 6141.62 6100.45 6075
threshold=73.122500000000016 119.41800000000002 37.529500000000006 158.55150000000003 92.987000000000009 13.968000000000002 53.906000000000006 68.488000000000014 47.75650000000001 72.197000000000017 0.77650000000000008 15.500000000000002 8.5000000000000018 139.02700000000002 8.9540000000000024 58.273000000000003 185.17700000000002 0.49750000000000005 1.5155000000000001 34.127500000000005 5.3630000000000004 107.16350000000001 25.094500000000004 99.291000000000011 0.72250000000000003 67.580500000000015 75.042000000000016 105.60800000000002 146.89750000000001 1.4355000000000002
decision_type=2 2 2 2 2 2 2 2 2 2 2 2 2 2 2 2 2 2 2 2 2 2 2 2 2 2 2 2 2 2
left_child=2 4 5 13 10 20 11 17 29 22 -2 12 -4 21 -10 -12 -5 -8 -11 -9 -1 -3 -6 -15 -23 -18 -17 -20 -27 -7
right_child=1 3 6 16 9 8 7 19 14 18 15 -13 -14 23 -16 26 25 -19 27 -21 -22 24 -24 -25 -26 28 -28 -29 -30 -31
leaf_value=-1.0025083409147972 -0.067166743783526259 1.4450449677876065 -0.35321932030086023 1.5578443606450008 0.64156101090130369 -0.73638806828923109 -0.53713821800303285 0.39018000777189932 -0.11163858150442441 0.30134979582133248 0.72113798566353626 -0.46960380830188991 -0.024986046703512187 1.087538850832392 -0.49373353522745012 0.18448732250692337 1.3292238011442383 -0.11212264663666825 0.48283091095804126 0.03702317369371011 -0.80159012880239366 0.029659602046012881 1.0285267247343963 1.5206946216350379 0.91059772846912534 2.0623923307583656 0.34844480771693198 0.70258909762286459 3.1412995338439944 -0.45002037925835775
leaf_weight=805 265 70 981 325 347 1023 137 186 207 382 117 692 647 286 939 1311 29 1397 785 1254 1477 26 212 172 696 81 1147 587 20 245
leaf_count=805 265 70 981 325 347 1023 137 186 207 382 117 692 647 286 939 1311 29 1397 785 1254 1477 26 212 172 696 81 1147 587 20 245
internal_value=0 0.605075 -0.415029 1.22523 0.399734 -0.712313 -0.151183 -0.0371462 -0.560296 0.583756 0.249596 -0.297043 -0.223233 1.04904 -0.425371 0.282486 1.70764 -0.150569 0.517707 0.0831601 -0.872795 0.930808 0.789659 1.25185 0.879913 2.07636 0.261301 0.577399 2.28346 -0.681648
internal_weight=0 6858 9990 1705 5153 4696 5294 2974 2414 2313 2840 2320 1628 1250 1146 2575 455 1534 1754 1440 2282 792 559 458 722 130 2458 1372 101 1268
internal_count=16848 6858 9990 1705 5153 4696 5294 2974 2414 2313 2840 2320 1628 1250 1146 2575 455 1534 1754 1440 2282 792 559 458 722 130 2458 1372 101 1268
is_linear=0
shrinkage=0.05


Tree=24
num_leaves=31
num_cat=0
split_feature=4 4 4 4 4 4 677 7 4 677 3 3 24 7 676 677 3 677 25 678 24 6 676 678 9 265 3 598 117 677
split_gain=1.53151e+06 378948 213076 67701.6 61145.9 41601.7 17303.5 15737.6 15640 14301.5 14095.6 15902.7 12513.8 10891 10161.5 10049.2 9328.47 8174.56 8166.16 7977.77 7477.31 7475.68 7453.38 7980.81 7288.54 6657.29 6592.88 6252.92 7365.09 6214.64
threshold=66.226500000000016 114.00650000000002 24.791500000000003 144.28050000000005 89.22450000000002 45.522500000000008 0.90050000000000019 39.537000000000006 177.93850000000003 0.60350000000000004 15.500000000000002 7.5000000000000009 102.80950000000001 40.680500000000002 10.951000000000002 0.48650000000000004 16.500000000000004 1.5155000000000001 94.545000000000016 71.305000000000021 116.94350000000001 13.968000000000002 16.508000000000003 78.681000000000026 91.813000000000017 55.14800000000001 12.500000000000002 67.580500000000015 97.977000000000018 2.0605000000000007
decision_type=2 2 2 2 2 2 2 2 2 2 2 2 2 2 2 2 2 2 2 2 2 2 2 2 2 2 2 2 2 2
left_child=2 4 6 16 10 9 -1 20 24 -4 11 -2 21 -6 -8 -9 19 -12 -15 -3 -7 -11 -13 26 -5 -17 -24 -10 -29 -18
right_child=1 3 5 8 13 7 14 15 27 12 17 22 -14 18 -16 25 29 -19 -20 -21 -22 -23 23 -25 -26 -27 -28 28 -30 -31
leaf_value=-0.83946689098870086 0.08221335895778506 1.077401591369084 -0.6496884045926552 1.5907423367512594 0.92144630010136308 0.0080442417310536678 -0.69084850127220154 -0.52822344506398666 1.3022945740948553 -0.10604969276887616 -0.11025558233107312 0.21742485386953303 0.025854526255569311 0.39380251073483219 -0.3190078587445257 -0.25684953633234769 0.46052935855940752 0.14266126543390317 0.59255316864544827 0.70866356092211724 0.55288911131875851 -0.43236953863821692 0.76186251466566668 0.25580079582652876 1.1960905930564005 -0.082590771195216517 0.34911481753799573 1.7952355573665013 2.6583335974277595 0.83986353663416102
leaf_weight=2391 878 560 523 194 144 659 625 218 46 205 545 533 193 1455 273 1117 195 767 845 219 70 1551 265 280 392 1109 166 110 39 281
leaf_count=2391 878 560 523 194 144 659 625 218 46 205 545 533 193 1455 273 1117 195 767 845 219 70 1551 265 280 392 1109 166 110 39 281
internal_value=0 0.506713 -0.448463 1.09473 0.302909 -0.261875 -0.768481 -0.141709 1.46162 -0.415814 0.166533 0.24625 -0.352671 0.494222 -0.578641 -0.202597 0.865814 0.0370289 0.467148 0.974701 0.0613901 -0.394701 0.361421 0.468313 1.32802 -0.17037 0.604633 1.85926 2.02618 0.68604
internal_weight=0 7914 8934 2036 5878 5645 3289 3173 781 2472 3434 2122 1949 2444 898 2444 1255 1312 2300 779 729 1756 1244 711 586 2226 431 195 149 476
internal_count=16848 7914 8934 2036 5878 5645 3289 3173 781 2472 3434 2122 1949 2444 898 2444 1255 1312 2300 779 729 1756 1244 711 586 2226 431 195 149 476
is_linear=0
shrinkage=0.05


Tree=25
num_leaves=31
num_cat=0
split_feature=4 4 4 4 4 4 25 5 32 24 3 3 671 677 677 3 4 676 678 3 576 677 676 538 677 677 3 676 677 303
split_gain=1.38605e+06 286527 260120 48681.5 46465.5 35228.5 31326.8 13122.4 12894.2 11729.2 11518.8 13663.3 11514 10716.5 10145.7 8684.81 8627.04 8407.83 9643.28 8307.82 8129.12 7308.04 7288.72 7032.57 6051.69 6000.83 5986.88 6125.82 5980.26 5759.97
threshold=76.266000000000005 40.680500000000002 126.03800000000003 100.56500000000001 21.164500000000004 167.42400000000001 59.985500000000009 17.646500000000003 56.543500000000002 58.305500000000002 16.500000000000004 7.5000000000000009 83.90600000000002 1.5275000000000001 0.88050000000000017 14.500000000000002 65.310500000000019 15.519500000000003 79.171000000000006 13.500000000000002 87.772500000000022 1.0705000000000002 28.486875000000001 46.779000000000003 0.75450000000000006 1.5365000000000002 13.500000000000002 27.891000000000002 0.34450000000000003 29.692500000000006
decision_type=2 2 2 2 2 2 2 2 2 2 2 2 2 2 2 2 2 2 2 2 2 2 2 2 2 2 2 2 2 2
left_child=1 4 3 10 9 14 13 -6 17 -1 11 -2 24 28 -4 20 -10 -8 -19 22 -16 -9 -13 -7 -5 -12 27 -14 -3 -30
right_child=2 6 5 12 7 23 8 21 16 -11 25 19 26 -15 15 -17 -18 18 -20 -21 -22 -23 -24 -25 -26 -27 -28 -29 29 -31
leaf_value=-0.80961678842850771 0.20081965674171776 -0.6136422609086023 0.31438980183253684 0.033506669849157338 -0.12143215201661579 2.1578604802008599 0.023300344416094142 -0.58846849623222786 -0.16170493328741534 -0.57389485402368379 0.012721575734330415 0.52877955135331101 0.8160363403203732 -0.10300897105163705 0.98245193153451393 0.94787795949472864 0.068329425749282163 0.47244333790784537 0.00081429613875390523 0.31847991364762973 1.4438405021907776 -0.38636103283950962 1.1260704953095009 1.5256630508448688 0.54757468485068261 0.25445933724498726 0.63244637200989617 1.3464787972600838 -0.45903944826665194 -0.21563383037956357
leaf_weight=2226 797 148 48 64 279 62 545 979 969 727 413 689 272 1128 177 571 698 319 169 570 254 887 58 263 1010 709 362 76 328 1051
leaf_count=2226 797 148 48 64 279 62 545 979 969 727 413 689 272 1128 177 571 698 319 169 570 254 887 58 263 1010 709 362 76 328 1051
internal_value=0 -0.354495 0.580035 0.412914 -0.622817 1.18963 -0.0989097 -0.444845 0.0207584 -0.751838 0.296861 0.365884 0.623002 -0.220889 1.04687 1.08121 -0.0649359 0.159773 0.31065 0.465205 1.2561 -0.492799 0.57616 1.64857 0.51764 0.166146 0.781324 0.934035 -0.307476 -0.274073
internal_weight=0 10453 6395 5020 5098 1375 5355 2145 2700 2953 3236 2114 1784 2655 1050 1002 1667 1033 488 1317 431 1866 747 325 1074 1122 710 348 1527 1379
internal_count=16848 10453 6395 5020 5098 1375 5355 2145 2700 2953 3236 2114 1784 2655 1050 1002 1667 1033 488 1317 431 1866 747 325 1074 1122 710 348 1527 1379
is_linear=0
shrinkage=0.05


Tree=26
num_leaves=31
num_cat=0
split_feature=4 4 4 4 4 4 5 121 4 192 3 3 24 677 3 677 23 676 24 677 5 677 32 9 12 598 5 411 677 677
split_gain=1.25242e+06 323582 161377 61314.6 51482 31543 14277.1 13946.3 13131.7 12684.4 11000.6 13702.2 10929.1 10456.9 9080.3 8391.49 8356.74 7809.82 7699.89 7379.09 7265.78 7073.99 7021.35 6904.55 6007.12 5671.54 5198.02 5045.88 5010.08 4951.46
threshold=64.512500000000003 111.91300000000003 23.297000000000001 144.28050000000005 84.943500000000014 43.052000000000007 39.537000000000006 57.00650000000001 185.17700000000002 67.975500000000025 16.500000000000004 8.5000000000000018 89.203500000000005 1.2235000000000003 12.500000000000002 0.72250000000000003 107.75350000000002 26.916500000000003 91.825500000000019 1.3495000000000001 46.314000000000007 0.63650000000000018 75.676000000000016 90.888500000000008 75.31750000000001 67.580500000000015 13.411000000000001 146.89750000000001 1.3265000000000002 1.5155000000000001
decision_type=2 2 2 2 2 2 2 2 2 2 2 2 2 2 2 2 2 2 2 2 2 2 2 2 2 2 2 2 2 2
left_child=2 4 7 15 12 9 16 28 23 26 11 -6 19 -8 17 -3 -7 -13 -11 -2 -14 -9 -17 24 -5 -10 -4 -27 -1 -12
right_child=1 3 5 8 10 6 13 21 25 18 29 14 20 -15 -16 22 -18 -19 -20 -21 -22 -23 -24 -25 -26 27 -28 -29 -30 -31
leaf_value=-0.78983875696312433 -0.072751034646843432 0.15065286103636027 0.051605758507077285 1.2984305774470171 0.30534844789086141 0.003101537123932476 -0.30947285844242756 -0.69152990497632894 1.1170047390049902 -0.32485445321221146 0.11566531088624506 0.64659604663724335 0.79880860534807052 -0.11290891609504172 0.47368437847320766 0.93951664226721998 0.56466068004269199 1.153356468000994 0.031031579586050035 0.11911074444872992 0.2225996103260274 -0.38615108062977804 0.69647448690972502 1.110476798030098 1.9485271547521865 1.7796301735016045 -0.50318374455857096 2.7652770757675174 -0.52470505355691943 0.35068653566767805
leaf_weight=2137 754 56 41 150 697 342 1176 353 29 624 336 335 60 1636 686 522 83 106 196 1475 817 451 809 445 56 81 1415 20 214 746
leaf_count=2137 754 56 41 150 697 342 1176 353 29 624 336 335 60 1636 686 522 83 106 196 1475 817 451 809 445 56 81 1415 20 214 746
