tree
version=v4
num_class=1
num_tree_per_iteration=1
label_index=0
max_feature_idx=700
objective=regression
feature_names=year month day hour O3VAL_1 O3VAL_2 O3VAL_3 O3VAL_4 O3VAL_5 O3VAL_6 O3VAL_7 O3VAL_8 O3VAL_9 O3VAL_10 O3VAL_11 O3VAL_12 O3VAL_13 O3VAL_14 O3VAL_15 O3VAL_16 O3VAL_17 O3VAL_18 O3VAL_19 O3VAL_20 O3VAL_21 O3VAL_22 O3VAL_23 O3VAL_24 O3VAL_25 O3VAL_26 O3VAL_27 O3VAL_28 O3VAL_29 O3VAL_30 O3VAL_31 O3VAL_32 O3VAL_33 O3VAL_34 O3VAL_35 O3VAL_36 O3VAL_37 O3VAL_38 O3VAL_39 O3VAL_40 O3VAL_41 O3VAL_42 O3VAL_43 O3VAL_44 O3VAL_45 O3VAL_46 O3VAL_47 O3VAL_48 O3VAL_49 O3VAL_50 O3VAL_51 O3VAL_52 O3VAL_53 O3VAL_54 O3VAL_55 O3VAL_56 O3VAL_57 O3VAL_58 O3VAL_59 O3VAL_60 O3VAL_61 O3VAL_62 O3VAL_63 O3VAL_64 O3VAL_65 O3VAL_66 O3VAL_67 O3VAL_68 O3VAL_69 O3VAL_70 O3VAL_71 O3VAL_72 O3VAL_73 O3VAL_74 O3VAL_75 O3VAL_76 O3VAL_77 O3VAL_78 O3VAL_79 O3VAL_80 O3VAL_81 O3VAL_82 O3VAL_83 O3VAL_84 O3VAL_85 O3VAL_86 O3VAL_87 O3VAL_88 O3VAL_89 O3VAL_90 O3VAL_91 O3VAL_92 O3VAL_93 O3VAL_94 O3VAL_95 O3VAL_96 O3VAL_97 O3VAL_98 O3VAL_99 O3VAL_100 O3VAL_101 O3VAL_102 O3VAL_103 O3VAL_104 O3VAL_105 O3VAL_106 O3VAL_107 O3VAL_108 O3VAL_109 O3VAL_110 O3VAL_111 O3VAL_112 O3VAL_113 O3VAL_114 O3VAL_115 O3VAL_116 O3VAL_117 O3VAL_118 O3VAL_119 O3VAL_120 O3VAL_121 O3VAL_122 O3VAL_123 O3VAL_124 O3VAL_125 O3VAL_126 O3VAL_127 O3VAL_128 O3VAL_129 O3VAL_130 O3VAL_131 O3VAL_132 O3VAL_133 O3VAL_134 O3VAL_135 O3VAL_136 O3VAL_137 O3VAL_138 O3VAL_139 O3VAL_140 O3VAL_141 O3VAL_142 O3VAL_143 O3VAL_144 O3VAL_145 O3VAL_146 O3VAL_147 O3VAL_148 O3VAL_149 O3VAL_150 O3VAL_151 O3VAL_152 O3VAL_153 O3VAL_154 O3VAL_155 O3VAL_156 O3VAL_157 O3VAL_158 O3VAL_159 O3VAL_160 O3VAL_161 O3VAL_162 O3VAL_163 O3VAL_164 O3VAL_165 O3VAL_166 O3VAL_167 O3VAL_168 O3VAL_169 O3VAL_170 O3VAL_171 O3VAL_172 O3VAL_173 O3VAL_174 O3VAL_175 O3VAL_176 O3VAL_177 O3VAL_178 O3VAL_179 O3VAL_180 O3VAL_181 O3VAL_182 O3VAL_183 O3VAL_184 O3VAL_185 O3VAL_186 O3VAL_187 O3VAL_188 O3VAL_189 O3VAL_190 O3VAL_191 O3VAL_192 O3VAL_193 O3VAL_194 O3VAL_195 O3VAL_196 O3VAL_197 O3VAL_198 O3VAL_199 O3VAL_200 O3VAL_201 O3VAL_202 O3VAL_203 O3VAL_204 O3VAL_205 O3VAL_206 O3VAL_207 O3VAL_208 O3VAL_209 O3VAL_210 O3VAL_211 O3VAL_212 O3VAL_213 O3VAL_214 O3VAL_215 O3VAL_216 O3VAL_217 O3VAL_218 O3VAL_219 O3VAL_220 O3VAL_221 O3VAL_222 O3VAL_223 O3VAL_224 O3VAL_225 O3VAL_226 O3VAL_227 O3VAL_228 O3VAL_229 O3VAL_230 O3VAL_231 O3VAL_232 O3VAL_233 O3VAL_234 O3VAL_235 O3VAL_236 O3VAL_237 O3VAL_238 O3VAL_239 O3VAL_240 O3VAL_241 O3VAL_242 O3VAL_243 O3VAL_244 O3VAL_245 O3VAL_246 O3VAL_247 O3VAL_248 O3VAL_249 O3VAL_250 O3VAL_251 O3VAL_252 O3VAL_253 O3VAL_254 O3VAL_255 O3VAL_256 O3VAL_257 O3VAL_258 O3VAL_259 O3VAL_260 O3VAL_261 O3VAL_262 O3VAL_263 O3VAL_264 O3VAL_265 O3VAL_266 O3VAL_267 O3VAL_268 O3VAL_269 O3VAL_270 O3VAL_271 O3VAL_272 O3VAL_273 O3VAL_274 O3VAL_275 O3VAL_276 O3VAL_277 O3VAL_278 O3VAL_279 O3VAL_280 O3VAL_281 O3VAL_282 O3VAL_283 O3VAL_284 O3VAL_285 O3VAL_286 O3VAL_287 O3VAL_288 O3VAL_289 O3VAL_290 O3VAL_291 O3VAL_292 O3VAL_293 O3VAL_294 O3VAL_295 O3VAL_296 O3VAL_297 O3VAL_298 O3VAL_299 O3VAL_300 O3VAL_301 O3VAL_302 O3VAL_303 O3VAL_304 O3VAL_305 O3VAL_306 O3VAL_307 O3VAL_308 O3VAL_309 O3VAL_310 O3VAL_311 O3VAL_312 O3VAL_313 O3VAL_314 O3VAL_315 O3VAL_316 O3VAL_317 O3VAL_318 O3VAL_319 O3VAL_320 O3VAL_321 O3VAL_322 O3VAL_323 O3VAL_324 O3VAL_325 O3VAL_326 O3VAL_327 O3VAL_328 O3VAL_329 O3VAL_330 O3VAL_331 O3VAL_332 O3VAL_333 O3VAL_334 O3VAL_335 O3VAL_336 O3VAL_337 O3VAL_338 O3VAL_339 O3VAL_340 O3VAL_341 O3VAL_342 O3VAL_343 O3VAL_344 O3VAL_345 O3VAL_346 O3VAL_347 O3VAL_348 O3VAL_349 O3VAL_350 O3VAL_351 O3VAL_352 O3VAL_353 O3VAL_354 O3VAL_355 O3VAL_356 O3VAL_357 O3VAL_358 O3VAL_359 O3VAL_360 O3VAL_361 O3VAL_362 O3VAL_363 O3VAL_364 O3VAL_365 O3VAL_366 O3VAL_367 O3VAL_368 O3VAL_369 O3VAL_370 O3VAL_371 O3VAL_372 O3VAL_373 O3VAL_374 O3VAL_375 O3VAL_376 O3VAL_377 O3VAL_378 O3VAL_379 O3VAL_380 O3VAL_381 O3VAL_382 O3VAL_383 O3VAL_384 O3VAL_385 O3VAL_386 O3VAL_387 O3VAL_388 O3VAL_389 O3VAL_390 O3VAL_391 O3VAL_392 O3VAL_393 O3VAL_394 O3VAL_395 O3VAL_396 O3VAL_397 O3VAL_398 O3VAL_399 O3VAL_400 O3VAL_401 O3VAL_402 O3VAL_403 O3VAL_404 O3VAL_405 O3VAL_406 O3VAL_407 O3VAL_408 O3VAL_409 O3VAL_410 O3VAL_411 O3VAL_412 O3VAL_413 O3VAL_414 O3VAL_415 O3VAL_416 O3VAL_417 O3VAL_418 O3VAL_419 O3VAL_420 O3VAL_421 O3VAL_422 O3VAL_423 O3VAL_424 O3VAL_425 O3VAL_426 O3VAL_427 O3VAL_428 O3VAL_429 O3VAL_430 O3VAL_431 O3VAL_432 O3VAL_433 O3VAL_434 O3VAL_435 O3VAL_436 O3VAL_437 O3VAL_438 O3VAL_439 O3VAL_440 O3VAL_441 O3VAL_442 O3VAL_443 O3VAL_444 O3VAL_445 O3VAL_446 O3VAL_447 O3VAL_448 O3VAL_449 O3VAL_450 O3VAL_451 O3VAL_452 O3VAL_453 O3VAL_454 O3VAL_455 O3VAL_456 O3VAL_457 O3VAL_458 O3VAL_459 O3VAL_460 O3VAL_461 O3VAL_462 O3VAL_463 O3VAL_464 O3VAL_465 O3VAL_466 O3VAL_467 O3VAL_468 O3VAL_469 O3VAL_470 O3VAL_471 O3VAL_472 O3VAL_473 O3VAL_474 O3VAL_475 O3VAL_476 O3VAL_477 O3VAL_478 O3VAL_479 O3VAL_480 O3VAL_481 O3VAL_482 O3VAL_483 O3VAL_484 O3VAL_485 O3VAL_486 O3VAL_487 O3VAL_488 O3VAL_489 O3VAL_490 O3VAL_491 O3VAL_492 O3VAL_493 O3VAL_494 O3VAL_495 O3VAL_496 O3VAL_497 O3VAL_498 O3VAL_499 O3VAL_500 O3VAL_501 O3VAL_502 O3VAL_503 O3VAL_504 O3VAL_505 O3VAL_506 O3VAL_507 O3VAL_508 O3VAL_509 O3VAL_510 O3VAL_511 O3VAL_512 O3VAL_513 O3VAL_514 O3VAL_515 O3VAL_516 O3VAL_517 O3VAL_518 O3VAL_519 O3VAL_520 O3VAL_521 O3VAL_522 O3VAL_523 O3VAL_524 O3VAL_525 O3VAL_526 O3VAL_527 O3VAL_528 O3VAL_529 O3VAL_530 O3VAL_531 O3VAL_532 O3VAL_533 O3VAL_534 O3VAL_535 O3VAL_536 O3VAL_537 O3VAL_538 O3VAL_539 O3VAL_540 O3VAL_541 O3VAL_542 O3VAL_543 O3VAL_544 O3VAL_545 O3VAL_546 O3VAL_547 O3VAL_548 O3VAL_549 O3VAL_550 O3VAL_551 O3VAL_552 O3VAL_553 O3VAL_554 O3VAL_555 O3VAL_556 O3VAL_557 O3VAL_558 O3VAL_559 O3VAL_560 O3VAL_561 O3VAL_562 O3VAL_563 O3VAL_564 O3VAL_565 O3VAL_566 O3VAL_567 O3VAL_568 O3VAL_569 O3VAL_570 O3VAL_571 O3VAL_572 O3VAL_573 O3VAL_574 O3VAL_575 O3VAL_576 O3VAL_577 O3VAL_578 O3VAL_579 O3VAL_580 O3VAL_581 O3VAL_582 O3VAL_583 O3VAL_584 O3VAL_585 O3VAL_586 O3VAL_587 O3VAL_588 O3VAL_589 O3VAL_590 O3VAL_591 O3VAL_592 O3VAL_593 O3VAL_594 O3VAL_595 O3VAL_596 O3VAL_597 O3VAL_598 O3VAL_599 O3VAL_600 O3VAL_601 O3VAL_602 O3VAL_603 O3VAL_604 O3VAL_605 O3VAL_606 O3VAL_607 O3VAL_608 O3VAL_609 O3VAL_610 O3VAL_611 O3VAL_612 O3VAL_613 O3VAL_614 O3VAL_615 O3VAL_616 O3VAL_617 O3VAL_618 O3VAL_619 O3VAL_620 O3VAL_621 O3VAL_622 O3VAL_623 O3VAL_624 O3VAL_625 O3VAL_626 O3VAL_627 O3VAL_628 O3VAL_629 O3VAL_630 O3VAL_631 O3VAL_632 O3VAL_633 O3VAL_634 O3VAL_635 O3VAL_636 O3VAL_637 O3VAL_638 O3VAL_639 O3VAL_640 O3VAL_641 O3VAL_642 O3VAL_643 O3VAL_644 O3VAL_645 O3VAL_646 O3VAL_647 O3VAL_648 O3VAL_649 O3VAL_650 O3VAL_651 O3VAL_652 O3VAL_653 O3VAL_654 O3VAL_655 O3VAL_656 O3VAL_657 O3VAL_658 O3VAL_659 O3VAL_660 O3VAL_661 O3VAL_662 O3VAL_663 O3VAL_664 O3VAL_665 O3VAL_666 O3VAL_667 O3VAL_668 O3VAL_669 O3VAL_670 O3VAL_671 O3VAL_672 month_sin month_cos day_sin day_cos hour_sin hour_cos diff_hours hour_section quarter is_weekend day_of_year day_of_week is_year_start is_year_end is_quarter_start is_quarter_end is_month_start is_month_end day_to_year_start is_holiday day_to_weekend QIWENVAL FSVAL SHIDUVAL YALIVAL
feature_infos=[2021:2022] [1:12] [1:31] [0:23] [0.25900000000000001:511.03199999999998] [0.25900000000000001:511.03199999999998] [0.25900000000000001:511.03199999999998] [0.25900000000000001:511.03199999999998] [0.25900000000000001:511.03199999999998] [0.25900000000000001:511.03199999999998] [0.25900000000000001:511.03199999999998] [0.25900000000000001:511.03199999999998] [0.25900000000000001:511.03199999999998] [0.25900000000000001:511.03199999999998] [0.25900000000000001:511.03199999999998] [0.25900000000000001:511.03199999999998] [0.25900000000000001:511.03199999999998] [0.25900000000000001:511.03199999999998] [0.25900000000000001:511.03199999999998] [0.25900000000000001:511.03199999999998] [0.25900000000000001:511.03199999999998] [0.25900000000000001:511.03199999999998] [0.25900000000000001:511.03199999999998] [0.25900000000000001:511.03199999999998] [0.25900000000000001:511.03199999999998] [0.25900000000000001:511.03199999999998] [0.25900000000000001:511.03199999999998] [0.25900000000000001:511.03199999999998] [0.25900000000000001:511.03199999999998] [0.25900000000000001:511.03199999999998] [0.25900000000000001:511.03199999999998] [0.25900000000000001:511.03199999999998] [0.25900000000000001:511.03199999999998] [0.25900000000000001:511.03199999999998] [0.25900000000000001:511.03199999999998] [0.25900000000000001:511.03199999999998] [0.25900000000000001:511.03199999999998] [0.25900000000000001:511.03199999999998] [0.25900000000000001:511.03199999999998] [0.25900000000000001:511.03199999999998] [0.25900000000000001:511.03199999999998] [0.25900000000000001:511.03199999999998] [0.25900000000000001:511.03199999999998] [0.25900000000000001:511.03199999999998] [0.25900000000000001:511.03199999999998] [0.25900000000000001:511.03199999999998] [0.25900000000000001:511.03199999999998] [0.25900000000000001:511.03199999999998] [0.25900000000000001:511.03199999999998] [0.25900000000000001:511.03199999999998] [0.25900000000000001:511.03199999999998] [0.25900000000000001:511.03199999999998] [0.25900000000000001:511.03199999999998] [0.25900000000000001:511.03199999999998] [0.25900000000000001:511.03199999999998] [0.25900000000000001:511.03199999999998] [0.25900000000000001:511.03199999999998] [0.25900000000000001:511.03199999999998] [0.25900000000000001:511.03199999999998] [0.25900000000000001:511.03199999999998] [0.25900000000000001:511.03199999999998] [0.25900000000000001:511.03199999999998] [0.25900000000000001:511.03199999999998] [0.25900000000000001:511.03199999999998] [0.25900000000000001:511.03199999999998] [0.25900000000000001:511.03199999999998] [0.25900000000000001:511.03199999999998] [0.25900000000000001:511.03199999999998] [0.25900000000000001:511.03199999999998] [0.25900000000000001:511.03199999999998] [0.25900000000000001:511.03199999999998] [0.25900000000000001:511.03199999999998] [0.25900000000000001:511.03199999999998] [0.25900000000000001:511.03199999999998] [0.25900000000000001:511.03199999999998] [0.25900000000000001:511.03199999999998] [0.25900000000000001:511.03199999999998] [0.25900000000000001:511.03199999999998] [0.25900000000000001:511.03199999999998] [0.25900000000000001:511.03199999999998] [0.25900000000000001:511.03199999999998] [0.25900000000000001:511.03199999999998] [0.25900000000000001:511.03199999999998] [0.25900000000000001:511.03199999999998] [0.25900000000000001:511.03199999999998] [0.25900000000000001:511.03199999999998] [0.25900000000000001:511.03199999999998] [0.25900000000000001:511.03199999999998] [0.25900000000000001:511.03199999999998] [0.25900000000000001:511.03199999999998] [0.25900000000000001:511.03199999999998] [0.25900000000000001:511.03199999999998] [0.25900000000000001:511.03199999999998] [0.25900000000000001:511.03199999999998] [0.25900000000000001:511.03199999999998] [0.25900000000000001:511.03199999999998] [0.25900000000000001:511.03199999999998] [0.25900000000000001:511.03199999999998] [0.25900000000000001:511.03199999999998] [0.25900000000000001:511.03199999999998] [0.25900000000000001:511.03199999999998] [0.25900000000000001:511.03199999999998] [0.25900000000000001:511.03199999999998] [0.25900000000000001:511.03199999999998] [0.25900000000000001:511.03199999999998] [0.25900000000000001:511.03199999999998] [0.25900000000000001:511.03199999999998] [0.25900000000000001:511.03199999999998] [0.25900000000000001:511.03199999999998] [0.25900000000000001:511.03199999999998] [0.25900000000000001:511.03199999999998] [0.25900000000000001:511.03199999999998] [0.25900000000000001:511.03199999999998] [0.25900000000000001:511.03199999999998] [0.25900000000000001:511.03199999999998] [0.25900000000000001:511.03199999999998] [0.25900000000000001:511.03199999999998] [0.25900000000000001:511.03199999999998] [0.25900000000000001:511.03199999999998] [0.25900000000000001:511.03199999999998] [0.25900000000000001:511.03199999999998] [0.25900000000000001:511.03199999999998] [0.25900000000000001:511.03199999999998] [0.25900000000000001:511.03199999999998] [0.25900000000000001:511.03199999999998] [0.25900000000000001:511.03199999999998] [0.25900000000000001:511.03199999999998] [0.25900000000000001:511.03199999999998] [0.25900000000000001:511.03199999999998] [0.25900000000000001:511.03199999999998] [0.25900000000000001:511.03199999999998] [0.25900000000000001:511.03199999999998] [0.25900000000000001:511.03199999999998] [0.25900000000000001:511.03199999999998] [0.25900000000000001:511.03199999999998] [0.25900000000000001:511.03199999999998] [0.25900000000000001:511.03199999999998] [0.25900000000000001:511.03199999999998] [0.25900000000000001:511.03199999999998] [0.25900000000000001:511.03199999999998] [0.25900000000000001:511.03199999999998] [0.25900000000000001:511.03199999999998] [0.25900000000000001:511.03199999999998] [0.25900000000000001:511.03199999999998] [0.25900000000000001:511.03199999999998] [0.25900000000000001:511.03199999999998] [0.25900000000000001:511.03199999999998] [0.25900000000000001:511.03199999999998] [0.25900000000000001:511.03199999999998] [0.25900000000000001:511.03199999999998] [0.25900000000000001:511.03199999999998] [0.25900000000000001:511.03199999999998] [0.25900000000000001:511.03199999999998] [0.25900000000000001:511.03199999999998] [0.25900000000000001:511.03199999999998] [0.25900000000000001:511.03199999999998] [0.25900000000000001:511.03199999999998] [0.25900000000000001:511.03199999999998] [0.25900000000000001:511.03199999999998] [0.25900000000000001:511.03199999999998] [0.25900000000000001:511.03199999999998] [0.25900000000000001:511.03199999999998] [0.25900000000000001:511.03199999999998] [0.25900000000000001:511.03199999999998] [0.25900000000000001:511.03199999999998] [0.25900000000000001:511.03199999999998] [0.25900000000000001:511.03199999999998] [0.25900000000000001:511.03199999999998] [0.25900000000000001:511.03199999999998] [0.25900000000000001:511.03199999999998] [0.25900000000000001:511.03199999999998] [0.25900000000000001:511.03199999999998] [0.25900000000000001:511.03199999999998] [0.25900000000000001:511.03199999999998] [0.25900000000000001:511.03199999999998] [0.25900000000000001:511.03199999999998] [0.25900000000000001:511.03199999999998] [0.25900000000000001:511.03199999999998] [0.25900000000000001:511.03199999999998] [0.25900000000000001:511.03199999999998] [0.25900000000000001:511.03199999999998] [0.25900000000000001:511.03199999999998] [0.25900000000000001:511.03199999999998] [0.25900000000000001:511.03199999999998] [0.25900000000000001:511.03199999999998] [0.25900000000000001:511.03199999999998] [0.25900000000000001:511.03199999999998] [0.25900000000000001:511.03199999999998] [0.25900000000000001:511.03199999999998] [0.25900000000000001:511.03199999999998] [0.25900000000000001:511.03199999999998] [0.25900000000000001:511.03199999999998] [0.25900000000000001:511.03199999999998] [0.25900000000000001:511.03199999999998] [0.25900000000000001:511.03199999999998] [0.25900000000000001:511.03199999999998] [0.25900000000000001:511.03199999999998] [0.25900000000000001:511.03199999999998] [0.25900000000000001:511.03199999999998] [0.25900000000000001:511.03199999999998] [0.25900000000000001:511.03199999999998] [0.25900000000000001:511.03199999999998] [0.25900000000000001:511.03199999999998] [0.25900000000000001:511.03199999999998] [0.25900000000000001:511.03199999999998] [0.25900000000000001:511.03199999999998] [0.25900000000000001:511.03199999999998] [0.25900000000000001:511.03199999999998] [0.25900000000000001:511.03199999999998] [0.25900000000000001:511.03199999999998] [0.25900000000000001:511.03199999999998] [0.25900000000000001:511.03199999999998] [0.25900000000000001:511.03199999999998] [0.25900000000000001:511.03199999999998] [0.25900000000000001:511.03199999999998] [0.25900000000000001:511.03199999999998] [0.25900000000000001:511.03199999999998] [0.25900000000000001:511.03199999999998] [0.25900000000000001:511.03199999999998] [0.25900000000000001:511.03199999999998] [0.25900000000000001:511.03199999999998] [0.25900000000000001:511.03199999999998] [0.25900000000000001:511.03199999999998] [0.25900000000000001:511.03199999999998] [0.25900000000000001:511.03199999999998] [0.25900000000000001:511.03199999999998] [0.25900000000000001:511.03199999999998] [0.25900000000000001:511.03199999999998] [0.25900000000000001:511.03199999999998] [0.25900000000000001:511.03199999999998] [0.25900000000000001:511.03199999999998] [0.25900000000000001:511.03199999999998] [0.25900000000000001:511.03199999999998] [0.25900000000000001:511.03199999999998] [0.25900000000000001:511.03199999999998] [0.25900000000000001:511.03199999999998] [0.25900000000000001:511.03199999999998] [0.25900000000000001:511.03199999999998] [0.25900000000000001:511.03199999999998] [0.25900000000000001:511.03199999999998] [0.25900000000000001:511.03199999999998] [0.25900000000000001:511.03199999999998] [0.25900000000000001:511.03199999999998] [0.25900000000000001:511.03199999999998] [0.25900000000000001:511.03199999999998] [0.25900000000000001:511.03199999999998] [0.25900000000000001:511.03199999999998] [0.25900000000000001:511.03199999999998] [0.25900000000000001:511.03199999999998] [0.25900000000000001:511.03199999999998] [0.25900000000000001:511.03199999999998] [0.25900000000000001:511.03199999999998] [0.25900000000000001:511.03199999999998] [0.25900000000000001:511.03199999999998] [0.25900000000000001:511.03199999999998] [0.25900000000000001:511.03199999999998] [0.25900000000000001:511.03199999999998] [0.25900000000000001:511.03199999999998] [0.25900000000000001:511.03199999999998] [0.25900000000000001:511.03199999999998] [0.25900000000000001:511.03199999999998] [0.25900000000000001:511.03199999999998] [0.25900000000000001:511.03199999999998] [0.25900000000000001:511.03199999999998] [0.25900000000000001:511.03199999999998] [0.25900000000000001:511.03199999999998] [0.25900000000000001:511.03199999999998] [0.25900000000000001:511.03199999999998] [0.25900000000000001:511.03199999999998] [0.25900000000000001:511.03199999999998] [0.25900000000000001:511.03199999999998] [0.25900000000000001:511.03199999999998] [0.25900000000000001:511.03199999999998] [0.25900000000000001:511.03199999999998] [0.25900000000000001:511.03199999999998] [0.25900000000000001:511.03199999999998] [0.25900000000000001:511.03199999999998] [0.25900000000000001:511.03199999999998] [0.25900000000000001:511.03199999999998] [0.25900000000000001:511.03199999999998] [0.25900000000000001:511.03199999999998] [0.25900000000000001:511.03199999999998] [0.25900000000000001:511.03199999999998] [0.25900000000000001:511.03199999999998] [0.25900000000000001:511.03199999999998] [0.25900000000000001:511.03199999999998] [0.25900000000000001:511.03199999999998] [0.25900000000000001:511.03199999999998] [0.25900000000000001:511.03199999999998] [0.25900000000000001:511.03199999999998] [0.25900000000000001:511.03199999999998] [0.25900000000000001:511.03199999999998] [0.25900000000000001:511.03199999999998] [0.25900000000000001:511.03199999999998] [0.25900000000000001:511.03199999999998] [0.25900000000000001:511.03199999999998] [0.25900000000000001:511.03199999999998] [0.25900000000000001:511.03199999999998] [0.25900000000000001:511.03199999999998] [0.25900000000000001:511.03199999999998] [0.25900000000000001:511.03199999999998] [0.25900000000000001:511.03199999999998] [0.25900000000000001:511.03199999999998] [0.25900000000000001:511.03199999999998] [0.25900000000000001:511.03199999999998] [0.25900000000000001:511.03199999999998] [0.25900000000000001:511.03199999999998] [0.25900000000000001:511.03199999999998] [0.25900000000000001:511.03199999999998] [0.25900000000000001:511.03199999999998] [0.25900000000000001:511.03199999999998] [0.25900000000000001:511.03199999999998] [0.25900000000000001:511.03199999999998] [0.25900000000000001:511.03199999999998] [0.25900000000000001:511.03199999999998] [0.25900000000000001:511.03199999999998] [0.25900000000000001:511.03199999999998] [0.25900000000000001:511.03199999999998] [0.25900000000000001:511.03199999999998] [0.25900000000000001:511.03199999999998] [0.25900000000000001:511.03199999999998] [0.25900000000000001:511.03199999999998] [0.25900000000000001:511.03199999999998] [0.25900000000000001:511.03199999999998] [0.25900000000000001:511.03199999999998] [0.25900000000000001:511.03199999999998] [0.25900000000000001:511.03199999999998] [0.25900000000000001:511.03199999999998] [0.25900000000000001:511.03199999999998] [0.25900000000000001:511.03199999999998] [0.25900000000000001:511.03199999999998] [0.25900000000000001:511.03199999999998] [0.25900000000000001:511.03199999999998] [0.25900000000000001:511.03199999999998] [0.25900000000000001:511.03199999999998] [0.25900000000000001:511.03199999999998] [0.25900000000000001:511.03199999999998] [0.25900000000000001:511.03199999999998] [0.25900000000000001:511.03199999999998] [0.25900000000000001:511.03199999999998] [0.25900000000000001:511.03199999999998] [0.25900000000000001:511.03199999999998] [0.25900000000000001:511.03199999999998] [0.25900000000000001:511.03199999999998] [0.25900000000000001:511.03199999999998] [0.25900000000000001:511.03199999999998] [0.25900000000000001:511.03199999999998] [0.25900000000000001:511.03199999999998] [0.25900000000000001:511.03199999999998] [0.25900000000000001:511.03199999999998] [0.25900000000000001:511.03199999999998] [0.25900000000000001:511.03199999999998] [0.25900000000000001:511.03199999999998] [0.25900000000000001:511.03199999999998] [0.25900000000000001:511.03199999999998] [0.25900000000000001:511.03199999999998] [0.25900000000000001:511.03199999999998] [0.25900000000000001:511.03199999999998] [0.25900000000000001:511.03199999999998] [0.25900000000000001:511.03199999999998] [0.25900000000000001:511.03199999999998] [0.25900000000000001:511.03199999999998] [0.25900000000000001:511.03199999999998] [0.25900000000000001:511.03199999999998] [0.25900000000000001:511.03199999999998] [0.25900000000000001:511.03199999999998] [0.25900000000000001:511.03199999999998] [0.25900000000000001:511.03199999999998] [0.25900000000000001:511.03199999999998] [0.25900000000000001:511.03199999999998] [0.25900000000000001:511.03199999999998] [0.25900000000000001:511.03199999999998] [0.25900000000000001:511.03199999999998] [0.25900000000000001:511.03199999999998] [0.25900000000000001:511.03199999999998] [0.25900000000000001:511.03199999999998] [0.25900000000000001:511.03199999999998] [0.25900000000000001:511.03199999999998] [0.25900000000000001:511.03199999999998] [0.25900000000000001:511.03199999999998] [0.25900000000000001:511.03199999999998] [0.25900000000000001:511.03199999999998] [0.25900000000000001:511.03199999999998] [0.25900000000000001:511.03199999999998] [0.25900000000000001:511.03199999999998] [0.25900000000000001:511.03199999999998] [0.25900000000000001:511.03199999999998] [0.25900000000000001:511.03199999999998] [0.25900000000000001:511.03199999999998] [0.25900000000000001:511.03199999999998] [0.25900000000000001:511.03199999999998] [0.25900000000000001:511.03199999999998] [0.25900000000000001:511.03199999999998] [0.25900000000000001:511.03199999999998] [0.25900000000000001:511.03199999999998] [0.25900000000000001:511.03199999999998] [0.25900000000000001:511.03199999999998] [0.25900000000000001:511.03199999999998] [0.25900000000000001:511.03199999999998] [0.25900000000000001:511.03199999999998] [0.25900000000000001:511.03199999999998] [0.25900000000000001:511.03199999999998] [0.25900000000000001:511.03199999999998] [0.25900000000000001:511.03199999999998] [0.25900000000000001:511.03199999999998] [0.25900000000000001:511.03199999999998] [0.25900000000000001:511.03199999999998] [0.25900000000000001:511.03199999999998] [0.25900000000000001:511.03199999999998] [0.25900000000000001:511.03199999999998] [0.25900000000000001:511.03199999999998] [0.25900000000000001:511.03199999999998] [0.25900000000000001:511.03199999999998] [0.25900000000000001:511.03199999999998] [0.25900000000000001:511.03199999999998] [0.25900000000000001:511.03199999999998] [0.25900000000000001:511.03199999999998] [0.25900000000000001:511.03199999999998] [0.25900000000000001:511.03199999999998] [0.25900000000000001:511.03199999999998] [0.25900000000000001:511.03199999999998] [0.25900000000000001:511.03199999999998] [0.25900000000000001:511.03199999999998] [0.25900000000000001:511.03199999999998] [0.25900000000000001:511.03199999999998] [0.25900000000000001:511.03199999999998] [0.25900000000000001:511.03199999999998] [0.25900000000000001:511.03199999999998] [0.25900000000000001:511.03199999999998] [0.25900000000000001:511.03199999999998] [0.25900000000000001:511.03199999999998] [0.25900000000000001:511.03199999999998] [0.25900000000000001:511.03199999999998] [0.25900000000000001:511.03199999999998] [0.25900000000000001:511.03199999999998] [0.25900000000000001:511.03199999999998] [0.25900000000000001:511.03199999999998] [0.25900000000000001:511.03199999999998] [0.25900000000000001:511.03199999999998] [0.25900000000000001:511.03199999999998] [0.25900000000000001:511.03199999999998] [0.25900000000000001:511.03199999999998] [0.25900000000000001:511.03199999999998] [0.25900000000000001:511.03199999999998] [0.25900000000000001:511.03199999999998] [0.25900000000000001:511.03199999999998] [0.25900000000000001:511.03199999999998] [0.25900000000000001:511.03199999999998] [0.25900000000000001:511.03199999999998] [0.25900000000000001:511.03199999999998] [0.25900000000000001:511.03199999999998] [0.25900000000000001:511.03199999999998] [0.25900000000000001:511.03199999999998] [0.25900000000000001:511.03199999999998] [0.25900000000000001:511.03199999999998] [0.25900000000000001:511.03199999999998] [0.25900000000000001:511.03199999999998] [0.25900000000000001:511.03199999999998] [0.25900000000000001:511.03199999999998] [0.25900000000000001:511.03199999999998] [0.25900000000000001:511.03199999999998] [0.25900000000000001:511.03199999999998] [0.25900000000000001:511.03199999999998] [0.25900000000000001:511.03199999999998] [0.25900000000000001:511.03199999999998] [0.25900000000000001:511.03199999999998] [0.25900000000000001:511.03199999999998] [0.25900000000000001:511.03199999999998] [0.25900000000000001:511.03199999999998] [0.25900000000000001:511.03199999999998] [0.25900000000000001:511.03199999999998] [0.25900000000000001:511.03199999999998] [0.25900000000000001:511.03199999999998] [0.25900000000000001:511.03199999999998] [0.25900000000000001:511.03199999999998] [0.25900000000000001:511.03199999999998] [0.25900000000000001:511.03199999999998] [0.25900000000000001:511.03199999999998] [0.25900000000000001:511.03199999999998] [0.25900000000000001:511.03199999999998] [0.25900000000000001:511.03199999999998] [0.25900000000000001:511.03199999999998] [0.25900000000000001:511.03199999999998] [0.25900000000000001:511.03199999999998] [0.25900000000000001:511.03199999999998] [0.25900000000000001:511.03199999999998] [0.25900000000000001:511.03199999999998] [0.25900000000000001:511.03199999999998] [0.25900000000000001:511.03199999999998] [0.25900000000000001:511.03199999999998] [0.25900000000000001:511.03199999999998] [0.25900000000000001:511.03199999999998] [0.25900000000000001:511.03199999999998] [0.25900000000000001:511.03199999999998] [0.25900000000000001:511.03199999999998] [0.25900000000000001:511.03199999999998] [0.25900000000000001:511.03199999999998] [0.25900000000000001:511.03199999999998] [0.25900000000000001:511.03199999999998] [0.25900000000000001:511.03199999999998] [0.25900000000000001:511.03199999999998] [0.25900000000000001:511.03199999999998] [0.25900000000000001:511.03199999999998] [0.25900000000000001:511.03199999999998] [0.25900000000000001:511.03199999999998] [0.25900000000000001:511.03199999999998] [0.25900000000000001:511.03199999999998] [0.25900000000000001:511.03199999999998] [0.25900000000000001:511.03199999999998] [0.25900000000000001:511.03199999999998] [0.25900000000000001:511.03199999999998] [0.25900000000000001:511.03199999999998] [0.25900000000000001:511.03199999999998] [0.25900000000000001:511.03199999999998] [0.25900000000000001:511.03199999999998] [0.25900000000000001:511.03199999999998] [0.25900000000000001:511.03199999999998] [0.25900000000000001:511.03199999999998] [0.25900000000000001:511.03199999999998] [0.25900000000000001:511.03199999999998] [0.25900000000000001:511.03199999999998] [0.25900000000000001:511.03199999999998] [0.25900000000000001:511.03199999999998] [0.25900000000000001:511.03199999999998] [0.25900000000000001:511.03199999999998] [0.25900000000000001:511.03199999999998] [0.25900000000000001:511.03199999999998] [0.25900000000000001:511.03199999999998] [0.25900000000000001:511.03199999999998] [0.25900000000000001:511.03199999999998] [0.25900000000000001:511.03199999999998] [0.25900000000000001:511.03199999999998] [0.25900000000000001:511.03199999999998] [0.25900000000000001:511.03199999999998] [0.25900000000000001:511.03199999999998] [0.25900000000000001:511.03199999999998] [0.25900000000000001:511.03199999999998] [0.25900000000000001:511.03199999999998] [0.25900000000000001:511.03199999999998] [0.25900000000000001:511.03199999999998] [0.25900000000000001:511.03199999999998] [0.25900000000000001:511.03199999999998] [0.25900000000000001:511.03199999999998] [0.25900000000000001:511.03199999999998] [0.25900000000000001:511.03199999999998] [0.25900000000000001:511.03199999999998] [0.25900000000000001:511.03199999999998] [0.25900000000000001:511.03199999999998] [0.25900000000000001:511.03199999999998] [0.25900000000000001:511.03199999999998] [0.25900000000000001:511.03199999999998] [0.25900000000000001:511.03199999999998] [0.25900000000000001:511.03199999999998] [0.25900000000000001:511.03199999999998] [0.25900000000000001:511.03199999999998] [0.25900000000000001:511.03199999999998] [0.25900000000000001:511.03199999999998] [0.25900000000000001:511.03199999999998] [0.25900000000000001:511.03199999999998] [0.25900000000000001:511.03199999999998] [0.25900000000000001:511.03199999999998] [0.25900000000000001:511.03199999999998] [0.25900000000000001:511.03199999999998] [0.25900000000000001:511.03199999999998] [0.25900000000000001:511.03199999999998] [0.25900000000000001:511.03199999999998] [0.25900000000000001:511.03199999999998] [0.25900000000000001:511.03199999999998] [0.25900000000000001:511.03199999999998] [0.25900000000000001:511.03199999999998] [0.25900000000000001:511.03199999999998] [0.25900000000000001:511.03199999999998] [0.25900000000000001:511.03199999999998] [0.25900000000000001:511.03199999999998] [0.25900000000000001:511.03199999999998] [0.25900000000000001:511.03199999999998] [0.25900000000000001:511.03199999999998] [0.25900000000000001:511.03199999999998] [0.25900000000000001:511.03199999999998] [0.25900000000000001:511.03199999999998] [0.25900000000000001:511.03199999999998] [0.25900000000000001:511.03199999999998] [0.25900000000000001:511.03199999999998] [0.25900000000000001:511.03199999999998] [0.25900000000000001:511.03199999999998] [0.25900000000000001:511.03199999999998] [0.25900000000000001:511.03199999999998] [0.25900000000000001:511.03199999999998] [0.25900000000000001:511.03199999999998] [0.25900000000000001:511.03199999999998] [0.25900000000000001:511.03199999999998] [0.25900000000000001:511.03199999999998] [0.25900000000000001:511.03199999999998] [0.25900000000000001:511.03199999999998] [0.25900000000000001:511.03199999999998] [0.25900000000000001:511.03199999999998] [0.25900000000000001:511.03199999999998] [0.25900000000000001:511.03199999999998] [0.25900000000000001:511.03199999999998] [0.25900000000000001:511.03199999999998] [0.25900000000000001:511.03199999999998] [0.25900000000000001:511.03199999999998] [0.25900000000000001:511.03199999999998] [0.25900000000000001:511.03199999999998] [0.25900000000000001:511.03199999999998] [0.25900000000000001:511.03199999999998] [0.25900000000000001:511.03199999999998] [0.25900000000000001:511.03199999999998] [0.25900000000000001:511.03199999999998] [0.25900000000000001:511.03199999999998] [0.25900000000000001:511.03199999999998] [0.25900000000000001:511.03199999999998] [0.25900000000000001:511.03199999999998] [0.25900000000000001:511.03199999999998] [0.25900000000000001:511.03199999999998] [0.25900000000000001:511.03199999999998] [0.25900000000000001:511.03199999999998] [0.25900000000000001:511.03199999999998] [0.25900000000000001:511.03199999999998] [0.25900000000000001:511.03199999999998] [0.25900000000000001:511.03199999999998] [0.25900000000000001:511.03199999999998] [0.25900000000000001:511.03199999999998] [0.25900000000000001:511.03199999999998] [0.25900000000000001:511.03199999999998] [0.25900000000000001:511.03199999999998] [0.25900000000000001:511.03199999999998] [0.25900000000000001:511.03199999999998] [0.25900000000000001:511.03199999999998] [0.25900000000000001:511.03199999999998] [0.25900000000000001:511.03199999999998] [0.25900000000000001:511.03199999999998] [0.25900000000000001:511.03199999999998] [0.25900000000000001:511.03199999999998] [0.25900000000000001:511.03199999999998] [0.25900000000000001:511.03199999999998] [0.25900000000000001:511.03199999999998] [0.25900000000000001:511.03199999999998] [0.25900000000000001:511.03199999999998] [0.25900000000000001:511.03199999999998] [0.25900000000000001:511.03199999999998] [0.25900000000000001:511.03199999999998] [0.25900000000000001:511.03199999999998] [0.25900000000000001:511.03199999999998] [0.25900000000000001:511.03199999999998] [0.25900000000000001:511.03199999999998] [0.25900000000000001:511.03199999999998] [0.25900000000000001:511.03199999999998] [0.25900000000000001:511.03199999999998] [0.25900000000000001:511.03199999999998] [0.25900000000000001:511.03199999999998] [0.25900000000000001:511.03199999999998] [0.25900000000000001:511.03199999999998] [0.25900000000000001:511.03199999999998] [0.25900000000000001:511.03199999999998] [0.25900000000000001:511.03199999999998] [0.25900000000000001:511.03199999999998] [0.25900000000000001:511.03199999999998] [0.25900000000000001:511.03199999999998] [0.25900000000000001:511.03199999999998] [0.25900000000000001:511.03199999999998] [0.25900000000000001:511.03199999999998] [0.25900000000000001:511.03199999999998] [0.25900000000000001:511.03199999999998] [0.25900000000000001:511.03199999999998] [0.25900000000000001:511.03199999999998] [0.25900000000000001:511.03199999999998] [0.25900000000000001:511.03199999999998] [0.25900000000000001:511.03199999999998] [0.25900000000000001:511.03199999999998] [0.25900000000000001:511.03199999999998] [0.25900000000000001:511.03199999999998] [0.25900000000000001:511.03199999999998] [0.25900000000000001:511.03199999999998] [0.25900000000000001:511.03199999999998] [0.25900000000000001:511.03199999999998] [-1:1] [-1:1] [-0.97492791218182417:0.97492791218182462] [-0.90096886790242003:1] [-1:1] [-1:1] [0:8759] [0:3] [1:4] [0:1] [1:365] [0:6] [0:1] [0:1] [0:1] [0:1] [0:1] [0:1] [0:364.95833333333331] none [0:6] [-10.522:37.323] [0.182:7.3730000000000002] [12.167:100] [979.30499999999995:1027.644]
tree_sizes=2729 2775 2769 2768 2750 2777 2773 2778 2761 2771 2776 2756 2767 2783 2770 2800 2780 2780 2800 2802 2761 2788 2784 2805 2753 2800 2755 2779 2756 2806 2789 2784 2770 2790 2804 2791 2793 2787 2791 2763 2781 2789 2800 2803 2806 2797 2810 2773 2791 2803 2828 2829 2791 2789 2825 2819 2825 2825 2839 2775 2801 2797 2817 2787 2808 2766 2806 2798 2774 2817 2759 2773 2824 2717 2790 2784 2790 2829 2822 2806 2825 2847 2775 2797 2819 2808 2822 2799 2798 2815 2763 2842 2811 2775 2830 2861 2814 2827 2795 2758

Tree=0
num_leaves=31
num_cat=0
split_feature=4 4 4 4 4 4 4 4 4 4 4 4 4 4 4 266 681 698 698 681 698 698 698 698 474 698 22 681 698 24
split_gain=1.3515e+07 3.08825e+06 2.71067e+06 592838 531511 381398 364094 82668.8 78097.9 76468.3 75622.9 67157.5 56435.7 46095.6 44520.9 30513.7 27176.1 24582.3 22489.7 22098.5 21533.1 20724.8 20054.3 19867.1 19611.3 15059.3 15430.9 14757.4 13429.8 12841.3
threshold=93.385500000000022 144.98550000000003 60.162500000000009 114.724 37.213000000000008 76.02200000000002 177.51850000000002 217.70450000000002 127.88500000000001 100.49050000000001 17.547500000000003 50.335500000000003 85.480000000000018 66.903000000000006 159.16300000000004 187.36100000000002 -0.60355339059327384 0.74350000000000016 0.97950000000000015 -0.70710678118654757 0.88850000000000018 0.94350000000000012 0.85150000000000003 0.94350000000000012 108.79850000000002 0.77850000000000008 76.69250000000001 -0.60355339059327384 1.0985000000000003 101.90900000000001
decision_type=2 2 2 2 2 2 2 2 2 2 2 2 2 2 2 2 2 2 2 2 2 2 2 2 2 2 2 2 2 2
left_child=2 3 4 9 10 13 14 -8 20 23 -1 25 18 -4 -3 17 -11 -15 -7 -10 -5 -12 -14 -2 -9 -6 -27 -13 -18 -19
right_child=1 6 5 8 11 12 7 24 19 16 21 27 22 15 -16 -17 28 29 -20 -21 -22 -23 -24 -25 -26 26 -28 -29 -30 -31
leaf_value=79.673727607020112 83.18288556816232 86.220893799913611 81.968381841464776 84.235556313844455 80.935921218176446 82.520504350205968 88.155405401814193 89.402074510440286 85.805318134014712 84.379030019946399 80.307549017780133 81.849643813068823 82.85864030957427 81.987146341105003 87.028389964214455 84.248237310662887 83.748185470241737 82.378852903379553 82.90365142743056 85.223663738934377 84.855216679550139 80.750125447954531 83.302641145520866 83.677840648611479 91.390310367190438 81.133167300489461 81.573948064505188 81.512703765936521 84.092918625639129 82.820031684293397
leaf_weight=402 273 396 1334 180 564 560 325 41 259 559 751 480 325 381 327 21 499 1048 1227 533 810 455 1127 849 24 669 309 1195 724 201
leaf_count=402 273 396 1334 180 564 560 325 41 259 559 751 480 325 381 327 21 499 1048 1227 533 810 455 1127 849 24 669 309 1195 724 201
internal_value=82.9317 84.8865 81.9058 84.3239 81.0163 82.5955 87.2544 88.4894 85.0422 83.8829 80.2734 81.3879 82.971 82.1878 86.5871 82.3655 84.087 82.3408 82.7832 85.4148 84.7433 80.4739 83.2027 83.5581 90.1477 81.1484 81.2717 81.6088 83.9529 82.4493
internal_weight=0 5799 11049 4686 4825 6224 1113 390 1782 2904 1608 3217 3239 2985 723 1651 1782 1630 1787 792 990 1206 1452 1122 65 1542 978 1675 1223 1249
internal_count=16848 5799 11049 4686 4825 6224 1113 390 1782 2904 1608 3217 3239 2985 723 1651 1782 1630 1787 792 990 1206 1452 1122 65 1542 978 1675 1223 1249
is_linear=0
shrinkage=1


Tree=1
num_leaves=31
num_cat=0
split_feature=4 4 4 4 4 4 4 4 4 4 4 4 4 4 698 698 681 698 681 4 698 698 474 698 26 698 628 190 24 4
split_gain=1.21983e+07 2.78723e+06 2.44645e+06 535008 479634 346620 328523 74497.5 71616.1 69127.1 69104.6 68168.2 60573 40075.9 32859.2 26295.7 23466.7 21517.8 20260.3 18737.7 18634.1 18106.7 17493.5 16716.9 14275.9 13445.5 12711.4 12548.7 11740.6 11556.8
threshold=93.385500000000022 144.98550000000003 60.162500000000009 114.724 37.213000000000008 73.557500000000019 177.51850000000002 217.70450000000002 124.98600000000002 102.92450000000001 85.480000000000018 17.547500000000003 50.335500000000003 159.16300000000004 0.95950000000000013 0.69350000000000012 -0.60355339059327384 0.96950000000000014 -0.37940952255126015 66.903000000000006 0.94350000000000012 0.85150000000000003 108.79850000000002 1.1635000000000002 63.523000000000003 0.82350000000000001 187.36100000000002 97.350000000000009 99.15000000000002 187.36100000000002
decision_type=2 2 2 2 2 2 2 2 2 2 2 2 2 2 2 2 2 2 2 2 2 2 2 2 2 2 2 2 2 2
left_child=2 3 4 9 11 15 13 29 23 17 14 -1 24 -3 -7 -4 -10 -2 -11 -17 -13 -12 -9 -5 -6 -14 28 -27 -16 -8
right_child=1 6 5 8 12 10 7 22 16 18 21 20 25 -15 26 19 -18 -19 -20 -21 -22 -23 -24 -25 -26 27 -28 -29 -30 -31
leaf_value=-3.0951151272550748 0.32459367690304219 3.1246926837497289 -1.0792657107405514 1.2823057690686843 -1.8317799542133415 -0.470074868165542 4.5506652252490705 6.1468146766104352 2.6321359938469486 1.3789740016521552 -0.069448025336059246 -2.4929847702364154 -1.4637227032758013 3.8918140325342119 -0.15106942109135049 -0.83446147887808531 2.1065053816081942 0.77113675250245661 0.99176235614814967 -0.52251828134170164 -2.0725371601993401 0.35235277953579985 8.0356389681498221 1.7998145524004419 -1.5141274550935226 -1.2426124339864266 1.1633666468163333 -0.82245466278224189 0.17387410929329059 5.2331749494564841
leaf_weight=402 368 396 551 235 872 698 130 41 345 585 325 751 553 327 1168 1025 645 1084 867 946 455 1127 24 557 670 884 21 238 363 195
leaf_count=402 368 396 551 235 872 698 130 41 345 585 325 751 553 327 1168 1025 645 1084 867 946 455 1127 24 557 670 884 21 238 363 195
internal_value=0 1.85708 -0.974675 1.32262 -1.81972 -0.319454 4.10663 5.27995 2.00498 0.90364 -0.0112732 -2.52548 -1.46672 3.47269 -0.185006 -0.771531 2.29044 0.65848 1.14828 -0.685122 -2.33498 0.257425 6.85577 1.64721 -1.69425 -1.25681 -0.0563158 -1.15416 -0.0735355 4.96248
internal_weight=0 5799 11049 4686 4825 6224 1113 390 1782 2904 3702 1608 3217 723 2250 2522 990 1452 1452 1971 1206 1452 65 792 1542 1675 1552 1122 1531 325
internal_count=16848 5799 11049 4686 4825 6224 1113 390 1782 2904 3702 1608 3217 723 2250 2522 990 1452 1452 1971 1206 1452 65 792 1542 1675 1552 1122 1531 325
is_linear=0
shrinkage=0.05


Tree=2
num_leaves=31
num_cat=0
split_feature=4 4 4 4 4 4 4 4 4 4 4 4 698 4 4 4 4 681 698 681 681 474 4 681 681 681 681 211 218 698
split_gain=1.10145e+07 2.67741e+06 2.04422e+06 454789 388710 366458 340386 88768.6 65084.5 49284.2 47528.2 46790 46089.5 43385.3 33897.9 32148.4 26995.7 21074.9 17770.8 16651.1 16059.5 15592.5 14749.5 14322.7 14222.1 14033.8 13907.3 13791.6 12739.9 12550.4
threshold=91.675500000000014 136.17950000000005 57.608500000000006 169.31200000000004 112.42750000000002 34.909500000000001 73.557500000000019 217.70450000000002 99.631500000000017 17.547500000000003 45.821000000000005 148.64200000000002 0.84050000000000014 123.19150000000002 66.177500000000023 84.753500000000017 187.36100000000002 -0.37940952255126015 0.88850000000000018 -0.60355339059327384 -0.5 108.79850000000002 78.957000000000008 -0.60355339059327384 -0.60355339059327384 -0.60355339059327384 -0.70710678118654757 187.36100000000002 41.803000000000004 0.76850000000000007
decision_type=2 2 2 2 2 2 2 2 2 2 2 2 2 2 2 2 2 2 2 2 2 2 2 2 2 2 2 2 2 2
left_child=2 4 5 11 8 9 14 16 20 -1 29 -3 22 18 24 27 -5 -10 -6 -16 -2 -9 -8 -15 -4 -12 -13 -14 -11 -7
right_child=1 3 6 7 13 10 12 21 17 28 25 26 15 23 19 -17 -18 -19 -20 -21 -22 -23 -24 -25 -26 -27 -28 -29 -30 -31
leaf_value=-2.940359360187208 0.73527945108633297 2.5428031487382334 -0.70294800063257545 4.1552262276869554 1.0164942574418254 -1.9547430555384531 -0.66486731103159025 5.8394738081024915 1.1963038258436249 -2.5420973345592301 -1.0917117618424281 3.674501232584571 -0.10151253446989619 2.2876142098085723 -0.29784212798938964 0.28216030079936844 4.9715161230625249 0.82614612548047084 1.5837526255397387 -0.70152040555426498 0.36852704889190624 7.6338567733764648 -0.21912249252098898 1.8224140827914406 -1.0294214203690921 -1.4112079878821171 3.0555024806998281 1.2175152626074852 -2.1435357181935708 -1.6005254994121139
leaf_weight=402 475 462 491 260 180 443 286 41 656 331 503 157 1546 274 358 968 195 994 744 962 845 24 552 518 1180 1306 304 20 674 697
leaf_count=402 475 462 491 260 180 443 286 41 656 331 503 157 1546 274 358 968 195 994 744 962 845 24 552 518 1180 1306 304 20 674 697
internal_value=0 1.69068 -0.9667 3.57414 1.11054 -1.80128 -0.395241 4.75901 0.763932 -2.46603 -1.48387 2.90579 -0.0505826 1.70999 -0.783552 0.0554629 4.50671 0.973766 1.47406 -0.592606 0.501071 6.51355 -0.372145 1.9843 -0.933941 -1.32279 3.26794 -0.0841878 -2.27555 -1.73883
internal_weight=0 6129 10719 1443 4686 4356 6363 520 2970 1407 2949 923 3372 1716 2991 2534 455 1650 924 1320 1320 65 838 792 1671 1809 461 1566 1005 1140
internal_count=16848 6129 10719 1443 4686 4356 6363 520 2970 1407 2949 923 3372 1716 2991 2534 455 1650 924 1320 1320 65 838 792 1671 1809 461 1566 1005 1140
is_linear=0
shrinkage=0.05


Tree=3
num_leaves=31
num_cat=0
split_feature=4 4 4 4 4 4 4 4 4 4 4 4 4 4 4 681 4 698 681 681 681 306 681 697 699 681 698 23 179 681
split_gain=9.94155e+06 2.41652e+06 1.84802e+06 410408 354971 350801 287821 80020.8 58781.9 42893.1 42155.4 39381.1 37977.1 37435.7 36110.7 25148.8 24235.2 21915.9 17403.7 15593.3 15333.8 14846.9 13905.3 13750 14522.6 13347.3 13122.7 12854.1 12464.9 12458.2
threshold=91.675500000000014 136.17950000000005 55.657000000000004 169.31200000000004 73.171000000000006 112.42750000000002 33.293000000000006 217.70450000000002 99.157000000000025 81.419000000000025 148.64200000000002 121.27400000000002 45.821000000000005 15.438000000000002 66.177500000000023 -0.5 187.36100000000002 0.95250000000000001 -0.60355339059327384 -0.60355339059327384 -0.60355339059327384 84.174500000000009 -0.60355339059327384 13.367000000000003 68.610500000000016 -0.70710678118654757 0.95250000000000001 72.83150000000002 123.17750000000002 -0.70710678118654757
decision_type=2 2 2 2 2 2 2 2 2 2 2 2 2 2 2 2 2 2 2 2 2 2 2 2 2 2 2 2 2 2
left_child=2 5 6 10 14 8 13 16 26 15 -3 25 23 -1 19 28 -5 -10 -11 -4 -13 -9 -16 -8 -25 -7 -2 -15 -6 -12
right_child=1 3 4 7 9 11 12 21 17 18 29 20 -14 27 22 -17 -18 -19 -20 -21 -22 -23 -24 24 -26 -27 -28 -29 -30 -31
leaf_value=-2.8499899549626595 0.17912949063482775 2.4156630189903887 -0.6925489294990923 3.9474648446303151 -0.020207881956969598 1.6637387613149792 -1.8200956675358819 4.9096920204162604 0.58938964551347073 0.33496896947426291 3.4907762241970968 2.1389647438091304 -1.3020700932878451 -2.3332404105662881 -0.29495711799197533 -0.38580884374287894 4.7229401620229083 1.0161678853834166 0.0040228778184508802 -1.005567320626028 1.6950053883796379 6.74012439303928 -0.67373260640501487 -0.93769790923623286 -1.6107514796697577 1.2134524491314489 0.55761878678411214 -1.882551901300181 1.0631556493895393 2.9027273029285041
leaf_weight=335 311 462 579 260 496 260 753 20 403 581 157 318 1474 706 341 1062 195 1313 1271 1427 606 45 913 107 414 532 943 232 28 304
leaf_count=335 311 462 579 260 496 260 753 20 403 581 157 318 1474 706 341 1062 195 1313 1271 1427 606 45 913 107 414 532 943 232 28 304
internal_value=0 1.60624 -0.918403 3.39559 -0.409582 1.05507 -1.76579 4.52128 0.725773 -0.0549022 2.76058 1.62456 -1.47715 -2.38827 -0.783398 -0.245891 4.28146 0.916377 0.108251 -0.915593 1.84861 6.18845 -0.57133 -1.67913 -1.47396 1.36222 0.464349 -2.22257 0.0362505 3.10462
internal_weight=0 6129 10719 1443 6698 4686 4021 520 2970 3438 923 1716 2748 1273 3260 1586 455 1716 1852 2006 924 65 1254 1274 521 792 1254 938 524 461
internal_count=16848 6129 10719 1443 6698 4686 4021 520 2970 3438 923 1716 2748 1273 3260 1586 455 1716 1852 2006 924 65 1254 1274 521 792 1254 938 524 461
is_linear=0
shrinkage=0.05


Tree=4
num_leaves=31
num_cat=0
split_feature=4 4 4 4 4 4 4 4 4 4 4 4 4 4 681 266 698 681 681 4 24 681 155 681 26 24 698 240 190 698
split_gain=8.97553e+06 2.05272e+06 1.80423e+06 393359 354234 256326 242998 61889.3 54004.1 51263.4 46899.7 44854.8 38386.7 30420.4 27362.3 26936.4 21745.2 20840.9 20047.1 18194.2 15252.5 15047.8 14065.2 13098.5 12301.4 12126.3 11427.7 11383 11240.9 9823.25
threshold=93.385500000000022 144.98550000000003 60.162500000000009 115.968 37.213000000000008 77.629500000000021 177.51850000000002 105.03050000000002 217.70450000000002 21.010000000000002 130.85200000000003 50.335500000000003 66.903000000000006 159.16300000000004 -0.60355339059327384 193.50300000000001 0.74350000000000016 -0.5 -0.5 87.648500000000013 65.861500000000021 -0.60355339059327384 100.45550000000001 -0.70710678118654757 63.523000000000003 100.02850000000002 0.82350000000000001 59.363000000000007 93.783000000000015 0.68350000000000011
decision_type=2 2 2 2 2 2 2 2 2 2 2 2 2 2 2 2 2 2 2 2 2 2 2 2 2 2 2 2 2 2
left_child=2 3 4 7 9 12 13 17 -8 27 18 24 29 -3 -7 16 -14 -2 -5 -16 -11 -9 -10 -12 -6 -18 -13 -1 -28 -4
right_child=1 6 5 10 11 14 8 21 22 20 23 26 15 -15 19 -17 25 -19 -20 -21 -22 -23 -24 -25 -26 -27 28 -29 -30 -31
leaf_value=-2.7717281172208699 0.82976333257469725 2.6736451875681833 -1.038077958445653 1.821128641425042 -1.5819046404793724 0.29992139922348809 4.2615825550372781 1.3033519605734329 4.6343052434921264 -2.0981778200700534 2.4737315344432047 -1.2681990306464044 -0.75764214239916094 3.3441345578669046 -0.1435189169857761 1.3387896151769729 -0.42890613835665931 0.46418290573910348 1.3676937456774712 0.17074035587848468 -1.6772018505320787 0.93474916938517316 6.4164080725775818 1.9457842565465857 -1.2870739977274599 -0.063013190618703072 -1.0732461214017512 -2.2707586377166038 -0.69295582104349673 -0.70621470099102079
leaf_weight=321 622 396 302 431 872 891 325 426 20 733 189 553 454 327 1307 21 1223 1094 625 710 339 894 45 405 670 284 853 215 269 1032
leaf_count=321 622 396 302 431 872 891 325 426 20 733 189 553 454 327 1307 21 1223 1094 625 710 339 894 45 405 670 284 853 215 269 1032
internal_value=0 1.59301 -0.836041 1.13431 -1.56175 -0.273335 3.52357 0.796137 4.53318 -2.16836 1.75609 -1.2583 -0.573844 2.97793 0.0690772 -0.433427 -0.452788 0.597132 1.55347 -0.0325253 -1.96575 1.05428 5.87961 2.11503 -1.45429 -0.36045 -1.07743 -2.57218 -0.98274 -0.781906
internal_weight=0 5799 11049 4686 4825 6224 1113 3036 390 1608 1650 3217 3316 723 2908 1982 1961 1716 1056 2017 1072 1320 65 594 1542 1507 1675 536 1122 1334
internal_count=16848 5799 11049 4686 4825 6224 1113 3036 390 1608 1650 3217 3316 723 2908 1982 1961 1716 1056 2017 1072 1320 65 594 1542 1507 1675 536 1122 1334
is_linear=0
shrinkage=0.05


Tree=5
num_leaves=31
num_cat=0
split_feature=4 4 4 4 4 4 4 4 4 4 4 698 4 4 698 4 4 681 681 552 24 698 23 22 698 21 681 13 24 262
split_gain=8.10625e+06 1.76402e+06 1.73011e+06 370342 318850 219247 212894 59998.7 56431 48647.9 46209.2 33096.5 27369.6 27295.7 27035.7 25896 18895.1 18682.4 18062.9 14524.6 13898.3 13661.9 13869.9 13574.9 12054.5 12804.2 11761.2 11148.2 11105.9 13048.4
threshold=95.014500000000012 144.98550000000003 62.493000000000002 37.213000000000008 119.25400000000002 177.51850000000002 78.957000000000008 106.68800000000002 50.335500000000003 217.70450000000002 21.010000000000002 0.69350000000000012 159.16300000000004 130.85200000000003 0.99850000000000005 72.829000000000022 87.648500000000013 -0.37940952255126015 -0.78656609248549325 187.36100000000002 72.165500000000023 0.64650000000000019 93.006500000000017 166.17600000000002 0.77850000000000008 66.937000000000012 -0.70710678118654757 79.32050000000001 90.856500000000011 169.31200000000004
decision_type=2 2 2 2 2 2 2 2 2 2 2 2 2 2 2 2 2 2 2 2 2 2 2 2 2 2 2 2 2 2
left_child=2 4 3 10 7 12 11 17 24 -7 -1 -4 -3 -6 -8 28 -16 -2 -9 -17 -12 -10 -23 -11 27 -26 -15 -5 -13 -30
right_child=1 5 6 8 13 9 14 18 21 23 20 15 -14 26 16 19 -18 -19 -20 -21 -22 22 -24 -25 25 -27 -28 -29 29 -31
leaf_value=-2.4436398347811914 0.84270504662505175 2.5399629374196984 -0.79267571785139601 -1.7643267044465529 1.552430058082547 4.0485034831120421 -0.11581110875592282 1.4026244811085335 -1.2256264091687319 5.0173035990108144 -1.975387379515944 -0.59999645104044286 3.1769278373193304 2.3500449488402673 0.076686187600632366 -0.21307594615575853 0.38165952780171841 0.49324407030282508 0.97221789543624737 1.1436454252898693 -1.5442529321820648 -0.98801969871685102 -0.6245225834527186 6.7424706413632354 -1.4258386487609336 -1.0472063258141651 1.8484950040887904 -1.2941701101211136 -0.35515108477978158 0.94677813736721872
leaf_weight=536 633 396 651 331 792 325 852 332 470 44 802 1116 327 189 1101 926 955 1017 1054 20 270 1333 343 21 577 401 405 233 376 20
leaf_count=536 633 396 651 331 792 325 852 332 470 44 802 1116 327 189 1101 926 955 1017 1054 20 270 1333 343 21 577 401 405 233 376 20
internal_value=0 1.56799 -0.767115 -1.42621 1.11992 3.34753 -0.186874 0.832576 -1.14966 4.30671 -2.06001 -0.474562 2.82909 1.74879 0.120442 -0.390005 0.218709 0.627765 1.07586 -0.1836 -1.8675 -0.982659 -0.914076 5.5862 -1.3816 -1.27136 2.00934 -1.57143 -0.518649 -0.287503
internal_weight=0 5535 11313 5296 4422 1113 6017 3036 3688 390 1608 3109 723 1386 2908 2458 2056 1650 1386 946 1072 2146 1676 65 1542 978 594 564 1512 396
internal_count=16848 5535 11313 5296 4422 1113 6017 3036 3688 390 1608 3109 723 1386 2908 2458 2056 1650 1386 946 1072 2146 1676 65 1542 978 594 564 1512 396
is_linear=0
shrinkage=0.05


Tree=6
num_leaves=31
num_cat=0
split_feature=4 4 4 4 4 4 4 4 4 698 4 4 4 4 4 4 698 698 698 698 4 24 698 475 698 681 4 241 681 698
split_gain=7.3218e+06 1.86247e+06 1.28562e+06 303832 287106 228844 212863 58111.4 54624.8 31151.1 30528.3 29684.4 28449 27524.5 25967.5 19136.2 18764 16711.3 14219 14064 13892 13776.8 13549.3 12889.2 12519.8 11301.7 11081.1 11074.6 11026.8 10877.5
threshold=90.148500000000013 136.17950000000005 55.657000000000004 169.31200000000004 112.42750000000002 73.171000000000006 33.293000000000006 217.70450000000002 99.157000000000025 0.95950000000000013 148.64200000000002 124.98600000000002 10.887500000000001 44.930500000000009 65.151500000000013 187.36100000000002 0.77850000000000008 1.1635000000000002 0.59150000000000003 0.74350000000000016 84.753500000000017 72.165500000000023 0.9255000000000001 115.31450000000001 0.60750000000000004 -0.70710678118654757 79.33550000000001 187.36100000000002 -0.60355339059327384 1.1735000000000002
decision_type=2 2 2 2 2 2 2 2 2 2 2 2 2 2 2 2 2 2 2 2 2 2 2 2 2 2 2 2 2 2
left_child=2 4 6 10 8 14 12 15 22 26 29 17 -1 -8 28 -5 -10 -6 -14 -16 27 -20 -2 -9 -13 -12 -7 -11 -4 -3
right_child=1 3 5 7 11 9 13 23 16 20 25 24 18 -15 19 -17 -18 -19 21 -21 -22 -23 -24 -25 -26 -27 -28 -29 -30 -31
leaf_value=-2.6088763766027805 0.10216807123336398 1.7503471713595922 -0.59660454379942496 3.3793128761878379 0.92035921487193662 -0.5231039690098872 -1.4583825816285978 4.6944279135727305 0.4091216984035918 -0.072685609220390954 3.0272426777204893 0.95117527991533279 -2.1811794727616967 -1.1327984945196428 -0.7977841540120918 4.0712891221657781 0.86151214830291822 1.3618250493985431 -1.9277393210951876 -0.42525839271305688 0.21208522158192722 -1.3705341500100456 0.4576425540616027 6.3235013167063396 1.7324297333350764 2.4691701197702636 -0.17257298333920817 1.1099276778101921 -0.87695166530248569 2.275506563865124
leaf_weight=201 356 180 510 260 322 380 1140 41 281 1491 157 61 422 1608 337 195 1435 734 492 1117 705 158 1162 24 599 304 578 20 1296 282
leaf_count=201 356 180 510 260 322 380 1140 41 281 1491 157 61 422 1608 337 195 1435 734 492 1117 705 158 1162 24 599 304 578 20 1296 282
internal_value=0 1.33298 -0.815043 2.91384 0.871983 -0.376569 -1.51646 3.88271 0.594198 -0.0740965 2.36718 1.39507 -2.05191 -1.26814 -0.670833 3.67752 0.787869 1.22792 -1.94678 -0.512116 0.028585 -1.79345 0.374771 5.30747 1.66136 2.66086 -0.312397 -0.0565359 -0.798199 2.07252
internal_weight=0 6393 10455 1443 4950 6434 4021 520 3234 3174 923 1716 1273 2748 3260 455 1716 1056 1072 1454 2216 650 1518 65 660 461 958 1511 1806 462
internal_count=16848 6393 10455 1443 4950 6434 4021 520 3234 3174 923 1716 1273 2748 3260 455 1716 1056 1072 1454 2216 650 1518 65 660 461 958 1511 1806 462
is_linear=0
shrinkage=0.05


Tree=7
num_leaves=31
num_cat=0
split_feature=4 4 4 4 4 4 4 4 4 4 698 4 4 681 681 4 4 698 698 4 4 23 698 155 698 209 698 5 681 681
split_gain=6.60873e+06 1.68107e+06 1.1603e+06 274161 259110 206722 192142 52369.7 49358.1 30889.9 28378 27484.3 26753.3 22802.9 22281.9 17165.6 15666.9 15525.8 15208.9 15005.2 14296.5 14141.2 13885.3 12537 11251.8 11044.2 10868.2 10511.2 10404.4 10124
threshold=90.148500000000013 136.17950000000005 55.657000000000004 169.31200000000004 112.42750000000002 72.829000000000022 34.909500000000001 217.70450000000002 100.49050000000001 17.547500000000003 0.79550000000000021 148.64200000000002 124.98600000000002 -0.60355339059327384 -0.60355339059327384 187.36100000000002 84.753500000000017 0.9255000000000001 0.94350000000000012 48.413500000000006 62.820000000000007 93.006500000000017 1.0985000000000003 100.45550000000001 0.60750000000000004 193.50300000000001 0.97950000000000015 63.821000000000005 -0.9159756150367534 -0.70710678118654757
decision_type=2 2 2 2 2 2 2 2 2 2 2 2 2 2 2 2 2 2 2 2 2 2 2 2 2 2 2 2 2 2
left_child=2 4 6 11 8 13 9 15 17 -1 -7 28 18 21 -8 -5 25 -2 -6 -16 -15 -4 -10 -9 -14 27 -11 -12 -3 -13
right_child=1 3 5 7 12 10 14 23 22 26 16 29 24 20 19 -17 -18 -19 -20 -21 -22 -23 -24 -25 -26 -27 -28 -29 -30 -31
leaf_value=-2.2893708804501824 0.10693628259831006 2.5186557721488083 -0.55658530593775624 3.2103472696817841 0.79077053818885124 -0.34365669206151839 -0.93671759920710174 3.8707625484466557 0.53648741260606791 -1.8825429991132656 0.30605635273476578 2.8758804924548813 0.90361653097340333 -0.87566296590202541 -1.3964942143198185 3.8677246582813751 0.19179330341529313 0.46370763056659342 1.2662625000062473 -1.1073747129640081 -0.618806257736082 -0.11900130790147119 0.87244848609810155 5.5468566131591803 1.6458082484358141 1.085993786752224 -1.517457518092401 -0.13263323015627432 1.8536390928935758 2.3457116339747843
leaf_weight=402 405 79 641 260 223 759 683 20 453 669 149 157 61 968 1112 195 777 1311 833 819 1319 266 1065 45 599 20 336 1535 383 304
leaf_count=402 405 79 641 260 223 759 683 20 453 669 149 157 61 968 1112 195 777 1311 833 819 1319 266 1065 45 599 20 336 1535 383 304
internal_value=0 1.26642 -0.774327 2.76833 0.828437 -0.357764 -1.44068 3.68879 0.564523 -1.91266 -0.0761055 2.24895 1.32538 -0.643244 -1.18635 3.49373 0.00544283 0.379942 1.16656 -1.27426 -0.727852 -0.42908 0.772685 5.04267 1.57835 -0.0790902 -1.76123 -0.0933727 1.96898 2.52789
internal_weight=0 6393 10455 1443 4950 6434 4021 520 3234 1407 3240 923 1716 3194 2614 455 2481 1716 1056 1931 2287 907 1518 65 660 1704 1005 1684 462 461
internal_count=16848 6393 10455 1443 4950 6434 4021 520 3234 1407 3240 923 1716 3194 2614 455 2481 1716 1056 1931 2287 907 1518 65 660 1704 1005 1684 462 461
is_linear=0
shrinkage=0.05


Tree=8
num_leaves=31
num_cat=0
split_feature=4 4 4 4 4 4 4 4 4 4 4 698 4 681 4 4 681 681 624 698 387 24 24 4 262 217 681 5 24 240
split_gain=5.96973e+06 1.29836e+06 1.27666e+06 255538 241115 190630 144290 44756.2 35248.9 34793 30950.2 30215.2 23517.8 22810.1 21980.6 16095.3 15597.9 15158.3 13715.7 12402 12028.9 11559.6 11549.5 11332.9 11239.2 11096.3 10136.9 10046.7 9957.21 9759.78
threshold=95.014500000000012 146.79600000000002 60.504000000000012 119.25400000000002 37.213000000000008 78.957000000000008 177.51850000000002 106.68800000000002 217.70450000000002 21.010000000000002 50.335500000000003 0.90750000000000008 130.85200000000003 -0.60355339059327384 71.393500000000017 162.94850000000002 -0.37940952255126015 -0.78656609248549325 177.51850000000002 0.66150000000000009 133.60900000000004 86.920000000000016 65.861500000000021 88.694000000000003 162.94850000000002 66.834000000000017 -0.5 169.31200000000004 70.005500000000026 59.686500000000009
decision_type=2 2 2 2 2 2 2 2 2 2 2 2 2 2 2 2 2 2 2 2 2 2 2 2 2 2 2 2 2 2
left_child=2 3 4 7 9 11 15 16 -8 29 25 -4 26 -7 21 27 -2 -9 -16 -14 -10 -13 -11 -15 -23 -6 -5 -3 -12 -1
right_child=1 6 5 12 10 13 8 17 20 22 28 14 19 23 18 -17 -18 -19 -20 -21 -22 24 -24 -25 -26 -27 -28 -29 -30 -31
leaf_value=-2.2837398282564605 0.73347272981726241 2.3588154814521811 -0.66220171620791712 1.552086501755946 -1.3186155770142474 0.3134651943185735 3.4761146072974571 1.2237379872745062 3.8814920142844871 -1.7170714639869264 -0.97753210723490602 -0.56332908710974516 1.0995041966231334 -0.081676902967185272 -0.19371959636907618 2.7931985533557175 0.41408273285028652 0.82929170932638441 1.092655749831881 1.8234957302305976 5.4176928620589413 -0.30786479568144065 -1.3497481461911076 0.16353067156807002 0.82381612788075997 -1.0417547696961675 1.175369699834846 1.5133361138237849 -0.72871440074854221 -1.8196771106722442
leaf_weight=325 633 351 1087 331 796 903 325 332 27 733 1019 1005 72 1249 1005 261 1017 1054 21 588 38 371 339 756 23 746 461 45 724 211
leaf_count=325 633 351 1087 331 796 903 325 332 27 733 1019 1005 72 1249 1005 261 1017 1054 21 588 38 371 339 756 23 746 461 45 724 211
internal_value=0 1.34561 -0.658278 0.975486 -1.26672 -0.194439 2.93145 0.714102 3.6972 -1.76903 -1.02061 -0.442404 1.5215 0.104771 -0.34357 2.47575 0.537067 0.924318 -0.166659 1.74565 4.79112 -0.472778 -1.60161 0.0104064 -0.239899 -1.18516 1.33376 2.26463 -0.87461 -2.10246
internal_weight=0 5535 11313 4488 4893 6420 1047 3036 390 1608 3285 3512 1452 2908 2425 657 1650 1386 1026 660 65 1399 1072 2005 394 1542 792 396 1743 536
internal_count=16848 5535 11313 4488 4893 6420 1047 3036 390 1608 3285 3512 1452 2908 2425 657 1650 1386 1026 660 65 1399 1072 2005 394 1542 792 396 1743 536
is_linear=0
shrinkage=0.05


Tree=9
num_leaves=31
num_cat=0
split_feature=4 4 4 4 4 4 4 4 4 698 681 4 4 699 4 264 4 17 681 475 5 24 698 681 681 698 698 681 24 697
split_gain=5.38993e+06 1.27951e+06 1.06724e+06 247883 186956 175916 131745 40558.2 29937.1 26737.1 26363 26176.2 25468.2 20226.8 20066.5 18865.9 18753 13993.5 13504.9 13231.1 13016.6 12682.1 11384.9 11348.8 10612.2 10237.9 9966.59 9954.24 9490.79 9284.84
threshold=97.915500000000023 62.493000000000002 146.79600000000002 40.005500000000005 120.25300000000001 78.957000000000008 187.36100000000002 21.010000000000002 166.17600000000002 0.95250000000000001 -0.5 52.138000000000012 88.694000000000003 53.338500000000003 110.89750000000002 187.36100000000002 133.54650000000004 94.489000000000019 -0.37940952255126015 120.34450000000001 85.176500000000019 65.861500000000021 0.67650000000000021 -0.60355339059327384 -0.60355339059327384 0.69350000000000012 0.95250000000000001 -0.70710678118654757 70.005500000000026 9.6945000000000032
decision_type=2 2 2 2 2 2 2 2 2 2 2 2 2 2 2 2 2 2 2 2 2 2 2 2 2 2 2 2 2 2
left_child=1 3 4 7 9 10 8 29 24 -2 15 18 23 17 -11 -3 26 -8 22 -19 -14 -9 -5 -7 -4 -12 -6 -18 -13 -1
right_child=2 5 6 11 16 12 13 21 -10 14 25 28 20 -15 -16 -17 27 19 -20 -21 -22 -23 -24 -25 -26 -27 -28 -29 -30 -31
leaf_value=-2.1160403304053967 0.45660678406208755 -0.2118726357160835 2.5348736031753263 -1.5950565737120961 0.95938020812140579 0.19723490806265251 3.3124804045024669 -1.5880670615970824 2.8356035459224995 0.71572330740303303 -0.65994474798274849 -0.87917520564523621 0.57478755054435415 3.2727021411182435 1.0500090216492131 1.2026748592654863 2.036316865932442 4.1918181159279566 -1.1728740150891945 5.7184650767933247 0.20939648873916009 -1.2500542320747365 -0.77731820614834579 -0.077593057167675686 2.0039324035980557 -0.41500832274394439 1.4025295120998784 1.5461042241809937 -0.64541631118396836 -1.5886741815776122
leaf_weight=414 625 1000 164 49 171 537 38 896 325 1304 628 1100 306 123 711 24 167 77 1011 22 1278 444 482 1249 298 1457 687 361 778 122
leaf_count=414 625 1000 164 49 171 537 38 896 325 1304 628 1100 306 123 711 24 167 77 1011 22 1278 444 482 1249 298 1457 687 361 778 122
internal_value=0 -0.586942 1.36256 -1.16345 0.992434 -0.115585 2.78506 -1.62582 2.45993 0.744977 -0.3869 -0.909599 0.134494 3.76632 0.834049 -0.177987 1.46324 4.20402 -1.06362 4.53865 0.280457 -1.47663 -0.85419 0.00462005 2.19403 -0.489143 1.31508 1.70257 -0.782735 -1.9974
internal_weight=0 11775 5073 5296 4026 6479 1047 1876 787 2640 3109 3420 3370 260 2015 1024 1386 137 1542 99 1584 1340 531 1786 462 2085 858 528 1878 536
internal_count=16848 11775 5073 5296 4026 6479 1047 1876 787 2640 3109 3420 3370 260 2015 1024 1386 137 1542 99 1584 1340 531 1786 462 2085 858 528 1878 536
is_linear=0
shrinkage=0.05


Tree=10
num_leaves=31
num_cat=0
split_feature=4 4 4 4 4 4 4 4 4 698 682 4 4 4 698 4 23 699 4 12 218 698 698 681 698 697 698 698 294 5
split_gain=4.86848e+06 1.18187e+06 909158 202196 175486 172835 143563 40229.2 30162.1 25872.1 22343.5 20949 20325.9 19858.4 19821.4 19556.2 18985.7 15906.9 13238.7 13124 12949.1 11872.2 11647.4 11363.8 11210.8 10452.2 10448 10429.9 10223.5 10130
threshold=91.675500000000014 136.17950000000005 55.657000000000004 169.31200000000004 73.557500000000019 112.42750000000002 33.293000000000006 193.50300000000001 100.49050000000001 0.97950000000000015 4106.5000000000009 10.887500000000001 156.14100000000005 66.177500000000023 0.66850000000000021 123.19150000000002 74.246000000000024 82.030500000000004 84.753500000000017 78.295000000000016 162.94850000000002 0.99850000000000005 0.90750000000000008 -0.60355339059327384 1.2025000000000003 27.432500000000001 0.88850000000000018 0.82350000000000001 187.36100000000002 68.025500000000008
decision_type=2 2 2 2 2 2 2 2 2 2 2 2 2 2 2 2 2 2 2 2 2 2 2 2 2 2 2 2 2 2
left_child=2 5 6 12 13 8 11 -5 23 25 20 -1 22 27 19 26 -16 -18 28 -8 -9 -13 -3 -2 -10 -6 -7 -4 -11 -15
right_child=1 3 4 7 9 15 14 10 24 18 -12 21 -14 29 16 -17 17 -19 -20 -21 -22 -23 -24 -25 -26 -27 -28 -29 -30 -31
leaf_value=-2.1558548580651258 0.55170750998983997 1.3422319875933506 -0.81530649509787567 2.8162721693332382 -0.27361922619745571 0.62688296376313613 -1.4365279391579246 3.8262904360890388 0.47272728745997106 -0.048980464435723556 2.7018943158063022 -1.6960083005700526 2.3105158574794182 -0.21532711099601329 -1.0652434473434693 1.3234402292723195 -0.53270500321527514 -1.0176900044803818 0.21156879450038449 -1.008417711440307 5.2303742367288351 -1.3145758228941311 1.886251602013906 0.24743651016960957 0.76355902766715178 0.52615907444130805 1.0631694796011952 -0.56462376469902686 1.0882697697728874 -0.50265941917884716
leaf_weight=201 455 135 625 325 988 180 435 128 524 1427 44 762 263 514 1265 792 413 300 895 335 23 310 525 997 994 42 744 1381 20 806
leaf_count=201 455 135 625 325 988 180 435 128 524 1427 44 762 263 514 1265 792 413 300 895 335 23 310 525 997 994 42 744 1381 20 806
internal_value=0 1.12409 -0.642635 2.37553 -0.285704 0.738564 -1.23701 3.16632 0.507292 -0.0312909 3.74588 -1.67691 1.9292 -0.543411 -1.03295 1.1384 -0.947597 -0.737818 0.0603007 -1.25125 4.04512 -1.58641 1.77611 0.3433 0.663661 -0.240279 0.97899 -0.643102 -0.0327434 -0.391342
internal_weight=0 6129 10719 1443 6698 4686 4021 520 2970 3372 195 1273 923 3326 2748 1716 1978 713 2342 770 151 1072 660 1452 1518 1030 924 2006 1447 1320
internal_count=16848 6129 10719 1443 6698 4686 4021 520 2970 3372 195 1273 923 3326 2748 1716 1978 713 2342 770 151 1072 660 1452 1518 1030 924 2006 1447 1320
is_linear=0
shrinkage=0.05


Tree=11
num_leaves=31
num_cat=0
split_feature=4 4 4 4 4 4 4 4 4 4 681 4 4 4 266 681 4 698 698 681 155 698 24 4 681 217 5 698 5 698
split_gain=4.39584e+06 982132 913766 174954 157411 144480 135276 26485.8 26093.9 24279.9 23858.6 23103.6 21810.4 19696 18183.8 17778.1 12889.7 12159 12150.6 11648.8 11147.4 11055.3 10854.7 10594.7 10042.6 9309.79 8973.38 8832.64 8224.84 7916.13
threshold=94.124500000000012 141.10100000000003 60.162500000000009 37.213000000000008 114.724 177.51850000000002 78.613000000000014 217.70450000000002 17.547500000000003 103.99450000000002 -0.5 156.14100000000005 50.335500000000003 124.98600000000002 187.36100000000002 -0.60355339059327384 70.33550000000001 0.57750000000000001 0.61450000000000016 -0.70710678118654757 100.45550000000001 0.75250000000000006 65.861500000000021 69.992500000000021 -0.60355339059327384 66.834000000000017 128.86050000000003 0.99850000000000005 34.909500000000001 0.82350000000000001
decision_type=2 2 2 2 2 2 2 2 2 2 2 2 2 2 2 2 2 2 2 2 2 2 2 2 2 2 2 2 2 2
left_child=2 4 3 8 9 11 10 -7 -1 21 14 -3 25 26 23 -8 -12 -10 -15 -13 -9 -2 -19 -4 -11 -5 -6 -17 -27 -14
right_child=1 5 6 12 13 7 15 20 17 24 16 19 29 18 -16 27 -18 22 -20 -21 -22 -23 -24 -25 -26 28 -28 -29 -30 -31
leaf_value=-1.8746733522830319 0.10032112312966904 1.762382412224492 -0.36978770261183108 -1.1396841703291665 1.0653895530307835 2.9834525017371547 0.26223751557058528 3.0309271717071535 -1.6317010358527857 0.91804240302943096 -0.58633270067745602 2.6979157340257691 -0.91240180530913761 0.73376530081033708 1.2519311848140899 -0.13964164682255398 -0.34919110298700373 -1.4216666855884874 1.4019437817880611 2.0895426754768081 4.5991493352254231 0.47401914059907058 -1.0211924407684954 -0.060359764874146571 0.61455718897315592 -0.46629238366802161 0.59911140910716676 0.077276477553588324 -0.95500332225822437 -0.67475377732760045
leaf_weight=402 243 462 609 796 660 325 879 20 405 414 1296 133 553 80 21 775 1069 524 778 260 45 1209 277 519 906 107 132 1188 639 1122
leaf_count=402 243 462 609 796 660 325 879 20 405 414 1296 133 553 80 21 775 1069 524 778 260 45 1209 277 519 906 107 132 1188 639 1122
internal_value=0 1.13451 -0.574909 -1.09373 0.784991 2.37532 -0.180942 3.17616 -1.52023 0.55432 -0.38842 2.00915 -0.880311 1.17206 -0.20038 0.0753304 -0.47946 -1.40146 1.34052 2.29734 4.12816 0.411995 -1.28411 -0.228083 0.710309 -1.0174 0.988623 -0.00798157 -0.885912 -0.753661
internal_weight=0 5667 11181 4825 4422 1245 6356 390 1608 2772 3514 855 3217 1650 1149 2842 2365 1206 858 393 65 1452 801 1128 1320 1542 792 1963 746 1675
internal_count=16848 5667 11181 4825 4422 1245 6356 390 1608 2772 3514 855 3217 1650 1149 2842 2365 1206 858 393 65 1452 801 1128 1320 1542 792 1963 746 1675
is_linear=0
shrinkage=0.05


Tree=12
num_leaves=31
num_cat=0
split_feature=4 4 4 4 4 4 4 4 4 4 4 682 681 681 698 24 4 4 699 218 274 5 23 4 698 681 681 662 681 22
split_gain=3.9733e+06 1.00853e+06 697989 165371 155703 125203 118050 33554.6 24717.7 21654.2 19914.2 19498.9 19460.1 17265.9 17135.1 17618.3 15148.3 13412.5 11957.9 11117.9 10854 10792 10739 10721.5 10709.1 10620 9591.35 9516.68 9335.71 9259.04
threshold=90.148500000000013 136.17950000000005 55.657000000000004 169.31200000000004 109.80050000000001 72.829000000000022 31.628000000000004 193.50300000000001 120.25300000000001 99.157000000000025 43.074500000000008 4106.5000000000009 -0.5 -0.70710678118654757 0.74350000000000016 86.599000000000004 10.887500000000001 78.957000000000008 80.435000000000016 162.94850000000002 151.15550000000002 85.176500000000019 74.586000000000013 148.64200000000002 0.77850000000000008 -0.78656609248549325 -0.60355339059327384 102.92850000000003 -0.78656609248549325 101.37150000000001
decision_type=2 2 2 2 2 2 2 2 2 2 2 2 2 2 2 2 2 2 2 2 2 2 2 2 2 2 2 2 2 2
left_child=2 4 6 13 9 14 16 -5 25 21 -8 19 20 -3 -4 -16 -1 -14 -17 -9 29 -2 -18 -15 -11 -6 -10 -13 -12 -7
right_child=1 3 5 7 8 12 10 11 26 24 28 27 17 23 15 18 22 -19 -20 -21 -22 -23 -24 -25 -26 -27 -28 -29 -30 -31
leaf_value=-1.9543284606577747 0.56838908547910905 2.0546358770151354 -0.69794279929704794 2.5403266976980063 1.0887028774367895 -0.006966971338356602 -1.1190248675971619 3.466665388643742 1.3798892318896536 0.23177446069914784 -0.60644598769939551 1.5322519207000733 -0.30972181934096499 1.3656356506674521 -0.51641846749607434 -0.029328188724868656 -1.553228164542289 -0.049812741249007288 -0.45856510229723552 4.7735059779623281 1.2712813707441093 0.21344969830197466 -1.1259587894492034 1.8016354290523422 0.61239913959918302 0.71283833944572594 1.0407222842628305 3.1170618851979572 -0.90040592207230918 0.30958274719430445
leaf_weight=201 263 309 820 325 261 730 1073 128 341 228 354 20 787 310 1702 388 735 1368 284 23 20 1255 203 304 1158 795 649 24 1455 335
leaf_count=201 263 309 820 325 261 730 1073 128 341 228 354 20 787 310 1702 388 735 1368 284 23 20 1255 203 304 1158 795 649 24 1455 335
internal_value=0 0.982005 -0.600355 2.14536 0.642717 -0.277233 -1.1172 2.86074 0.977067 0.406893 -0.946213 3.39091 -0.0579768 1.74152 -0.499411 -0.430521 -1.54918 -0.145079 -0.211848 3.67069 0.114332 0.275439 -1.46156 1.58273 0.550327 0.806447 1.1583 2.41374 -0.843296 0.0919008
internal_weight=0 6393 10455 1443 4950 6434 4021 520 2046 2904 2882 195 3240 923 3194 2374 1139 2155 672 151 1085 1518 938 614 1386 1056 990 44 1809 1065
internal_count=16848 6393 10455 1443 4950 6434 4021 520 2046 2904 2882 195 3240 923 3194 2374 1139 2155 672 151 1085 1518 938 614 1386 1056 990 44 1809 1065
is_linear=0
shrinkage=0.05


Tree=13
num_leaves=31
num_cat=0
split_feature=4 4 4 4 4 4 4 4 4 4 698 698 698 24 681 241 627 12 681 22 4 699 697 23 306 698 5 4 646 681
split_gain=3.58649e+06 910332 629955 149340 140727 113007 106523 26927.8 25625.6 21656.1 18906.1 18640.1 16801.8 15749 15484.2 14078 13144.9 12828.2 11962.7 11900.6 11570.3 11421.8 11262.7 11030.6 10216.3 9915.6 9731.93 8502.16 8324.87 8316.09
threshold=90.148500000000013 136.17950000000005 55.657000000000004 173.58200000000002 112.42750000000002 72.829000000000022 31.628000000000004 99.157000000000025 217.70450000000002 156.14100000000005 0.68350000000000011 0.73750000000000016 0.94350000000000012 63.829000000000008 -0.60355339059327384 62.472500000000004 201.52050000000003 78.295000000000016 -0.37940952255126015 101.90900000000001 122.17200000000001 82.030500000000004 14.086500000000003 93.006500000000017 84.174500000000009 0.84050000000000014 85.176500000000019 66.903000000000006 59.558000000000007 -0.70710678118654757
decision_type=2 2 2 2 2 2 2 2 2 2 2 2 2 2 2 2 2 2 2 2 2 2 2 2 2 2 2 2 2 2
left_child=2 4 6 9 7 14 15 26 28 25 17 -7 -6 -12 23 -1 19 -8 -9 -13 -14 22 -15 -4 -10 -3 -2 -16 -5 -11
right_child=1 3 5 8 12 11 10 18 24 29 13 16 20 21 27 -17 -18 -19 -20 -21 -22 -23 -24 -25 -26 -27 -28 -29 -30 -31
leaf_value=-1.620277842488661 0.53996963309187851 1.0748383167438804 -0.41023131076685282 1.8936023898240997 0.66487312485844319 -0.29131610215352627 -1.2650540657117517 0.71768538639026547 2.6876494979858401 2.3947260869067648 -0.9484425144570775 -0.063904103632284201 0.90674457197769542 -0.72152623552004858 -0.6134558253358372 -1.2509632325075244 1.2514932335487434 -0.86701217391339913 0.44379149937733581 0.19197545948106631 1.2062070090258332 -0.89275333524002876 -0.28081328871491879 -0.02414104675180874 4.1872730149163138 1.6124726919739949 0.20277721198884199 -0.40517367625972311 2.7150378654542831 1.829796599771635
leaf_weight=679 263 113 641 41 355 664 499 676 20 115 1053 1964 677 339 1523 460 21 371 1040 591 684 354 266 266 45 547 1255 764 349 213
leaf_count=679 263 113 641 41 355 664 499 676 20 115 1053 1964 677 339 1523 460 21 371 1040 591 684 354 266 266 45 547 1255 764 349 213
internal_value=0 0.932993 -0.570373 2.03828 0.610634 -0.263394 -1.06138 0.416032 2.79037 1.69116 -0.898928 -0.055078 0.976947 -0.813265 -0.474476 -1.47178 0.00552453 -1.09618 0.552126 -0.00442276 1.0578 -0.664055 -0.528998 -0.297828 3.73739 1.52156 0.261691 -0.544205 2.6306 2.03015
internal_weight=0 6393 10455 1443 4950 6434 4021 3234 455 988 2882 3240 1716 2012 3194 1139 2576 870 1716 2555 1361 959 605 907 65 660 1518 2287 390 328
internal_count=16848 6393 10455 1443 4950 6434 4021 3234 455 988 2882 3240 1716 2012 3194 1139 2576 870 1716 2555 1361 959 605 907 65 660 1518 2287 390 328
is_linear=0
shrinkage=0.05


Tree=14
num_leaves=31
num_cat=0
split_feature=4 4 4 4 4 4 4 4 266 4 4 698 4 698 681 698 24 4 23 680 698 698 22 681 681 18 698 680 288 698
split_gain=3.23846e+06 769406 626050 133655 127019 107079 87160.6 25435.5 23704 20887.8 19539.5 18404.9 16845.6 14641.2 14450.6 14312.2 14189.7 12742.5 11084.1 9979.72 9970.46 9863.38 9690.66 9411.59 9359.02 9009.96 8719.77 8083.71 7967.53 7744.45
threshold=92.28700000000002 141.10100000000003 59.769500000000008 112.42750000000002 40.005500000000005 177.51850000000002 76.02200000000002 21.010000000000002 193.50300000000001 124.98600000000002 217.70450000000002 0.95250000000000001 156.14100000000005 0.90750000000000008 -0.60355339059327384 0.8135 70.005500000000026 99.157000000000025 94.105000000000004 -0.78656609248549303 1.1635000000000002 0.60750000000000004 166.17600000000002 -0.78656609248549325 -0.70710678118654757 93.378500000000017 1.0595000000000001 0.60355339059327384 96.231500000000011 0.64650000000000019
decision_type=2 2 2 2 2 2 2 2 2 2 2 2 2 2 2 2 2 2 2 2 2 2 2 2 2 2 2 2 2 2
left_child=2 3 4 11 7 12 8 29 13 20 27 -2 -3 -4 -8 19 -17 -13 -15 -6 -5 28 -12 -9 -14 -25 -16 -7 -11 -1
right_child=1 5 6 9 15 10 14 23 -10 21 22 17 24 18 26 16 -18 -19 -20 -21 -22 -23 -24 25 -26 -27 -28 -29 -30 -31
leaf_value=-1.7433813535136311 0.19619913685747792 1.5119626897068703 -0.54063063991838145 0.57601998688317602 -1.386000157815894 2.6298277140054549 0.17503548294178667 -0.80899428020182418 1.2977217254184543 0.91471266693302578 3.0737938490780916 0.34217088026726827 2.3308981018855159 -0.36417240092199532 -0.17685799215124787 -0.76936762711907025 -0.48731426105377873 0.59425483020308012 -0.078557242516901327 -0.83781542749228799 0.91781638697429235 1.2055904360751932 4.5154443559192474 -1.2634693748388344 1.7836395825560278 -0.85853720847197934 0.027154188337018149 1.4978297424316407 -0.18259069702842021 -1.3393273451289194
leaf_weight=292 683 462 975 322 97 305 923 190 21 56 44 842 133 1617 929 1117 777 1313 439 891 734 780 21 975 260 175 1189 20 22 244
leaf_count=292 683 462 975 322 97 305 923 190 21 56 44 842 133 1617 929 1117 777 1313 439 891 734 780 21 975 260 175 1189 20 22 244
internal_value=0 0.93255 -0.51526 0.642433 -0.945074 2.03928 -0.179497 -1.26583 -0.368272 0.965634 2.72917 0.424196 1.72372 -0.380062 0.0097149 -0.736021 -0.654053 0.496109 -0.303552 -0.892394 0.814305 1.15101 3.5511 -1.14727 1.97075 -1.2025 -0.0619758 2.56247 0.595601 -1.56085
internal_weight=0 5997 10851 4752 4758 1245 6093 1876 3052 1914 390 2838 855 3031 3041 2882 1894 2155 2056 988 1056 858 65 1340 393 1150 2118 325 78 536
internal_count=16848 5997 10851 4752 4758 1245 6093 1876 3052 1914 390 2838 855 3031 3041 2882 1894 2155 2056 988 1056 858 65 1340 393 1150 2118 325 78 536
is_linear=0
shrinkage=0.05


Tree=15
num_leaves=31
num_cat=0
split_feature=4 4 4 4 4 4 4 4 4 698 682 4 681 681 698 23 698 24 268 12 697 681 629 5 681 699 22 699 697 549
split_gain=2.92693e+06 768964 491240 139665 110606 87397.8 83565.7 31103.9 19673.2 16678 16451.7 16068.3 15952.1 15505.3 13581.5 13287.3 12364.4 12347.7 11151.2 10956.3 10935.6 10699.9 10631.5 10028.6 9991.27 9833.03 9722.8 9642.74 9887.11 8951.11
threshold=89.021000000000015 133.54650000000004 55.657000000000004 166.17600000000002 106.68800000000002 34.909500000000001 71.738500000000016 193.50300000000001 119.25400000000002 1.0075000000000001 4106.5000000000009 10.887500000000001 -0.70710678118654757 -0.60355339059327384 0.72850000000000004 74.246000000000024 0.68350000000000011 86.599000000000004 144.98550000000003 76.993000000000009 26.920000000000005 -0.60355339059327384 201.52050000000003 116.81950000000002 -0.78656609248549325 80.435000000000016 101.90900000000001 82.030500000000004 18.430500000000006 61.279500000000006
decision_type=2 2 2 2 2 2 2 2 2 2 2 2 2 2 2 2 2 2 2 2 2 2 2 2 2 2 2 2 2 2
left_child=2 4 5 12 13 11 16 -5 24 20 -9 -1 29 -2 19 -16 -4 -18 25 -7 -8 -13 26 -10 -6 -19 -11 28 -17 -3
right_child=1 3 6 7 8 14 9 10 23 22 -12 21 -14 -15 15 27 17 18 -20 -21 -22 -23 -24 -25 -26 -27 -28 -29 -30 -31
leaf_value=-1.7008796711521807 0.47990004247074225 0.93858799902168488 -0.6303105222476727 2.1355972689848683 0.89613045290651083 -1.1251350139499039 -0.27715667054659132 3.1836523037083104 1.2509967358766405 -0.063138331114781537 2.0278427752581512 -0.91811076198051222 1.2766383547268336 0.22037792906155224 -0.81083774842694734 -0.54402492336198394 -0.45836793467877696 -0.066107248915919195 0.92567414102100187 -0.75310007097274756 0.44876919098681323 -1.2882605950715447 1.1515738725662232 0.85699890025712566 0.57548891913059197 -0.46341503554110908 0.19089992428294669 -0.76727208083255161 -0.0064650285288803573 1.810360519014478
leaf_weight=201 848 37 677 390 332 455 987 151 226 1695 44 268 662 1858 1139 255 1654 366 21 384 54 938 20 698 1054 278 484 248 133 291
leaf_count=201 848 37 677 390 332 455 987 151 226 1695 44 268 662 1858 1139 255 1654 366 21 384 54 938 20 698 1054 278 484 248 133 291
internal_value=0 0.822208 -0.528197 1.7862 0.51937 -0.959179 -0.250178 2.40058 0.773697 -0.0738928 2.9267 -1.27777 1.4224 0.301984 -0.78741 -0.707416 -0.44057 -0.384854 -0.20088 -0.955753 -0.23878 -1.20663 0.00382336 0.954178 0.652836 -0.23878 -0.0063671 -0.521022 -0.361691 1.71431
internal_weight=0 6591 10257 1575 5016 4021 6236 585 2310 3240 195 1407 990 2706 2614 1775 2996 2319 665 839 1041 1206 2199 924 1386 644 2179 636 388 328
internal_count=16848 6591 10257 1575 5016 4021 6236 585 2310 3240 195 1407 990 2706 2614 1775 2996 2319 665 839 1041 1206 2199 924 1386 644 2179 636 388 328
is_linear=0
shrinkage=0.05


Tree=16
num_leaves=31
num_cat=0
split_feature=4 4 4 4 4 4 4 4 698 681 681 264 699 698 681 681 697 9 12 4 474 24 4 698 676 698 5 698 697 24
split_gain=2.64747e+06 633844 529513 124100 88399.6 87107.4 66981.6 21064.5 17573.6 15896.2 15129.1 15045.8 14294 14189.8 14121.5 13548 13032.8 12740.5 11548.1 10964.2 10524 9837.52 9791.84 8038.86 8639.41 7784.9 7632.36 7549 7537.84 7525.8
threshold=97.915500000000023 62.493000000000002 146.79600000000002 40.005500000000005 120.25300000000001 78.957000000000008 187.36100000000002 21.010000000000002 0.70350000000000013 -0.5 -0.60355339059327384 187.36100000000002 56.482000000000006 0.79550000000000021 -0.9159756150367534 -0.60355339059327384 21.022500000000004 96.260000000000019 106.68050000000001 109.80050000000001 138.24300000000002 119.28100000000002 52.138000000000012 0.61450000000000016 0.68301270189221941 0.66150000000000009 91.265500000000017 0.99850000000000005 9.6945000000000032 107.25250000000001
decision_type=2 2 2 2 2 2 2 2 2 2 2 2 2 2 2 2 2 2 2 2 2 2 2 2 2 2 2 2 2 2
left_child=1 3 4 7 8 9 13 28 21 11 -7 -3 20 -4 -6 29 17 -15 22 26 -8 -2 -17 -9 -25 -16 -10 -12 -1 -5
right_child=2 5 6 15 14 10 12 23 19 -11 27 -13 -14 16 25 18 -18 -19 -20 -21 -22 -23 -24 24 -26 -27 -28 -29 -30 -31
leaf_value=-1.5191321385853109 0.28445674631021806 -0.13842839150591754 1.0605275565232988 -0.53212139912182765 1.3888638409486573 0.2547265193756395 2.7945096280839707 -1.2104010827486116 0.79141923353816923 -0.34985352076488446 -0.087327888044245669 1.1256718275447688 2.1766409644713769 0.20566364109516144 0.59448685273024682 -0.8513011175321612 1.9391534794471459 1.5775549408841008 -0.38253402759307137 0.71153166461674899 4.0956846328008742 -0.60265087047043975 -0.63638838330686798 -0.99161179476775274 -0.40879350711365003 0.99658000804079772 0.43605315620626545 0.097217028203149203 -1.0474687475100406 -0.12792356007910791
leaf_weight=414 335 1000 78 783 224 1043 135 464 181 2085 905 24 104 20 148 1031 501 188 268 915 21 34 1197 802 74 1014 1175 1422 122 141
leaf_count=414 335 1000 78 783 224 1043 135 464 181 2085 905 24 104 20 148 1031 501 188 268 915 21 34 1197 802 74 1014 1175 1422 122 141
internal_value=0 -0.411315 0.954988 -0.817082 0.694197 -0.0795209 1.95709 -1.14438 0.52385 -0.270459 0.0964067 -0.108069 2.65823 1.7245 1.01813 -0.637326 1.79649 1.44925 -0.698505 0.576029 2.97448 0.200685 -0.736175 -1.03631 -0.943234 0.946012 0.484041 0.0251229 -1.41318 -0.471254
internal_weight=0 11775 5073 5296 4026 6479 1047 1876 2640 3109 3370 1024 260 787 1386 3420 709 208 2496 2271 156 369 2228 1340 876 1162 1356 2327 536 924
internal_count=16848 11775 5073 5296 4026 6479 1047 1876 2640 3109 3370 1024 260 787 1386 3420 709 208 2496 2271 156 369 2228 1340 876 1162 1356 2327 536 924
is_linear=0
shrinkage=0.05


Tree=17
num_leaves=31
num_cat=0
split_feature=4 4 4 4 4 4 4 4 681 697 130 4 698 698 681 697 699 241 22 490 491 217 698 144 697 699 698 5 4 549
split_gain=2.39234e+06 635505 393869 114862 91668.4 72649.1 66231.7 24988.7 16854.4 15905.2 15321.9 14848.6 14185.1 13956.7 13519.4 11802.4 14630 11283.7 10809.6 10453.8 10417.6 9732.55 8632.71 10606.4 8431.78 12363.7 8147.49 7961.62 8843.89 7795.38
threshold=88.694000000000003 133.54650000000004 55.657000000000004 166.17600000000002 106.68800000000002 30.719000000000005 70.33550000000001 193.50300000000001 -0.60355339059327384 24.827500000000004 71.178500000000014 45.821000000000005 1.2255000000000003 0.99850000000000005 -0.70710678118654757 16.307500000000001 74.623500000000021 62.472500000000004 91.657500000000013 50.022500000000008 30.939000000000004 162.94850000000002 0.54750000000000021 101.33900000000001 13.487000000000002 68.610500000000016 0.79550000000000021 82.152500000000018 97.915500000000023 61.279500000000006
decision_type=2 2 2 2 2 2 2 2 2 2 2 2 2 2 2 2 2 2 2 2 2 2 2 2 2 2 2 2 2 2
left_child=2 4 5 14 13 17 15 26 -6 12 -9 24 -8 -2 29 -4 18 -1 -17 -20 -11 -12 23 -10 -7 -26 -5 -15 -29 -3
right_child=1 3 6 7 8 11 9 10 22 20 21 -13 -14 27 -16 16 -18 -19 19 -21 -22 -23 -24 -25 25 -27 -28 28 -30 -31
leaf_value=-1.3551160199829655 0.083541039392301772 0.82845476076409641 -0.49239928187923038 1.0703087839586982 0.8900242075896071 -0.95009287801530573 -0.24925864848921955 1.2640325498580933 0.4395685292889967 1.3379546517133714 2.6452638139972442 -0.62364247342513335 -0.030438388374888936 0.61541375441788793 1.1504454491080385 -0.27693479176402302 -0.39703088274426601 -1.0129063622495706 1.3732790924253919 0.1523951556098958 0.15764937106362531 3.8876893815540132 0.6419640818812008 -0.60609405051017629 -0.22474377857602162 -0.81334288838467372 2.0013357125573541 0.20009150924593949 0.42529031776182102 1.6437125790979445
leaf_weight=647 740 37 1753 29 775 894 1276 20 136 20 154 1474 1787 235 662 143 695 425 21 120 355 21 1370 29 115 466 361 987 810 291
leaf_count=647 740 37 1753 29 775 894 1276 20 136 20 154 1474 1787 235 662 143 695 425 21 120 355 21 1370 29 115 466 361 987 810 291
internal_value=0 0.737271 -0.481459 1.615 0.465099 -0.866573 -0.230358 2.17233 0.697928 -0.0840526 2.64509 -0.737791 -0.12184 0.270804 1.28492 -0.414198 -0.273403 -1.22014 0.0264951 0.339548 0.222599 2.79864 0.600453 0.25124 -0.851353 -0.69813 1.93403 0.338631 0.302018 1.55403
internal_weight=0 6657 10191 1575 5082 4021 6170 585 2310 3438 195 2949 3063 2772 990 2732 979 1072 284 141 375 175 1535 165 1475 581 390 2032 1797 328
internal_count=16848 6657 10191 1575 5082 4021 6170 585 2310 3438 195 2949 3063 2772 990 2732 979 1072 284 141 375 175 1535 165 1475 581 390 2032 1797 328
is_linear=0
shrinkage=0.05


Tree=18
num_leaves=31
num_cat=0
split_feature=4 4 4 4 4 4 4 698 681 266 5 698 24 681 699 383 9 5 24 4 697 698 681 699 698 699 697 4 474 8
split_gain=2.16187e+06 476018 466526 101197 90622.1 58110 54363.2 18351.6 17097.8 14513.3 13808 12739.4 12584.5 12459.5 12367.2 12008.2 11801.8 11612.9 11312.2 11208 10205.3 10058.4 10033.3 9332.45 9098.47 9058.09 10011.3 8940.55 8922.2 8071.45
threshold=95.014500000000012 146.79600000000002 62.493000000000002 40.005500000000005 119.25400000000002 78.957000000000008 187.36100000000002 0.63950000000000007 -0.60355339059327384 193.50300000000001 61.840500000000006 0.64650000000000019 70.005500000000026 -0.9159756150367534 56.482000000000006 104.57700000000001 95.852500000000006 71.03700000000002 63.510500000000008 105.66500000000002 32.07950000000001 0.89750000000000008 1.0000000180025095e-35 70.984500000000011 0.59150000000000003 69.94850000000001 16.152500000000003 86.269500000000008 138.24300000000002 106.68800000000002
decision_type=2 2 2 2 2 2 2 2 2 2 2 2 2 2 2 2 2 2 2 2 2 2 2 2 2 2 2 2 2 2
left_child=2 4 3 7 8 9 15 16 23 10 -4 22 -13 -6 28 20 -1 -7 -9 -10 -3 -12 -5 -2 -19 26 -14 -26 -8 -27
right_child=1 6 5 11 13 17 14 18 19 -11 21 12 25 -15 -16 -17 -18 24 -20 -21 -22 -23 -24 -25 27 29 -28 -29 -30 -31
leaf_value=-1.2926474235565315 0.69288769418254281 1.2657786335028232 -0.031678875258045372 -1.0997387680060724 1.2544897669063504 0.39114765612987351 2.5301293980633774 -1.0300100117657702 0.23257567047263433 0.90306030644310842 -0.46036798633114051 -0.61448666309432054 -0.40835800244551851 0.84536044318985515 1.9532527505563431 1.770355865895433 -0.64221014017800249 -0.20912061525738099 -0.69361561089056156 0.46682377083439236 2.0582042026519778 -0.23966864442774499 -0.65770947187893691 0.31571925124908623 -0.040386231001091788 -0.5686175658179311 0.053841543024111739 0.15678920125811793 3.7342080070858916 0.16972555163267411
leaf_weight=689 733 359 570 170 231 251 135 677 1054 27 749 1532 295 1221 104 378 83 333 427 1027 50 1763 636 222 1019 559 190 1305 21 38
leaf_count=689 733 359 570 170 231 251 135 677 1054 27 749 1532 295 1221 104 378 83 333 427 1027 50 1763 636 222 1019 559 190 1305 21 38
internal_value=0 0.809829 -0.396071 -0.738335 0.58562 -0.0946948 1.77019 -1.03394 0.429772 -0.245023 -0.255324 -0.575964 -0.521437 0.910966 2.4024 1.56038 -1.22369 0.0657659 -0.90058 0.34854 1.36449 -0.305773 -0.751872 0.605996 0.0347456 -0.388996 -0.225744 0.0700113 2.69702 -0.520365
internal_weight=0 5535 11313 5296 4488 6017 1047 1876 3036 3109 3082 3420 2614 1452 260 787 772 2908 1104 2081 409 2512 806 955 2657 1082 485 2324 156 597
internal_count=16848 5535 11313 5296 4488 6017 1047 1876 3036 3109 3082 3420 2614 1452 260 787 772 2908 1104 2081 409 2512 806 955 2657 1082 485 2324 156 597
is_linear=0
shrinkage=0.05


Tree=19
num_leaves=31
num_cat=0
split_feature=4 4 4 4 4 4 4 25 4 698 698 4 698 698 4 5 23 13 699 681 4 627 4 218 6 646 697 699 197 697
split_gain=1.95176e+06 482746 361698 86877.4 70269 65804.2 55693.4 15172.4 15623.1 13581.3 13159.4 12876.1 12851.6 12209.3 11704.6 11052.1 10581.2 10404.5 10390.7 10264.4 9770.14 9760.09 9639.21 8975.52 8575.63 8493.91 7403.36 9467.22 7204.92 7201.49
threshold=91.265500000000017 141.10100000000003 58.388000000000012 112.42750000000002 34.909500000000001 173.58200000000002 73.557500000000019 118.46050000000001 217.70450000000002 0.88850000000000018 0.88850000000000018 10.887500000000001 0.60750000000000004 0.80350000000000021 129.91600000000003 63.821000000000005 71.39800000000001 89.383000000000024 57.864000000000011 -0.78656609248549325 99.157000000000025 201.52050000000003 84.753500000000017 41.803000000000004 86.958500000000001 58.916500000000006 18.430500000000006 81.276000000000025 91.279000000000011 21.205000000000002
decision_type=2 2 2 2 2 2 2 2 2 2 2 2 2 2 2 2 2 2 2 2 2 2 2 2 2 2 2 2 2 2
left_child=2 3 4 10 11 18 19 25 -9 -5 28 -1 -8 17 24 -14 -15 -6 29 -4 -12 22 -17 -13 -11 -7 -18 -28 -2 -3
right_child=1 5 6 9 13 7 12 8 -10 14 20 23 15 16 -16 21 26 -19 -20 -21 -22 -23 -24 -25 -26 -27 27 -29 -30 -31
leaf_value=-1.4241189111821093 0.24675219128734638 1.1908481698934779 -0.13497768519873904 0.46906986553604679 -0.85881284144787429 0.74440664052963257 -0.26773047052024251 2.1071617802320901 3.0905286232630416 1.163695874113903 0.25360675220194739 -1.1748838184437214 0.36428657224480537 -0.63487964963141419 1.0435441845463398 -0.092587029216749051 -0.51852835512561535 -0.52277330193700267 1.1302458411721248 -0.37159631270360127 0.46004754860313268 1.0381573969667608 0.10638453371270043 -0.87866817224334604 0.68142369045682061 1.8201521313782281 0.077046616379735311 -0.4831937703061594 -0.096058761209857721 1.6793608739095576
leaf_weight=201 399 132 588 365 753 24 457 236 54 107 1028 416 213 1209 419 1652 470 353 420 2269 1364 22 962 790 1023 141 152 146 245 238
leaf_count=201 399 132 588 365 753 24 457 236 54 107 1028 416 213 1209 419 1652 470 353 420 2269 1364 22 962 790 1023 141 152 146 245 238
internal_value=0 0.705806 -0.410287 0.484232 -0.751667 1.58616 -0.161456 2.06799 2.29286 0.748337 0.317484 -1.04524 -0.0214858 -0.617447 0.813658 0.0177503 -0.541661 -0.752238 1.3077 -0.32316 0.37164 -0.00996676 -0.0190749 -0.981467 0.727754 1.66823 -0.393937 -0.194917 0.11517 1.50711
internal_weight=0 6195 10653 4950 4490 1245 6163 455 290 1914 3036 1407 3306 3083 1549 2849 1977 1106 790 2857 2392 2636 2614 1206 1130 165 768 298 644 370
internal_count=16848 6195 10653 4950 4490 1245 6163 455 290 1914 3036 1407 3306 3083 1549 2849 1977 1106 790 2857 2392 2636 2614 1206 1130 165 768 298 644 370
is_linear=0
shrinkage=0.05


Tree=20
num_leaves=31
num_cat=0
split_feature=4 4 4 4 4 4 4 698 681 266 5 681 698 698 24 24 17 216 697 9 5 681 698 699 697 9 698 4 288 8
split_gain=1.76305e+06 389207 381660 84673.4 74467.7 45866.7 44622.5 15970.6 14608.4 12938.5 12815 11790.3 11412.8 11348.9 11169.9 11166 11013.5 11411.2 10238.1 11225.1 10166.1 9474.1 8526.54 7987.04 8875.76 7871.04 7598.61 7533.6 7527.49 7427.89
threshold=95.014500000000012 146.79600000000002 62.820000000000007 40.005500000000005 115.968 78.957000000000008 187.36100000000002 0.59150000000000003 -0.5 193.50300000000001 61.840500000000006 -0.60355339059327384 0.64650000000000019 0.79550000000000021 70.005500000000026 63.510500000000008 96.57650000000001 138.09550000000004 21.022500000000004 96.260000000000019 71.03700000000002 1.0000000180025095e-35 0.96950000000000014 69.94850000000001 16.152500000000003 94.124500000000012 0.84050000000000014 105.66500000000002 117.62600000000002 105.66500000000002
decision_type=2 2 2 2 2 2 2 2 2 2 2 2 2 2 2 2 2 2 2 2 2 2 2 2 2 2 2 2 2 2
left_child=2 4 3 7 11 9 13 25 -6 10 -4 -2 21 -3 -14 -9 28 -18 19 -15 -7 -5 -12 24 -16 -1 -22 -13 -8 -25
right_child=1 6 5 12 8 20 16 15 -10 -11 22 27 14 18 23 -17 17 -19 -20 -21 26 -23 -24 29 -26 -27 -28 -29 -30 -31
leaf_value=-1.1895344264550078 0.52170475516811632 0.81508994159790193 -0.0056796211833237582 -1.0161237217485906 0.96510726090160803 0.36442799569512035 1.974268183779361 -0.94719450915288894 0.66376020822926196 0.866326313548618 -0.40915799465382535 0.20652471452057219 -0.55343937948579114 0.0011014229059219361 -0.36162120728622782 -0.62697444955746717 2.2271442496693221 3.4170214123196079 1.6002966935406189 1.285218168795109 -0.12298690846233916 -0.59149372490693264 -0.20975798718366934 -0.51265564931461982 0.069256875491173001 -0.60997746653959783 0.077473445140731387 0.40894458964543745 0.85739784137062414 0.1558685676996098
leaf_weight=613 868 78 541 174 704 251 67 724 1012 27 815 1054 1559 20 301 468 143 27 501 188 613 645 1659 571 194 71 2044 850 23 43
leaf_count=613 868 78 541 174 704 251 67 724 1012 27 815 1054 1559 20 301 468 143 27 501 188 613 645 1659 571 194 71 2044 850 23 43
internal_value=0 0.731344 -0.357659 -0.663575 0.528583 -0.081798 1.59977 -0.934934 0.787827 -0.217582 -0.227537 0.367828 -0.517369 1.40943 -0.46636 -0.8221 2.17303 2.42054 1.47375 1.16535 0.0599849 -0.682624 -0.275749 -0.34327 -0.191237 -1.13047 0.0309427 0.297285 1.69718 -0.464616
internal_weight=0 5535 11313 5363 4488 5950 1047 1876 1716 3042 3015 2772 3487 787 2668 1192 260 170 709 208 2908 819 2474 1109 495 684 2657 1904 90 614
internal_count=16848 5535 11313 5363 4488 5950 1047 1876 1716 3042 3015 2772 3487 787 2668 1192 260 170 709 208 2908 819 2474 1109 495 684 2657 1904 90 614
is_linear=0
shrinkage=0.05


Tree=21
num_leaves=31
num_cat=0
split_feature=4 4 4 4 4 4 4 4 697 31 681 681 698 698 1 383 6 26 414 4 144 47 5 681 20 698 681 4 698 311
split_gain=1.59561e+06 442833 253973 87171.2 61075.5 57010.9 34021 16943.8 14473 13760.8 12234.8 12187.3 11696.1 11372.9 9980.7 19682.6 9974.96 9667.14 10071.4 9200.9 8626.33 8238.87 8105.35 8097.51 7660.71 7858.6 7555.84 7553.81 7552.64 7204.75
threshold=87.648500000000013 130.85200000000003 50.335500000000003 166.17600000000002 66.903000000000006 106.68800000000002 27.704500000000003 201.52050000000003 24.827500000000004 91.241000000000014 -0.78656609248549325 -0.9159756150367534 0.54750000000000021 0.74350000000000016 6.5000000000000009 113.53300000000002 92.58550000000001 66.959000000000017 85.594500000000011 78.957000000000008 101.33900000000001 63.906500000000008 82.489000000000019 -0.78656609248549325 133.60900000000004 0.82350000000000001 -0.78656609248549325 97.915500000000023 0.66150000000000009 97.848000000000013
decision_type=2 2 2 2 2 2 2 2 2 2 2 2 2 2 2 2 2 2 2 2 2 2 2 2 2 2 2 2 2 2
left_child=2 5 6 11 24 13 21 23 10 -9 -6 -3 20 -2 15 -10 -14 26 -19 -12 -7 -1 -15 -5 25 -4 -8 -24 -13 -11
right_child=1 3 4 7 8 12 17 9 14 29 19 28 16 22 -16 -17 -18 18 -20 -21 -22 -23 27 -25 -26 -27 -28 -29 -30 -31
leaf_value=-1.1598943548436675 -0.0036763555604507267 1.4055302075437597 -0.54011193879007091 2.0969391172072469 0.06336243164750302 0.30869814521736572 -0.45821893544458758 1.0288473856449127 0.08974290729331022 2.0299178311824799 -0.25385183316559895 0.54170880808874411 0.85249306888836274 0.49539179323901295 0.068648182450735992 1.889508452018102 0.53509669557752459 -0.38033481556533338 -0.74896205450238307 -0.067954589769855814 -0.64348581906022695 -0.8269946617185111 0.13916135476090447 1.52397519942071 -0.0043442966524234487 -0.35971211738895525 -0.79480856413338208 0.32975200384194331 1.0027065814727754 2.9238337039947511
leaf_weight=560 497 185 909 85 641 126 205 20 44 50 1647 108 301 316 339 24 1722 479 318 1139 29 311 1227 370 121 1979 1277 930 829 60
leaf_count=560 497 185 909 85 641 126 205 20 44 50 1647 108 301 316 339 24 1722 479 318 1139 29 311 1227 370 121 1979 1277 930 829 60
internal_value=0 0.587607 -0.402898 1.28567 -0.231721 0.355994 -0.774521 1.78225 -0.0991289 2.30002 -0.132734 1.02609 0.550515 0.213093 0.181987 0.735984 0.582692 -0.672008 -0.528357 -0.178121 0.125709 -1.04189 0.256961 1.63266 -0.400418 -0.416753 -0.748755 0.221683 0.950372 2.52433
internal_weight=0 6855 9993 1707 6843 5148 3150 585 3834 130 3427 1122 2178 2970 407 68 2023 2279 797 2786 155 871 2473 455 3009 2888 1482 2157 937 110
internal_count=16848 6855 9993 1707 6843 5148 3150 585 3834 130 3427 1122 2178 2970 407 68 2023 2279 797 2786 155 871 2473 455 3009 2888 1482 2157 937 110
is_linear=0
shrinkage=0.05


Tree=22
num_leaves=31
num_cat=0
split_feature=4 4 4 4 4 4 4 4 149 698 697 681 681 448 677 5 6 698 241 4 263 699 698 681 698 508 698 6 160 681
split_gain=1.4403e+06 399759 229497 78677.2 51461.8 45597.6 36625.5 15266.3 13236.2 12981.3 11502.6 11068.3 10967.6 10513.8 9831.17 9665.83 9278.74 9222.83 8753.79 8450.11 8240.8 7745.22 7637.72 7261.47 6789.17 6013.57 6008.49 5612.29 5611.65 5464.05
threshold=87.648500000000013 130.85200000000003 55.657000000000004 166.17600000000002 103.99450000000002 30.719000000000005 70.33550000000001 201.52050000000003 87.339000000000013 1.1915000000000002 24.827500000000004 -0.78656609248549325 -0.9159756150367534 39.772500000000008 0.6830127018922193 54.82200000000001 76.69250000000001 1.0785000000000002 62.472500000000004 115.968 181.83100000000002 63.313500000000012 0.8135 -0.78656609248549325 0.66150000000000009 61.669000000000004 0.89750000000000008 76.993000000000009 59.935500000000012 1.0000000180025095e-35
decision_type=2 2 2 2 2 2 2 2 2 2 2 2 2 2 2 2 2 2 2 2 2 2 2 2 2 2 2 2 2 2
left_child=2 4 5 12 16 18 15 23 -9 -6 17 -7 25 -12 -13 -4 -2 -8 -1 -11 26 -15 -18 -5 -14 -3 28 -20 -17 -16
right_child=1 3 6 7 9 11 10 8 -10 19 13 14 24 21 29 20 22 -19 27 -21 -22 -23 -24 -25 -26 -27 -28 -29 -30 -31
leaf_value=-1.0740052495295704 0.4105659879792059 0.45964137911796571 -0.12166481499984508 1.992092165105483 0.33594285073176477 -0.36036907228680465 -0.22438877241688676 0.93946553230285645 2.4053491319851443 0.48046164363334676 1.2859306451820194 -0.52876839768239081 0.51462336421288835 0.4786904097657721 -0.90326114593223594 -0.73180580656476246 -0.035622256137108135 -0.037578163186683569 -0.82190000632345073 0.71117772544147795 0.37396381911304266 -0.037145143997338086 0.19110861508657651 1.4477764371188508 0.95257125209176652 1.4368430695931118 -0.31740647524106191 -0.072177799251572847 -0.41109860158575623 -0.65094060701009882
leaf_weight=647 388 20 507 85 825 522 1039 20 110 954 21 1384 108 106 348 194 462 1849 396 729 36 225 1790 370 829 165 1442 29 553 695
leaf_count=647 388 20 507 85 825 522 1039 20 110 954 21 1384 108 106 348 194 462 1849 396 729 36 225 1790 370 829 165 1442 29 553 695
internal_value=0 0.558287 -0.382776 1.22154 0.338216 -0.67486 -0.185987 1.69339 2.1856 0.500583 -0.0719858 -0.572708 0.974851 0.197125 -0.618069 -0.320911 0.183684 -0.105046 -0.955174 0.580843 -0.365975 0.125781 0.144262 1.55111 0.902893 1.33525 -0.378487 -0.772507 -0.495392 -0.735847
internal_weight=0 6855 9993 1707 5148 4021 5972 585 130 2508 3240 2949 1122 352 2427 2732 2640 2888 1072 1683 2225 331 2252 455 937 185 2189 425 747 1043
internal_count=16848 6855 9993 1707 5148 4021 5972 585 130 2508 3240 2949 1122 352 2427 2732 2640 2888 1072 1683 2225 331 2252 455 937 185 2189 425 747 1043
is_linear=0
shrinkage=0.05


Tree=23
num_leaves=31
num_cat=0
split_feature=4 4 4 4 4 4 4 4 266 5 698 13 698 698 699 217 5 24 698 120 681 391 680 697 697 4 191 475 290 32
split_gain=1.30245e+06 314545 264739 77447.5 45037.1 33332.7 29914.8 15400.6 11982.8 12159.7 11295.7 10284.5 10752.1 9705.92 9574.67 9519.14 9450.97 9290.05 9194.54 10888.6 8993.12 7461.5 7209.21 7168.87 7046.97 6965.6 6963.93 6754.88 6490.29 6009.67
